{"learner":{"attributes":{},"feature_names":["num_lanes","curvature","speed_limit","road_signs_present","public_road","holiday","school_season","num_reported_accidents","curavture_accidents","road_type_highway","road_type_rural","road_type_urban","lighting_daylight","lighting_dim","lighting_night","weather_clear","weather_foggy","weather_rainy","time_of_day_afternoon","time_of_day_evening","time_of_day_morning"],"feature_types":["int","float","int","int","int","int","int","int","float","int","int","int","int","int","int","int","int","int","int","int","int"],"gradient_booster":{"model":{"gbtree_model_param":{"num_parallel_tree":"1","num_trees":"431"},"iteration_indptr":[0,1,2,3,4,5,6,7,8,9,10,11,12,13,14,15,16,17,18,19,20,21,22,23,24,25,26,27,28,29,30,31,32,33,34,35,36,37,38,39,40,41,42,43,44,45,46,47,48,49,50,51,52,53,54,55,56,57,58,59,60,61,62,63,64,65,66,67,68,69,70,71,72,73,74,75,76,77,78,79,80,81,82,83,84,85,86,87,88,89,90,91,92,93,94,95,96,97,98,99,100,101,102,103,104,105,106,107,108,109,110,111,112,113,114,115,116,117,118,119,120,121,122,123,124,125,126,127,128,129,130,131,132,133,134,135,136,137,138,139,140,141,142,143,144,145,146,147,148,149,150,151,152,153,154,155,156,157,158,159,160,161,162,163,164,165,166,167,168,169,170,171,172,173,174,175,176,177,178,179,180,181,182,183,184,185,186,187,188,189,190,191,192,193,194,195,196,197,198,199,200,201,202,203,204,205,206,207,208,209,210,211,212,213,214,215,216,217,218,219,220,221,222,223,224,225,226,227,228,229,230,231,232,233,234,235,236,237,238,239,240,241,242,243,244,245,246,247,248,249,250,251,252,253,254,255,256,257,258,259,260,261,262,263,264,265,266,267,268,269,270,271,272,273,274,275,276,277,278,279,280,281,282,283,284,285,286,287,288,289,290,291,292,293,294,295,296,297,298,299,300,301,302,303,304,305,306,307,308,309,310,311,312,313,314,315,316,317,318,319,320,321,322,323,324,325,326,327,328,329,330,331,332,333,334,335,336,337,338,339,340,341,342,343,344,345,346,347,348,349,350,351,352,353,354,355,356,357,358,359,360,361,362,363,364,365,366,367,368,369,370,371,372,373,374,375,376,377,378,379,380,381,382,383,384,385,386,387,388,389,390,391,392,393,394,395,396,397,398,399,400,401,402,403,404,405,406,407,408,409,410,411,412,413,414,415,416,417,418,419,420,421,422,423,424,425,426,427,428,429,430,431],"tree_info":[0,0,0,0,0,0,0,0,0,0,0,0,0,0,0,0,0,0,0,0,0,0,0,0,0,0,0,0,0,0,0,0,0,0,0,0,0,0,0,0,0,0,0,0,0,0,0,0,0,0,0,0,0,0,0,0,0,0,0,0,0,0,0,0,0,0,0,0,0,0,0,0,0,0,0,0,0,0,0,0,0,0,0,0,0,0,0,0,0,0,0,0,0,0,0,0,0,0,0,0,0,0,0,0,0,0,0,0,0,0,0,0,0,0,0,0,0,0,0,0,0,0,0,0,0,0,0,0,0,0,0,0,0,0,0,0,0,0,0,0,0,0,0,0,0,0,0,0,0,0,0,0,0,0,0,0,0,0,0,0,0,0,0,0,0,0,0,0,0,0,0,0,0,0,0,0,0,0,0,0,0,0,0,0,0,0,0,0,0,0,0,0,0,0,0,0,0,0,0,0,0,0,0,0,0,0,0,0,0,0,0,0,0,0,0,0,0,0,0,0,0,0,0,0,0,0,0,0,0,0,0,0,0,0,0,0,0,0,0,0,0,0,0,0,0,0,0,0,0,0,0,0,0,0,0,0,0,0,0,0,0,0,0,0,0,0,0,0,0,0,0,0,0,0,0,0,0,0,0,0,0,0,0,0,0,0,0,0,0,0,0,0,0,0,0,0,0,0,0,0,0,0,0,0,0,0,0,0,0,0,0,0,0,0,0,0,0,0,0,0,0,0,0,0,0,0,0,0,0,0,0,0,0,0,0,0,0,0,0,0,0,0,0,0,0,0,0,0,0,0,0,0,0,0,0,0,0,0,0,0,0,0,0,0,0,0,0,0,0,0,0,0,0,0,0,0,0,0,0,0,0,0,0,0,0,0,0,0,0,0,0,0,0,0,0,0,0,0,0,0,0,0,0,0,0,0,0,0,0,0,0,0,0,0,0,0,0,0,0,0,0,0,0,0,0,0,0,0,0,0,0],"trees":[{"base_weights":[4.1063253E-5,-8.55094E-2,8.7044604E-2,-1.3461837E-1,7.1154432E-3,1.6781624E-2,1.9970243E-1,-1.9667129E-1,-1.8078504E-2,-2.0571087E-2,1.4606316E-1,-3.8960043E-2,1.3772573E-1,1.3797812E-1,3.272508E-1,-1.68431E-1,-2.588907E-1,1.1364548E-2,-7.62728E-2,1.1609539E-2,-8.042869E-2,2.2433378E-1,9.592619E-2,-5.397636E-2,8.796263E-2,1.7507057E-1,8.064214E-2,1.772956E-1,7.8880206E-2,3.6913288E-1,2.6675233E-1,-2.1007237E-1,-1.3960017E-1,-2.956259E-1,-2.3488216E-1,-2.3544146E-2,5.250138E-2,-9.623735E-2,-3.969857E-2,-2.6519991E-2,5.5740274E-2,-1.0619093E-1,-4.3415487E-2,1.4117068E-1,2.7273604E-1,5.9222654E-2,1.3385245E-1,-3.1652797E-2,-1.0726432E-1,4.346677E-2,1.1537112E-1,1.5426223E-1,2.7305886E-1,6.466569E-2,1.7590003E-1,1.5995929E-1,2.6270616E-1,4.2226564E-2,1.1473747E-1,3.4624708E-1,4.5134252E-1,2.4868059E-1,3.6871916E-1,-2.2598696E-1,-1.9011033E-1,-1.6126768E-1,-1.1810103E-1,-3.0511618E-1,-2.7974412E-1,-2.5120184E-1,-2.147352E-1,-4.1020617E-2,-1.884346E-3,2.9591788E-2,7.0615E-2,-1.17531955E-1,-8.2000524E-2,-5.863153E-2,-3.2420803E-2,-4.948302E-2,-8.51183E-3,3.422922E-2,7.3422305E-2,-1.2841477E-1,-9.362493E-2,-6.393346E-2,-3.3264264E-2,1.0183505E-1,1.660283E-1,2.3700182E-1,2.7651855E-1,1.8824814E-2,7.6764E-2,1.1273715E-1,1.4727417E-1,-6.0641225E-2,-2.887145E-3,-1.5251282E-1,-5.7297654E-2,2.0340862E-2,6.0452998E-2,1.2404472E-1,6.3436165E-2,1.3050707E-1,1.860004E-1,2.3320271E-1,3.0432233E-1,3.963186E-2,9.66602E-2,1.3395777E-1,2.1302682E-1,1.313743E-1,1.9419406E-1,2.280318E-1,2.9571405E-1,3.4035232E-2,1.2600906E-1,1.0127075E-1,1.9992796E-1,3.1729168E-1,3.792302E-1,3.274772E-2,4.7065112E-1,2.2366853E-1,2.7632555E-1,3.3491385E-1,3.2581903E-2,-1.9921197E-2,-1.8152429E-2,-1.6009118E-2,-1.4861063E-2,-1.6705921E-1,-1.4786488E-1,-1.28672E-1,-1.0560377E-1,-2.5513297E-2,-2.4287539E-2,-2.307947E-2,-2.1977667E-2,-2.1080371E-2,-1.9701963E-2,-2.176013E-1,-1.586081E-2,-5.158873E-2,-2.7566591E-2,-1.21430755E-2,7.3026503E-3,2.9942157E-2,-1.3069187E-2,6.269388E-2,9.552265E-2,-1.2910348E-1,-1.0520948E-1,-8.114782E-2,-1.529677E-1,-4.6605715E-3,-1.55182E-2,-3.6706615E-2,-1.5346037E-3,-4.8500825E-2,-1.4586309E-2,-1.5849147E-2,9.934751E-3,3.4608573E-2,-1.4393325E-2,6.551575E-2,9.061038E-2,-1.1972939E-2,-1.2598631E-1,-9.256102E-2,-1.3791559E-2,-6.286157E-2,-1.46168675E-2,-3.259168E-2,-1.3999677E-1,1.12089984E-1,7.1555167E-3,1.8287134E-1,1.2808521E-1,2.0264413E-2,1.8722662E-1,2.232455E-2,2.8817585E-2,2.0558162E-2,-1.1851785E-2,5.8405742E-2,8.4244445E-2,1.2235103E-1,1.010054E-1,1.4318722E-1,1.607565E-2,-7.052009E-2,-4.0708013E-2,-2.4747286E-2,2.746399E-3,-1.678408E-1,-1.271688E-1,-7.665114E-2,-4.531279E-2,2.167579E-2,-1.278714E-1,4.536641E-2,5.422799E-3,9.961341E-2,1.3761155E-1,6.509322E-2,-1.4361608E-2,1.1882471E-1,1.4178471E-1,1.7436905E-1,1.9736081E-1,1.7549414E-2,2.0071674E-2,2.9886764E-1,3.0570697E-2,1.8433912E-2,5.3429343E-2,6.6720024E-3,1.02420285E-1,1.090051E-1,1.1935159E-2,1.9993868E-1,1.8638426E-2,1.2062066E-1,1.481414E-1,1.8549898E-1,2.1778281E-1,1.741342E-2,1.9836815E-2,2.2536745E-2,2.5639523E-2,1.4243657E-2,4.566342E-2,1.2781961E-1,-1.2315831E-2,9.199971E-2,1.2562324E-1,1.5055177E-2,2.1243833E-1,2.4307217E-2,3.3581775E-1,3.663303E-1,3.291773E-2,3.6943592E-2,4.0070847E-2,1.6657982E-2,1.8949263E-2,2.1244835E-2,2.863496E-1,2.5893372E-2,2.8474523E-2,-1.6686997E-1,-1.9636035E-2,-1.171718E-2,-1.2292684E-2,-1.3206045E-1,-9.7323945E-3,-1.0716778E-1,-3.702908E-2,-1.8180953E-2,-1.733717E-2,-5.0526608E-2,-1.3102694E-1,-2.6743298E-2,-1.3640379E-2,-1.1507021E-2,-1.2144899E-2,7.794913E-3,-1.1370015E-2,2.4993492E-2,3.695941E-2,4.7686487E-3,6.991208E-2,9.189437E-2,1.5130475E-2,-1.19229825E-2,-9.948131E-3,-8.4396275E-3,-1.2741997E-2,-8.757585E-2,-5.916024E-3,-9.155487E-2,-1.3695862E-2,-2.8948074E-3,-1.4319213E-2,-5.181621E-2,-3.3916514E-2,-1.5350365E-2,-1.3727465E-1,1.7248107E-2,2.3880133E-3,2.9216642E-2,4.9957916E-2,5.9586335E-2,7.0328735E-2,8.967369E-2,1.3912551E-2,-1.2525621E-1,-1.27662E-2,-9.7922E-2,-8.123343E-2,-6.5744735E-2,-4.192701E-3,-3.7218444E-2,-1.9259322E-2,-1.5667176E-2,-7.9371757E-4,1.2360816E-1,7.986803E-3,1.9573563E-1,1.5169813E-1,1.4281516E-1,8.346273E-3,2.1314819E-1,9.974718E-3,1.28777E-2,2.7104106E-2,5.5676694E-3,4.5218818E-2,9.285044E-2,7.444383E-2,1.0904868E-1,1.0527312E-2,1.1346941E-1,8.3398014E-2,1.2067754E-2,9.277593E-3,-8.03523E-2,-6.1152946E-2,-3.806556E-3,-3.8681664E-2,-2.6753485E-2,-1.7058888E-3,-5.7884534E-3,9.196542E-3,-1.4298972E-2,-1.2564656E-2,-1.0597878E-2,-9.291068E-3,-8.8814594E-2,-6.891834E-2,-5.0090473E-2,-3.0840905E-2,1.1378444E-2,1.982031E-3,-1.4514496E-2,-1.5788882E-3,3.7375214E-3,-2.79629E-3,7.2841523E-3,8.7152375E-3,1.0368245E-2,1.2334966E-2,4.8938533E-3,6.5824566E-3,1.1400987E-1,1.224809E-1,1.3520743E-1,1.4683598E-1,1.3523809E-2,1.4557627E-2,1.9472827E-1,1.719969E-2,2.2062154E-2,3.098037E-1,1.52571825E-2,2.1208785E-3,3.2113541E-3,5.937172E-2,9.986244E-2,9.234487E-3,9.172944E-3,4.318252E-2,1.4334561E-2,1.6710348E-2,1.164578E-1,1.0631729E-2,1.1807485E-2,1.2955346E-2,1.3859556E-2,1.9335015E-1,1.7227987E-2,2.3035254E-1,8.5592514E-4,1.8183909E-3,3.3740487E-2,5.1517647E-2,1.1206114E-1,1.14842E-2,-8.12285E-3,6.3236523E-3,6.2435884E-3,9.841359E-2,1.2706512E-1,7.418255E-2,1.7298393E-2,7.946854E-3,2.6133679E-2,2.7782831E-2,2.8807031E-2,3.0713443E-2,2.2904763E-2,2.5295414E-2,-1.3692697E-2,-1.3097705E-2,-1.2861866E-1,-1.1704237E-2,-1.1174645E-1,-8.3358595E-3,-1.8451331E-2,-1.6594236E-3,-5.9994914E-2,-3.7817506E-3,-1.2535729E-2,-7.744248E-2,-2.992174E-2,-1.7086961E-3,-1.4669293E-2,-5.109789E-4,4.6707207E-4,8.772096E-4,2.8253669E-2,1.4411227E-3,3.5855228E-3,3.4247413E-2,6.147199E-3,6.460283E-2,8.727223E-2,1.0237512E-1,-6.7790872E-3,-7.423322E-3,5.116822E-3,-1.2181617E-2,-4.846027E-2,-4.4750185E-3,-2.314443E-3,-3.9284952E-2,-2.4762142E-2,-1.1260111E-2,3.0772467E-3,-1.4296552E-2,9.6389663E-4,1.7564079E-3,-5.5152414E-5,1.1375557E-2,3.5571277E-2,2.2339724E-2,4.367329E-3,3.715127E-3,5.376663E-3,5.232661E-2,7.213126E-2,6.2195987E-2,8.643274E-2,8.181983E-3,-1.0378705E-2,-9.730845E-3,-1.0445061E-1,-7.6590944E-3,-7.655548E-2,-8.590376E-2,-5.7709017E-3,-5.0626006E-3,-3.2298474E-3,-2.6950769E-3,-1.3681461E-2,-2.7067618E-2,1.0742852E-1,1.4295685E-1,1.4672652E-1,1.637333E-2,1.3086808E-1,1.8140513E-1,1.2540112E-1,1.43468445E-2,1.1253275E-2,1.9354347E-2,1.8529173E-3,2.590164E-2,3.5463907E-2,1.4504967E-3,3.4010004E-2,6.458735E-2,8.09891E-3,8.545229E-2,6.651347E-3,6.407181E-2,7.886341E-3,1.0449896E-2,1.2748346E-1,9.399288E-2,4.8863832E-2,7.2524413E-3,-7.0871236E-3,-6.0528647E-3,-6.0548738E-2,-5.566501E-3,-2.8099685E-3,-4.0195215E-2,-2.4247942E-3,-1.9092981E-3,9.0195687E-4,-1.4339393E-2,2.377644E-3,1.4570097E-2,-9.38803E-2,-7.9352416E-2,-4.1606557E-3,-6.9790624E-2,-4.6613016E-3,-4.6963945E-2,-2.2823643E-3,-1.0430574E-2,-3.580287E-4,1.8378172E-2,8.775716E-3,9.587856E-3,9.77325E-3,1.1049551E-2,1.2408536E-1,1.1368779E-2,1.1190035E-2,1.2246693E-2,1.5049758E-2,1.600879E-2,2.4378298E-2,2.6388545E-2,6.431839E-4,1.4707854E-3,4.331555E-3,5.1543764E-3,1.0230087E-1,9.2576146E-2,-2.8815435E-3,6.6694943E-3,9.060244E-3,9.600335E-3,1.5285465E-2,1.5976205E-2,1.8911084E-2,1.5375996E-2,3.4528698E-3,2.510907E-3,4.786825E-2,4.5729107E-3,7.2251456E-3,9.567503E-3,9.424983E-2,1.0172779E-1,1.0006744E-2,1.1170426E-2,2.4432521E-2,7.7436897E-3,-1.0419868E-2,-1.7837346E-2,-8.846851E-3,-1.0976161E-2,-6.2378454E-3,-4.6745664E-3,2.393864E-3,-1.0447914E-2,-3.0725242E-3,-2.3023398E-3,-8.994999E-4,-1.5164138E-3,-2.78836E-4,9.86329E-4,1.6725063E-3,2.9517203E-3,2.4342262E-3,3.1419492E-3,4.927624E-3,6.0935714E-3,7.32429E-3,-8.312358E-3,8.973478E-3,6.9561903E-3,-4.349977E-3,-3.6050035E-3,-4.0166685E-3,-2.826304E-3,-1.6850218E-3,-2.3320194E-3,-5.278663E-4,-1.3138191E-3,2.1199477E-4,1.7184581E-3,2.4509367E-3,3.2981925E-3,1.3318341E-3,2.2144015E-3,3.8338946E-3,4.652029E-3,5.5375425E-3,6.1322288E-3,5.5296924E-3,4.0092045E-3,7.133963E-3,3.2141546E-3,-8.2068015E-3,-9.246264E-3,-7.296989E-3,-5.9685516E-3,-7.3292893E-3,-6.187547E-3,-1.7296476E-3,-5.0411606E-4,-2.9465416E-3,-1.4754859E-3,6.4844936E-3,1.0522682E-2,9.59562E-3,1.4935488E-2,9.685896E-3,1.511486E-2,8.826625E-3,1.2219768E-2,7.6575247E-3,1.5700165E-2,7.7392664E-3,1.1624555E-2,4.5981444E-3,-9.755032E-5,3.224574E-3,5.9145596E-4,3.7282796E-3,1.9678622E-3,1.7420986E-3,4.5827376E-3,6.7473054E-3,3.3608908E-3,7.867616E-3,5.861125E-3,6.4452486E-3,3.6931348E-3,9.310162E-3,1.2243359E-2,5.6367805E-3,8.909689E-3,6.1931275E-3,1.1370006E-3,-5.0977236E-3,-4.6589486E-3,-3.5053769E-3,-3.022836E-3,-3.3124E-4,4.469027E-4,-2.1885775E-3,-5.14711E-4,-5.742029E-4,7.1619387E-4,6.851347E-4,1.9056052E-3,-6.356587E-3,-7.89271E-3,-5.6153806E-3,-7.6649548E-3,-6.9278437E-3,-5.4460354E-3,-4.024043E-3,-3.4955975E-3,1.6973257E-3,-3.557878E-3,8.54393E-3,1.0526566E-2,8.617951E-3,7.643912E-3,6.0375584E-3,7.7934996E-3,3.6631953E-3,4.3301084E-3,8.5086515E-3,7.4860267E-3,9.589725E-3,8.065327E-3,-1.1995181E-3,4.5914766E-3],"categories":[],"categories_nodes":[],"categories_segments":[],"categories_sizes":[],"default_left":[0,0,0,0,0,0,0,0,0,0,0,0,0,0,0,0,0,0,0,0,0,0,0,0,0,0,0,0,0,0,0,0,0,0,0,0,0,0,0,0,0,0,0,0,0,0,0,0,0,0,0,0,0,0,0,0,0,0,0,0,0,0,0,0,0,0,0,0,0,0,0,0,0,0,0,0,0,0,0,0,0,0,0,0,0,0,0,0,0,0,0,0,0,0,0,0,0,0,0,0,0,0,0,0,0,0,0,0,0,0,0,0,0,0,0,0,0,0,0,0,0,0,0,0,0,0,0,0,0,0,0,0,0,0,0,0,0,0,0,0,0,0,0,0,0,0,0,0,0,0,0,0,0,0,0,0,0,0,0,0,0,0,0,0,0,0,0,0,0,0,0,0,0,0,0,0,0,0,0,0,0,0,0,0,0,0,0,0,0,0,0,0,0,0,0,0,0,0,0,0,0,0,0,0,0,0,0,0,0,0,0,0,0,0,0,0,0,0,0,0,0,0,0,0,0,0,0,0,0,0,0,0,0,0,0,0,0,0,0,0,0,0,0,0,0,0,0,0,0,0,0,0,0,0,0,0,0,0,0,0,0,0,0,0,0,0,0,0,0,0,0,0,0,0,0,0,0,0,0,0,0,0,0,0,0,0,0,0,0,0,0,0,0,0,0,0,0,0,0,0,0,0,0,0,0,0,0,0,0,0,0,0,0,0,0,0,0,0,0,0,0,0,0,0,0,0,0,0,0,0,0,0,0,0,0,0,0,0,0,0,0,0,0,0,0,0,0,0,0,0,0,0,0,0,0,0,0,0,0,0,0,0,0,0,0,0,0,0,0,0,0,0,0,0,0,0,0,0,0,0,0,0,0,0,0,0,0,0,0,0,0,0,0,0,0,0,0,0,0,0,0,0,0,0,0,0,0,0,0,0,0,0,0,0,0,0,0,0,0,0,0,0,0,0,0,0,0,0,0,0,0,0,0,0,0,0,0,0,0,0,0,0,0,0,0,0,0,0,0,0,0,0,0,0,0,0,0,0,0,0,0,0,0,0,0,0,0,0,0,0,0,0,0,0,0,0,0,0,0,0,0,0,0,0,0,0,0,0,0,0,0,0,0,0,0,0,0,0,0,0,0,0,0,0,0,0,0,0,0,0,0,0,0,0,0,0,0,0,0,0,0,0,0,0,0,0,0,0,0,0,0,0,0,0,0,0,0,0,0,0,0,0,0,0,0,0,0,0,0,0,0,0,0,0,0,0,0,0,0,0,0,0,0,0,0,0,0,0,0,0,0,0,0,0,0,0,0,0,0,0,0,0,0,0,0,0,0,0,0,0,0,0,0,0,0,0,0,0,0,0,0,0,0,0,0,0,0,0,0,0,0,0,0,0,0,0,0,0,0,0,0,0,0,0,0,0,0,0,0,0,0,0,0,0,0,0,0,0,0,0,0,0,0,0,0,0,0,0,0,0,0,0,0,0,0,0,0,0,0,0,0,0,0,0,0,0,0,0,0,0,0,0,0,0,0,0,0],"id":0,"left_children":[1,3,5,7,9,11,13,15,17,19,21,23,25,27,29,31,33,35,37,39,41,43,45,47,49,51,53,55,57,59,61,63,65,67,69,71,73,75,77,79,81,83,85,87,89,91,93,95,97,99,101,103,105,107,109,111,113,115,117,119,121,123,125,127,129,131,133,135,137,139,141,143,145,147,149,151,153,155,157,159,161,163,165,167,169,171,173,175,177,179,181,183,185,187,189,191,193,195,197,199,201,203,205,207,209,211,213,215,217,219,221,223,225,227,229,231,233,235,237,239,241,-1,243,245,247,249,-1,-1,-1,-1,-1,251,253,255,257,-1,-1,-1,-1,-1,-1,259,-1,261,263,265,267,269,-1,271,273,275,277,279,281,-1,-1,283,-1,285,-1,287,289,291,-1,293,295,-1,297,299,-1,301,-1,303,305,307,-1,309,311,-1,313,-1,-1,315,-1,317,319,321,323,325,-1,327,329,331,333,335,337,339,341,343,345,347,-1,349,351,353,-1,355,357,359,361,-1,-1,363,-1,365,367,-1,369,371,-1,373,-1,375,377,379,381,-1,-1,-1,-1,383,385,387,389,391,393,-1,395,-1,397,399,-1,-1,-1,-1,-1,-1,401,-1,-1,403,-1,-1,-1,405,-1,407,409,-1,-1,411,413,415,-1,417,-1,419,-1,421,423,-1,425,427,-1,-1,-1,-1,-1,429,-1,431,-1,-1,-1,433,435,437,439,441,443,445,447,449,451,453,-1,455,-1,457,459,461,-1,463,465,-1,-1,467,-1,469,471,473,-1,475,-1,477,479,-1,481,483,485,487,-1,489,491,-1,-1,493,495,-1,497,499,-1,501,503,-1,-1,-1,-1,505,507,509,511,513,-1,-1,-1,-1,-1,-1,-1,-1,-1,-1,-1,515,517,519,521,-1,-1,523,-1,-1,525,527,-1,-1,529,531,-1,-1,533,-1,-1,535,-1,-1,-1,-1,537,-1,539,-1,-1,541,543,545,-1,-1,-1,-1,547,549,551,-1,-1,-1,-1,-1,-1,-1,-1,-1,-1,553,-1,555,-1,-1,-1,557,-1,-1,559,561,-1,563,-1,565,-1,567,-1,-1,569,-1,571,573,575,-1,-1,-1,-1,577,-1,-1,579,581,583,-1,-1,-1,-1,-1,585,587,589,-1,-1,-1,591,593,595,597,-1,-1,-1,599,-1,601,603,-1,-1,-1,-1,605,607,609,611,613,-1,615,617,619,-1,-1,-1,621,623,625,-1,627,629,-1,631,-1,633,-1,-1,635,637,639,-1,-1,-1,641,-1,-1,643,-1,-1,645,647,649,651,653,655,-1,657,-1,659,-1,-1,-1,661,-1,-1,-1,-1,663,-1,-1,-1,-1,-1,-1,-1,-1,-1,-1,-1,665,667,-1,-1,-1,-1,-1,-1,-1,-1,-1,-1,669,-1,-1,-1,671,673,-1,-1,675,-1,-1,-1,-1,-1,-1,-1,-1,-1,-1,-1,-1,-1,-1,-1,-1,-1,-1,-1,-1,-1,-1,-1,-1,-1,-1,-1,-1,-1,-1,-1,-1,-1,-1,-1,-1,-1,-1,-1,-1,-1,-1,-1,-1,-1,-1,-1,-1,-1,-1,-1,-1,-1,-1,-1,-1,-1,-1,-1,-1,-1,-1,-1,-1,-1,-1,-1,-1,-1,-1,-1,-1,-1,-1,-1,-1,-1,-1,-1,-1,-1,-1,-1,-1,-1,-1,-1,-1,-1,-1,-1,-1,-1,-1,-1,-1,-1,-1,-1,-1,-1,-1,-1,-1,-1,-1,-1,-1,-1,-1,-1,-1,-1,-1,-1,-1,-1,-1,-1,-1,-1,-1,-1,-1,-1],"loss_changes":[2.0638708E3,6.359516E2,1.088196E3,6.607295E2,1.8636226E2,5.708121E2,4.1568774E2,1.04716064E2,5.4396736E1,7.781202E1,3.1564774E1,1.1046755E2,5.692993E1,8.267529E1,4.353357E1,4.9206665E1,1.6344727E1,3.0275688E1,7.7843666E0,4.420896E1,1.3463226E1,1.2608948E1,6.8241463E0,6.164882E1,7.4733543E0,3.2881165E1,1.606884E1,3.1599182E1,1.8683182E1,1.898352E1,1.2895752E1,5.28656E0,1.1270874E1,1.0227661E0,3.6482544E0,4.317135E0,4.0140457E0,2.081913E0,5.1729107E-1,5.828171E0,4.6294975E0,2.3134155E0,1.2054949E0,1.1153717E0,2.0275879E-1,1.7673016E0,6.672478E-1,3.0458633E1,3.4585556E1,9.175806E-1,1.701191E0,1.0018982E1,3.4515991E0,7.2447205E0,2.3337097E0,1.7360321E1,4.0574493E0,4.8223925E0,8.224945E0,7.4837036E0,1.8536987E0,4.0800476E0,1.037384E0,3.6740112E-1,3.3639526E-1,9.1204834E-1,1.5940399E0,1.5460205E-1,3.7322998E-2,3.8510132E-1,2.367096E-1,8.960409E-1,4.801824E-1,2.903402E-1,1.0601997E0,3.8025284E-1,2.3799324E-1,1.5625429E-1,1.5705752E-1,7.8375244E-1,1.0695453E0,4.472537E-1,9.022713E-1,1.20853424E-1,4.164009E-1,2.275033E-1,2.7404308E-1,5.3339005E-2,4.2904472E-1,7.761383E-2,1.0618591E-1,2.1931496E-1,2.3403072E-1,9.388828E-2,2.7724457E-1,3.5796509E0,2.2580247E0,3.097702E0,1.6834888E0,1.9904166E-1,1.2637186E-1,1.0635223E0,2.2861385E-1,9.8735046E-1,7.187805E-1,2.4505615E-1,5.1135254E-1,1.4845138E0,3.222351E-1,2.1767426E-1,1.28788E-1,1.7283936E0,1.6172485E0,3.3657837E-1,5.835266E-1,1.4740872E0,1.5835094E-1,1.3900375E0,1.374855E-1,1.2991638E0,1.1153564E0,0E0,3.352356E-1,5.213623E-1,3.3969116E-1,2.1324158E-2,0E0,0E0,0E0,0E0,0E0,7.8948975E-2,2.4009705E-2,1.7962646E-1,5.947075E-1,0E0,0E0,0E0,0E0,0E0,0E0,6.417847E-2,0E0,2.915554E-1,3.1696153E-1,2.0878538E-1,1.9612701E-1,1.4728737E-1,0E0,1.1251831E-1,4.1230488E-1,1.470623E-1,6.867504E-2,2.1068764E-1,3.107655E-2,0E0,0E0,2.9371428E-1,0E0,2.9561043E-1,0E0,3.4026515E-1,1.24085546E-1,4.5265865E-1,0E0,1.2654305E-1,1.4381409E-1,0E0,4.140091E-2,3.1098557E-1,0E0,5.803299E-2,0E0,2.3726654E-1,1.6388437E-1,2.7864456E-2,0E0,1.6600609E-1,6.750393E-2,0E0,4.7169447E-2,0E0,0E0,3.7357867E-2,0E0,6.506133E-2,9.716797E-2,3.6076546E-2,8.4904194E-2,2.0007706E-1,0E0,1.1152916E0,7.3880196E-2,2.7540207E-2,8.0264205E-1,5.160675E-1,1.1621094E-1,2.5535965E-1,3.091793E-1,2.7540624E-2,4.6251655E-2,2.3614585E-2,0E0,7.9564095E-2,2.7635193E-1,3.671646E-2,0E0,5.2051544E-2,1.08818054E-1,7.941437E-2,6.8984985E-2,0E0,0E0,3.5183716E-1,0E0,4.860878E-2,2.5101566E-1,0E0,7.104874E-2,6.1233282E-2,0E0,2.709198E-2,0E0,2.398529E-1,9.2163086E-2,6.5075684E-1,1.01501465E-1,0E0,0E0,0E0,0E0,7.1373075E-2,2.7997303E-1,1.1737728E-1,7.907348E-2,4.274025E-1,1.1733246E-1,0E0,2.0700455E-2,0E0,7.5927734E-2,2.1105957E-1,0E0,0E0,0E0,0E0,0E0,0E0,8.703613E-2,0E0,0E0,5.770874E-2,0E0,0E0,0E0,1.796875E-1,0E0,9.9933624E-2,3.9300323E-1,0E0,0E0,1.2704563E-1,4.5790255E-2,4.9357057E-2,0E0,3.940749E-2,0E0,5.9175298E-2,0E0,5.8624387E-2,3.3002615E-2,0E0,3.9767742E-2,5.181408E-2,0E0,0E0,0E0,0E0,0E0,2.8497696E-2,0E0,1.1806448E-1,0E0,0E0,0E0,5.316925E-2,3.19829E-2,2.164954E-1,1.633322E-1,2.669236E-2,3.0555138E-2,1.7675972E-1,2.050376E-2,9.610462E-2,3.2499313E-2,6.641388E-2,0E0,2.1457672E-2,0E0,7.269287E-2,3.041172E-2,2.2798538E-2,0E0,2.828145E-2,4.3009073E-2,0E0,0E0,2.6591778E-2,0E0,7.1056366E-2,6.722307E-2,5.8844328E-2,0E0,2.3526073E-2,0E0,4.977638E-2,3.0546218E-2,0E0,4.643336E-2,2.4994373E-2,4.0080547E-2,3.173375E-2,0E0,5.5980682E-2,3.3103943E-2,0E0,0E0,2.3215103E-1,2.3843765E-2,0E0,2.6562214E-2,2.3889422E-2,0E0,3.5905844E-1,3.0423826E-1,0E0,0E0,0E0,0E0,4.4174194E-2,2.2662163E-2,7.483196E-2,2.9332793E-1,2.3180695E-2,0E0,0E0,0E0,0E0,0E0,0E0,0E0,0E0,0E0,0E0,0E0,2.6845932E-2,4.3268204E-2,7.4445724E-2,5.844879E-2,0E0,0E0,2.079773E-2,0E0,0E0,5.3207397E-2,2.9705703E-2,0E0,0E0,5.001402E-2,3.1801224E-2,0E0,0E0,5.2011326E-2,0E0,0E0,2.4101257E-2,0E0,0E0,0E0,0E0,3.0410767E-2,0E0,2.6496887E-2,0E0,0E0,3.154981E-2,4.494953E-2,2.8678179E-2,0E0,0E0,0E0,0E0,3.3922195E-2,4.9196243E-2,4.9422145E-2,0E0,0E0,0E0,0E0,0E0,0E0,0E0,0E0,0E0,0E0,5.014038E-2,0E0,1.5794373E-1,0E0,0E0,0E0,3.682208E-2,0E0,0E0,9.155403E-2,2.0764709E-2,0E0,2.1261245E-2,0E0,3.570579E-2,0E0,1.0635233E-1,0E0,0E0,2.327156E-2,0E0,2.6484013E-2,5.0377846E-1,4.2117357E-2,0E0,0E0,0E0,0E0,4.9529076E-2,0E0,0E0,2.4228215E-2,2.6491523E-2,9.193367E-2,0E0,0E0,0E0,0E0,0E0,2.4158858E-2,5.621004E-2,5.6844592E-2,0E0,0E0,0E0,2.2439957E-2,2.236557E-2,3.196454E-2,1.077528E-1,0E0,0E0,0E0,2.7788162E-2,0E0,2.7810574E-2,2.88167E-2,0E0,0E0,0E0,0E0,3.3097073E-2,3.3329964E-2,3.6755145E-2,3.713894E-2,2.2131324E-2,0E0,2.2822022E-2,4.25483E-2,3.669119E-2,0E0,0E0,0E0,3.1709287E-2,4.064049E-2,2.3675084E-2,0E0,3.935331E-2,3.1378448E-2,0E0,4.2107344E-2,0E0,6.731796E-2,0E0,0E0,2.5074244E-2,3.4214675E-2,2.6670508E-2,0E0,0E0,0E0,3.7454605E-2,0E0,0E0,2.7623653E-2,0E0,0E0,8.083599E-2,2.7803516E-1,2.2316016E-1,2.5336522E-1,2.8858185E-2,5.2051783E-2,0E0,6.211996E-2,0E0,2.2059917E-2,0E0,0E0,0E0,2.378694E-2,0E0,0E0,0E0,0E0,4.1812897E-2,0E0,0E0,0E0,0E0,0E0,0E0,0E0,0E0,0E0,0E0,0E0,4.457283E-2,3.0061245E-2,0E0,0E0,0E0,0E0,0E0,0E0,0E0,0E0,0E0,0E0,2.0778656E-2,0E0,0E0,0E0,2.039051E-2,5.56221E-2,0E0,0E0,2.1000933E-2,0E0,0E0,0E0,0E0,0E0,0E0,0E0,0E0,0E0,0E0,0E0,0E0,0E0,0E0,0E0,0E0,0E0,0E0,0E0,0E0,0E0,0E0,0E0,0E0,0E0,0E0,0E0,0E0,0E0,0E0,0E0,0E0,0E0,0E0,0E0,0E0,0E0,0E0,0E0,0E0,0E0,0E0,0E0,0E0,0E0,0E0,0E0,0E0,0E0,0E0,0E0,0E0,0E0,0E0,0E0,0E0,0E0,0E0,0E0,0E0,0E0,0E0,0E0,0E0,0E0,0E0,0E0,0E0,0E0,0E0,0E0,0E0,0E0,0E0,0E0,0E0,0E0,0E0,0E0,0E0,0E0,0E0,0E0,0E0,0E0,0E0,0E0,0E0,0E0,0E0,0E0,0E0,0E0,0E0,0E0,0E0,0E0,0E0,0E0,0E0,0E0,0E0,0E0,0E0,0E0,0E0,0E0,0E0,0E0,0E0,0E0,0E0,0E0,0E0,0E0,0E0,0E0,0E0,0E0,0E0,0E0,0E0,0E0,0E0,0E0],"parents":[2147483647,0,0,1,1,2,2,3,3,4,4,5,5,6,6,7,7,8,8,9,9,10,10,11,11,12,12,13,13,14,14,15,15,16,16,17,17,18,18,19,19,20,20,21,21,22,22,23,23,24,24,25,25,26,26,27,27,28,28,29,29,30,30,31,31,32,32,33,33,34,34,35,35,36,36,37,37,38,38,39,39,40,40,41,41,42,42,43,43,44,44,45,45,46,46,47,47,48,48,49,49,50,50,51,51,52,52,53,53,54,54,55,55,56,56,57,57,58,58,59,59,60,60,61,61,62,62,63,63,64,64,65,65,66,66,67,67,68,68,69,69,70,70,71,71,72,72,73,73,74,74,75,75,76,76,77,77,78,78,79,79,80,80,81,81,82,82,83,83,84,84,85,85,86,86,87,87,88,88,89,89,90,90,91,91,92,92,93,93,94,94,95,95,96,96,97,97,98,98,99,99,100,100,101,101,102,102,103,103,104,104,105,105,106,106,107,107,108,108,109,109,110,110,111,111,112,112,113,113,114,114,115,115,116,116,117,117,118,118,119,119,120,120,122,122,123,123,124,124,125,125,131,131,132,132,133,133,134,134,141,141,143,143,144,144,145,145,146,146,147,147,149,149,150,150,151,151,152,152,153,153,154,154,157,157,159,159,161,161,162,162,163,163,165,165,166,166,168,168,169,169,171,171,173,173,174,174,175,175,177,177,178,178,180,180,183,183,185,185,186,186,187,187,188,188,189,189,191,191,192,192,193,193,194,194,195,195,196,196,197,197,198,198,199,199,200,200,201,201,203,203,204,204,205,205,207,207,208,208,209,209,210,210,213,213,215,215,216,216,218,218,219,219,221,221,223,223,224,224,225,225,226,226,231,231,232,232,233,233,234,234,235,235,236,236,238,238,240,240,241,241,248,248,251,251,255,255,257,257,258,258,261,261,262,262,263,263,265,265,267,267,269,269,270,270,272,272,273,273,279,279,281,281,285,285,286,286,287,287,288,288,289,289,290,290,291,291,292,292,293,293,294,294,295,295,297,297,299,299,300,300,301,301,303,303,304,304,307,307,309,309,310,310,311,311,313,313,315,315,316,316,318,318,319,319,320,320,321,321,323,323,324,324,327,327,328,328,330,330,331,331,333,333,334,334,339,339,340,340,341,341,342,342,343,343,355,355,356,356,357,357,358,358,361,361,364,364,365,365,368,368,369,369,372,372,375,375,380,380,382,382,385,385,386,386,387,387,392,392,393,393,394,394,405,405,407,407,411,411,414,414,415,415,417,417,419,419,421,421,424,424,426,426,427,427,428,428,433,433,436,436,437,437,438,438,444,444,445,445,446,446,450,450,451,451,452,452,453,453,457,457,459,459,460,460,465,465,466,466,467,467,468,468,469,469,471,471,472,472,473,473,477,477,478,478,479,479,481,481,482,482,484,484,486,486,489,489,490,490,491,491,495,495,498,498,501,501,502,502,503,503,504,504,505,505,506,506,508,508,510,510,514,514,519,519,531,531,532,532,543,543,547,547,548,548,551,551],"right_children":[2,4,6,8,10,12,14,16,18,20,22,24,26,28,30,32,34,36,38,40,42,44,46,48,50,52,54,56,58,60,62,64,66,68,70,72,74,76,78,80,82,84,86,88,90,92,94,96,98,100,102,104,106,108,110,112,114,116,118,120,122,124,126,128,130,132,134,136,138,140,142,144,146,148,150,152,154,156,158,160,162,164,166,168,170,172,174,176,178,180,182,184,186,188,190,192,194,196,198,200,202,204,206,208,210,212,214,216,218,220,222,224,226,228,230,232,234,236,238,240,242,-1,244,246,248,250,-1,-1,-1,-1,-1,252,254,256,258,-1,-1,-1,-1,-1,-1,260,-1,262,264,266,268,270,-1,272,274,276,278,280,282,-1,-1,284,-1,286,-1,288,290,292,-1,294,296,-1,298,300,-1,302,-1,304,306,308,-1,310,312,-1,314,-1,-1,316,-1,318,320,322,324,326,-1,328,330,332,334,336,338,340,342,344,346,348,-1,350,352,354,-1,356,358,360,362,-1,-1,364,-1,366,368,-1,370,372,-1,374,-1,376,378,380,382,-1,-1,-1,-1,384,386,388,390,392,394,-1,396,-1,398,400,-1,-1,-1,-1,-1,-1,402,-1,-1,404,-1,-1,-1,406,-1,408,410,-1,-1,412,414,416,-1,418,-1,420,-1,422,424,-1,426,428,-1,-1,-1,-1,-1,430,-1,432,-1,-1,-1,434,436,438,440,442,444,446,448,450,452,454,-1,456,-1,458,460,462,-1,464,466,-1,-1,468,-1,470,472,474,-1,476,-1,478,480,-1,482,484,486,488,-1,490,492,-1,-1,494,496,-1,498,500,-1,502,504,-1,-1,-1,-1,506,508,510,512,514,-1,-1,-1,-1,-1,-1,-1,-1,-1,-1,-1,516,518,520,522,-1,-1,524,-1,-1,526,528,-1,-1,530,532,-1,-1,534,-1,-1,536,-1,-1,-1,-1,538,-1,540,-1,-1,542,544,546,-1,-1,-1,-1,548,550,552,-1,-1,-1,-1,-1,-1,-1,-1,-1,-1,554,-1,556,-1,-1,-1,558,-1,-1,560,562,-1,564,-1,566,-1,568,-1,-1,570,-1,572,574,576,-1,-1,-1,-1,578,-1,-1,580,582,584,-1,-1,-1,-1,-1,586,588,590,-1,-1,-1,592,594,596,598,-1,-1,-1,600,-1,602,604,-1,-1,-1,-1,606,608,610,612,614,-1,616,618,620,-1,-1,-1,622,624,626,-1,628,630,-1,632,-1,634,-1,-1,636,638,640,-1,-1,-1,642,-1,-1,644,-1,-1,646,648,650,652,654,656,-1,658,-1,660,-1,-1,-1,662,-1,-1,-1,-1,664,-1,-1,-1,-1,-1,-1,-1,-1,-1,-1,-1,666,668,-1,-1,-1,-1,-1,-1,-1,-1,-1,-1,670,-1,-1,-1,672,674,-1,-1,676,-1,-1,-1,-1,-1,-1,-1,-1,-1,-1,-1,-1,-1,-1,-1,-1,-1,-1,-1,-1,-1,-1,-1,-1,-1,-1,-1,-1,-1,-1,-1,-1,-1,-1,-1,-1,-1,-1,-1,-1,-1,-1,-1,-1,-1,-1,-1,-1,-1,-1,-1,-1,-1,-1,-1,-1,-1,-1,-1,-1,-1,-1,-1,-1,-1,-1,-1,-1,-1,-1,-1,-1,-1,-1,-1,-1,-1,-1,-1,-1,-1,-1,-1,-1,-1,-1,-1,-1,-1,-1,-1,-1,-1,-1,-1,-1,-1,-1,-1,-1,-1,-1,-1,-1,-1,-1,-1,-1,-1,-1,-1,-1,-1,-1,-1,-1,-1,-1,-1,-1,-1,-1,-1,-1,-1],"split_conditions":[2.2222223E-2,6E1,6E1,1E0,1E0,1E0,1E0,1E0,1E0,1E0,1E0,3E0,1E0,1E0,1E0,-6E-1,-6.4444447E-1,-5.555556E-1,-4E-1,-5.1111114E-1,-4.4444445E-1,-6.2222224E-1,-6.2222224E-1,1E0,4.888889E-1,3E0,3E0,3E0,4.888889E-1,3E0,3E0,-8.2222223E-1,-3.1111112E-1,-8.2222223E-1,-2.8866667E-1,-8.0733335E-1,-3.1111112E-1,-8.0733335E-1,-3.1111112E-1,-8.802222E-1,-2.8666666E-1,-8.802222E-1,-3.1111112E-1,-9.111111E-1,-4.4444445E-1,-9.5555556E-1,-3.9977777E-1,4.4444445E-1,5.3333336E-1,1.9266666E-1,1E0,4.4444445E-1,4.4444445E-1,4.888889E-1,5.3333336E-1,4.888889E-1,4.888889E-1,3E0,3E0,4.4444445E-1,3.3333334E-1,4.4444445E-1,5.3333336E-1,-1.0888889E0,-7.111111E-1,-4E-1,-1.3333334E-1,-1E0,-7.111111E-1,-4.4444445E-1,-2.2222223E-2,-9.5555556E-1,-7.1088886E-1,3E0,-8.888889E-2,-9.5555556E-1,3E0,3E0,-8.888889E-2,3E0,-6.2222224E-1,3E0,-8.888889E-2,-1.0888889E0,3E0,3E0,3E0,1E0,1E0,1E0,3E0,3E0,-8.4444445E-1,1E0,-2.2222223E-2,2.9533333E-1,5.3333336E-1,2.9533333E-1,8.4444445E-1,1E0,2.9533333E-1,7.111111E-1,1.0888889E0,1.9266666E-1,6.4444447E-1,1.5822223E-1,4E0,1.9266666E-1,6E-1,1.5822223E-1,8.666667E-1,2.7133334E-1,8.2222223E-1,2.48E-1,8E-1,1.9266666E-1,4E0,8.666667E-1,8.2222223E-1,1.9266666E-1,7.3333335E-1,3.274772E-2,7.777778E-1,1.4177778E-1,6E-1,2.9533333E-1,3.2581903E-2,-1.9921197E-2,-1.8152429E-2,-1.6009118E-2,-1.4861063E-2,3E0,1E0,-1.7777778E-1,3E0,-2.5513297E-2,-2.4287539E-2,-2.307947E-2,-2.1977667E-2,-2.1080371E-2,-1.9701963E-2,-1.7777778E-1,-1.586081E-2,3E0,3E0,3E0,3E0,-4E-1,-1.3069187E-2,-1.7777778E-1,3E0,-1.0666667E0,3E0,-5.777778E-1,2E0,-4.6605715E-3,-1.55182E-2,3E0,-1.5346037E-3,-9.3333334E-1,-1.4586309E-2,3E0,1E0,-3.1111112E-1,-1.4393325E-2,-1.7777778E-1,3E0,-1.1972939E-2,3E0,-6.22E-1,-1.3791559E-2,-3.3333334E-1,-1.46168675E-2,-8.888889E-2,0E0,1E0,7.1555167E-3,1E0,1E0,2.0264413E-2,1E0,2.232455E-2,2.8817585E-2,-1.0444444E0,-1.1851785E-2,1E0,1E0,-5.3333336E-1,1E0,-1.7755556E-1,1.607565E-2,1.4177778E-1,3.3333334E-1,1E0,1E0,1.9266666E-1,4.888889E-1,7.111111E-1,1.0222223E0,6.666667E-2,1E0,1E0,5.422799E-3,5.777778E-1,9.3333334E-1,1.0222223E0,-1.4361608E-2,1E0,1E0,5.3333336E-1,9.3333334E-1,1.7549414E-2,2.0071674E-2,6.2222224E-1,3.0570697E-2,1.4177778E-1,2.9533333E-1,6.6720024E-3,9.111111E-1,4E0,1.1935159E-2,6E-1,1.8638426E-2,1.9266666E-1,4.4444445E-1,6E-1,1E0,1.741342E-2,1.9836815E-2,2.2536745E-2,2.5639523E-2,1.4177778E-1,2.7133334E-1,2.2222222E-1,4E0,6E-1,1.0888889E0,1.5055177E-2,4E0,2.4307217E-2,2.7133334E-1,5.777778E-1,3.291773E-2,3.6943592E-2,4.0070847E-2,1.6657982E-2,1.8949263E-2,2.1244835E-2,9.3333334E-1,2.5893372E-2,2.8474523E-2,-4.4444445E-1,-1.9636035E-2,-1.171718E-2,-1.2292684E-2,-2.2222222E-1,-9.7323945E-3,-4.4444446E-2,0E0,-1.8180953E-2,-1.733717E-2,-1.0666667E0,1E0,4.5E1,-1.3640379E-2,4.5E1,-1.2144899E-2,3.5E1,-1.1370015E-2,-4.882222E-1,-3.9977777E-1,4.7686487E-3,-1.7755556E-1,0E0,1.5130475E-2,-1.19229825E-2,-9.948131E-3,-8.4396275E-3,-1.2741997E-2,1E0,-5.916024E-3,3.5E1,-1.3695862E-2,-2.8948074E-3,-1.4319213E-2,1E0,1E0,-8.0733335E-1,2E0,7E1,4E0,1E0,1E0,1E0,-1.1111111E-1,0E0,1.3912551E-2,-9.5555556E-1,-1.27662E-2,-7.777778E-1,1E0,-4E-1,-4.192701E-3,-1.7777778E-1,-2.2222223E-2,-1.5667176E-2,-7.9371757E-4,-1.0295556E0,7.986803E-3,1E0,4E0,4E0,8.346273E-3,-5.555556E-1,9.974718E-3,7E1,1E0,5.5676694E-3,1E0,1E0,1E0,1E0,1.0527312E-2,1E0,-5.777778E-1,1.2067754E-2,9.277593E-3,8.888889E-2,2.7133334E-1,-3.806556E-3,1E0,1E0,-1.7058888E-3,7.777778E-1,1E0,-1.4298972E-2,-1.2564656E-2,-1.0597878E-2,-9.291068E-3,1E0,7.3333335E-1,8.888889E-1,1.0888889E0,3.5E1,1.982031E-3,-1.4514496E-2,-1.5788882E-3,3.7375214E-3,-2.79629E-3,7.2841523E-3,8.7152375E-3,1.0368245E-2,1.2334966E-2,4.8938533E-3,6.5824566E-3,1E0,1.5822223E-1,1E0,2.9533333E-1,1.3523809E-2,1.4557627E-2,3.5E1,1.719969E-2,2.2062154E-2,8.888889E-1,3.5E1,2.1208785E-3,3.2113541E-3,3.7777779E-1,7.777778E-1,9.234487E-3,9.172944E-3,3E0,1.4334561E-2,1.6710348E-2,6.666667E-2,1.0631729E-2,1.1807485E-2,1.2955346E-2,1.3859556E-2,6.888889E-1,1.7227987E-2,1.0888889E0,8.5592514E-4,1.8183909E-3,2.2222222E-1,4E-1,6.666667E-2,1.14842E-2,-8.12285E-3,6.3236523E-3,6.2435884E-3,7.111111E-1,1.0222223E0,7E1,1.7298393E-2,7.946854E-3,2.6133679E-2,2.7782831E-2,2.8807031E-2,3.0713443E-2,2.2904763E-2,2.5295414E-2,-1.3692697E-2,-1.3097705E-2,3E0,-1.1704237E-2,-6.666667E-2,-8.3358595E-3,-1.8451331E-2,-1.6594236E-3,-1.1111112E0,-3.7817506E-3,-1.2535729E-2,1E0,-9.3333334E-1,-1.7086961E-3,1E0,-5.109789E-4,-5.777778E-1,8.772096E-4,-5.1111114E-1,1.4411227E-3,3.5855228E-3,3E0,6.147199E-3,4E0,-2.2222223E-2,1E0,-6.7790872E-3,-7.423322E-3,5.116822E-3,-1.2181617E-2,-1.0444444E0,-4.4750185E-3,-2.314443E-3,-9.111111E-1,1E0,1E0,3.0772467E-3,-1.4296552E-2,9.6389663E-4,1.7564079E-3,-5.5152414E-5,1E0,7E1,-4E-1,4.367329E-3,3.715127E-3,5.376663E-3,3E0,7E1,1E0,-2.2222223E-2,8.181983E-3,-1.0378705E-2,-9.730845E-3,4E0,-7.6590944E-3,-5.777778E-1,1E0,-5.7709017E-3,-5.0626006E-3,-3.2298474E-3,-2.6950769E-3,1E0,7E1,3E0,1E0,1E0,1.637333E-2,7E1,1E0,-8.0733335E-1,1.43468445E-2,1.1253275E-2,1.9354347E-2,-1.1111112E0,1E0,1E0,1.4504967E-3,1E0,1E0,8.09891E-3,1E0,6.651347E-3,1E0,7.886341E-3,1.0449896E-2,-4.882222E-1,3E0,-6.22E-1,7.2524413E-3,-7.0871236E-3,-6.0528647E-3,2.4444444E-1,-5.566501E-3,-2.8099685E-3,1E0,-2.4247942E-3,-1.9092981E-3,1E0,1E0,1E0,8.666667E-1,5.777778E-1,4.5E1,-4.1606557E-3,7.5555557E-1,-4.6613016E-3,9.777778E-1,-2.2823643E-3,-1.0430574E-2,-3.580287E-4,4E0,8.775716E-3,9.587856E-3,9.77325E-3,1.1049551E-2,1E0,1.1368779E-2,1.1190035E-2,1.2246693E-2,1.5049758E-2,1.600879E-2,2.4378298E-2,2.6388545E-2,6.431839E-4,1.4707854E-3,4.331555E-3,5.1543764E-3,4.5E1,1E0,-2.8815435E-3,6.6694943E-3,9.060244E-3,9.600335E-3,1.5285465E-2,1.5976205E-2,1.8911084E-2,1.5375996E-2,3.4528698E-3,2.510907E-3,1E0,4.5729107E-3,7.2251456E-3,9.567503E-3,6.2222224E-1,7.3333335E-1,1.0006744E-2,1.1170426E-2,3E0,7.7436897E-3,-1.0419868E-2,-1.7837346E-2,-8.846851E-3,-1.0976161E-2,-6.2378454E-3,-4.6745664E-3,2.393864E-3,-1.0447914E-2,-3.0725242E-3,-2.3023398E-3,-8.994999E-4,-1.5164138E-3,-2.78836E-4,9.86329E-4,1.6725063E-3,2.9517203E-3,2.4342262E-3,3.1419492E-3,4.927624E-3,6.0935714E-3,7.32429E-3,-8.312358E-3,8.973478E-3,6.9561903E-3,-4.349977E-3,-3.6050035E-3,-4.0166685E-3,-2.826304E-3,-1.6850218E-3,-2.3320194E-3,-5.278663E-4,-1.3138191E-3,2.1199477E-4,1.7184581E-3,2.4509367E-3,3.2981925E-3,1.3318341E-3,2.2144015E-3,3.8338946E-3,4.652029E-3,5.5375425E-3,6.1322288E-3,5.5296924E-3,4.0092045E-3,7.133963E-3,3.2141546E-3,-8.2068015E-3,-9.246264E-3,-7.296989E-3,-5.9685516E-3,-7.3292893E-3,-6.187547E-3,-1.7296476E-3,-5.0411606E-4,-2.9465416E-3,-1.4754859E-3,6.4844936E-3,1.0522682E-2,9.59562E-3,1.4935488E-2,9.685896E-3,1.511486E-2,8.826625E-3,1.2219768E-2,7.6575247E-3,1.5700165E-2,7.7392664E-3,1.1624555E-2,4.5981444E-3,-9.755032E-5,3.224574E-3,5.9145596E-4,3.7282796E-3,1.9678622E-3,1.7420986E-3,4.5827376E-3,6.7473054E-3,3.3608908E-3,7.867616E-3,5.861125E-3,6.4452486E-3,3.6931348E-3,9.310162E-3,1.2243359E-2,5.6367805E-3,8.909689E-3,6.1931275E-3,1.1370006E-3,-5.0977236E-3,-4.6589486E-3,-3.5053769E-3,-3.022836E-3,-3.3124E-4,4.469027E-4,-2.1885775E-3,-5.14711E-4,-5.742029E-4,7.1619387E-4,6.851347E-4,1.9056052E-3,-6.356587E-3,-7.89271E-3,-5.6153806E-3,-7.6649548E-3,-6.9278437E-3,-5.4460354E-3,-4.024043E-3,-3.4955975E-3,1.6973257E-3,-3.557878E-3,8.54393E-3,1.0526566E-2,8.617951E-3,7.643912E-3,6.0375584E-3,7.7934996E-3,3.6631953E-3,4.3301084E-3,8.5086515E-3,7.4860267E-3,9.589725E-3,8.065327E-3,-1.1995181E-3,4.5914766E-3],"split_indices":[1,2,2,14,14,14,14,15,15,15,15,7,15,15,15,1,1,1,1,1,1,1,1,15,1,7,7,7,1,7,7,1,1,1,1,1,1,1,1,1,1,1,1,1,1,1,1,1,1,1,15,1,1,1,1,1,1,7,7,1,1,1,1,1,1,1,1,1,1,1,1,1,1,7,1,1,7,7,1,7,1,7,1,1,7,7,7,4,4,5,7,7,1,5,1,1,1,1,1,15,1,1,1,1,1,1,7,1,1,1,1,1,1,1,1,1,7,1,1,1,1,0,1,1,1,1,0,0,0,0,0,7,16,1,7,0,0,0,0,0,0,1,0,7,7,7,7,1,0,1,7,1,7,1,0,0,0,7,0,1,0,7,16,1,0,1,7,0,7,1,0,1,0,1,1,5,0,5,5,0,4,0,0,1,0,5,4,1,3,1,0,1,1,19,16,1,1,1,1,1,19,15,0,1,1,1,0,5,16,1,1,0,0,1,0,1,1,0,1,7,0,1,0,1,1,1,1,0,0,0,0,1,1,1,0,1,1,0,7,0,1,1,0,0,0,0,0,0,1,0,0,1,0,0,0,1,0,1,1,0,0,1,20,2,0,2,0,2,0,1,1,0,1,1,0,0,0,0,0,6,0,2,0,0,0,16,16,1,0,2,0,16,16,16,1,1,0,1,0,1,5,1,0,1,1,0,0,1,0,7,0,0,0,1,0,2,5,0,19,5,3,9,0,4,1,0,0,1,1,0,7,4,0,1,4,0,0,0,0,5,1,1,1,2,0,0,0,0,0,0,0,0,0,0,0,4,1,5,1,0,0,2,0,0,1,2,0,0,1,1,0,0,0,0,0,1,0,0,0,0,1,0,1,0,0,1,1,1,0,0,0,0,1,1,2,0,0,0,0,0,0,0,0,0,0,7,0,1,0,0,0,1,0,0,6,1,0,4,0,1,0,1,0,0,0,0,0,1,20,0,0,0,0,1,0,0,1,12,16,0,0,0,0,0,12,2,1,0,0,0,0,2,9,1,0,0,0,0,0,1,19,0,0,0,0,6,2,0,11,9,0,2,7,1,0,0,0,1,3,4,0,11,4,0,3,0,5,0,0,1,0,1,0,0,0,1,0,0,4,0,0,4,5,5,1,1,2,0,1,0,1,0,0,0,7,0,0,0,0,4,0,0,0,0,0,0,0,0,0,0,0,2,5,0,0,0,0,0,0,0,0,0,0,18,0,0,0,1,1,0,0,0,0,0,0,0,0,0,0,0,0,0,0,0,0,0,0,0,0,0,0,0,0,0,0,0,0,0,0,0,0,0,0,0,0,0,0,0,0,0,0,0,0,0,0,0,0,0,0,0,0,0,0,0,0,0,0,0,0,0,0,0,0,0,0,0,0,0,0,0,0,0,0,0,0,0,0,0,0,0,0,0,0,0,0,0,0,0,0,0,0,0,0,0,0,0,0,0,0,0,0,0,0,0,0,0,0,0,0,0,0,0,0,0,0,0,0,0,0,0,0,0,0,0,0,0,0],"split_type":[0,0,0,0,0,0,0,0,0,0,0,0,0,0,0,0,0,0,0,0,0,0,0,0,0,0,0,0,0,0,0,0,0,0,0,0,0,0,0,0,0,0,0,0,0,0,0,0,0,0,0,0,0,0,0,0,0,0,0,0,0,0,0,0,0,0,0,0,0,0,0,0,0,0,0,0,0,0,0,0,0,0,0,0,0,0,0,0,0,0,0,0,0,0,0,0,0,0,0,0,0,0,0,0,0,0,0,0,0,0,0,0,0,0,0,0,0,0,0,0,0,0,0,0,0,0,0,0,0,0,0,0,0,0,0,0,0,0,0,0,0,0,0,0,0,0,0,0,0,0,0,0,0,0,0,0,0,0,0,0,0,0,0,0,0,0,0,0,0,0,0,0,0,0,0,0,0,0,0,0,0,0,0,0,0,0,0,0,0,0,0,0,0,0,0,0,0,0,0,0,0,0,0,0,0,0,0,0,0,0,0,0,0,0,0,0,0,0,0,0,0,0,0,0,0,0,0,0,0,0,0,0,0,0,0,0,0,0,0,0,0,0,0,0,0,0,0,0,0,0,0,0,0,0,0,0,0,0,0,0,0,0,0,0,0,0,0,0,0,0,0,0,0,0,0,0,0,0,0,0,0,0,0,0,0,0,0,0,0,0,0,0,0,0,0,0,0,0,0,0,0,0,0,0,0,0,0,0,0,0,0,0,0,0,0,0,0,0,0,0,0,0,0,0,0,0,0,0,0,0,0,0,0,0,0,0,0,0,0,0,0,0,0,0,0,0,0,0,0,0,0,0,0,0,0,0,0,0,0,0,0,0,0,0,0,0,0,0,0,0,0,0,0,0,0,0,0,0,0,0,0,0,0,0,0,0,0,0,0,0,0,0,0,0,0,0,0,0,0,0,0,0,0,0,0,0,0,0,0,0,0,0,0,0,0,0,0,0,0,0,0,0,0,0,0,0,0,0,0,0,0,0,0,0,0,0,0,0,0,0,0,0,0,0,0,0,0,0,0,0,0,0,0,0,0,0,0,0,0,0,0,0,0,0,0,0,0,0,0,0,0,0,0,0,0,0,0,0,0,0,0,0,0,0,0,0,0,0,0,0,0,0,0,0,0,0,0,0,0,0,0,0,0,0,0,0,0,0,0,0,0,0,0,0,0,0,0,0,0,0,0,0,0,0,0,0,0,0,0,0,0,0,0,0,0,0,0,0,0,0,0,0,0,0,0,0,0,0,0,0,0,0,0,0,0,0,0,0,0,0,0,0,0,0,0,0,0,0,0,0,0,0,0,0,0,0,0,0,0,0,0,0,0,0,0,0,0,0,0,0,0,0,0,0,0,0,0,0,0,0,0,0,0,0,0,0,0,0,0,0,0,0,0,0,0,0,0,0,0,0,0,0,0,0,0,0,0,0,0,0,0,0,0,0,0,0,0,0,0,0,0,0,0,0,0,0,0,0,0,0,0,0,0,0,0,0,0,0,0,0,0,0,0,0,0,0,0,0,0,0,0,0,0,0,0,0,0],"sum_hessian":[2.77281E5,1.39808E5,1.37473E5,9.1366E4,4.8442E4,8.4668E4,5.2805E4,5.962E4,3.1746E4,4.0394E4,8.048E3,5.7957E4,2.6711E4,3.5586E4,1.7219E4,4.101E4,1.861E4,2.1081E4,1.0665E4,2.6271E4,1.4123E4,3.141E3,4.907E3,5.1826E4,6.131E3,1.6146E4,1.0565E4,2.1368E4,1.4218E4,1.0172E4,7.047E3,1.6775E4,2.4235E4,7.351E3,1.1259E4,1.1404E4,9.677E3,6.898E3,3.767E3,1.4094E4,1.2177E4,8.326E3,5.797E3,1.157E3,1.984E3,2.495E3,2.412E3,3.6526E4,1.53E4,2.338E3,3.793E3,1.332E4,2.826E3,9.049E3,1.516E3,1.7765E4,3.603E3,7.032E3,7.186E3,7.961E3,2.211E3,5.989E3,1.058E3,9.328E3,7.447E3,1.2067E4,1.2168E4,4.59E3,2.761E3,6.214E3,5.045E3,6.311E3,5.093E3,4.274E3,5.403E3,2.761E3,4.137E3,1.044E3,2.723E3,6.194E3,7.9E3,5.495E3,6.682E3,3.004E3,5.322E3,1.917E3,3.88E3,4.5E2,7.07E2,1.96E2,1.788E3,7.56E2,1.739E3,9.41E2,1.471E3,1.8192E4,1.8334E4,8.028E3,7.272E3,9.91E2,1.347E3,3.249E3,5.44E2,7.621E3,5.699E3,1.246E3,1.58E3,5.078E3,3.971E3,7.14E2,8.02E2,9.684E3,8.081E3,1.761E3,1.842E3,6.407E3,6.25E2,6.207E3,9.79E2,4.245E3,3.716E3,6.42E2,1.569E3,3.149E3,2.84E3,5.26E2,5.32E2,9.84E2,8.344E3,3.673E3,3.774E3,8.418E3,3.649E3,6.587E3,5.581E3,1.761E3,2.829E3,1.8E3,9.61E2,3.076E3,3.138E3,4.384E3,6.61E2,3.533E3,2.778E3,2.406E3,2.687E3,4.267E3,7E0,4.102E3,1.301E3,1.419E3,1.342E3,4.09E3,4.7E1,1.036E3,8E0,2.066E3,6.57E2,6.149E3,4.5E1,5.652E3,2.248E3,5.486E3,9E0,4.58E3,2.102E3,3.32E2,2.672E3,5.251E3,7.1E1,1.901E3,1.6E1,3.857E3,2.3E1,2.53E2,1.97E2,4.87E2,2.2E2,1.53E2,4.3E1,1.76E3,2.8E1,7.49E2,7E0,5.06E2,1.233E3,5.12E2,4.29E2,1.365E3,1.06E2,1.2162E4,6.03E3,3.756E3,1.4578E4,4.999E3,3.029E3,2.779E3,4.493E3,9.83E2,8E0,4.02E2,9.45E2,1.163E3,2.086E3,5.41E2,3E0,3.749E3,3.872E3,2.824E3,2.875E3,5.73E2,6.73E2,1.474E3,1.06E2,2.003E3,3.075E3,1.136E3,2.835E3,2.49E2,4.65E2,4.56E2,3.46E2,5.905E3,3.779E3,5.911E3,2.17E3,9.74E2,7.87E2,9.81E2,8.61E2,2.372E3,4.035E3,6.17E2,8E0,4.499E3,1.708E3,4.62E2,5.17E2,2.174E3,2.071E3,2.505E3,1.211E3,9.52E2,6.17E2,1.102E3,2.047E3,1.169E3,1.671E3,2.74E2,2.52E2,8.4E3,1.8E1,1.872E3,1.777E3,4.739E3,1.848E3,5.456E3,1.25E2,1.659E3,2.725E3,3.488E3,4.5E1,2.763E3,1.5E1,2.396E3,1E1,2.679E3,8E0,2.505E3,1.762E3,2.66E3,1.442E3,1.253E3,4.8E1,3.75E2,1.044E3,1.314E3,2.8E1,2.294E3,1.796E3,1.1E1,3.6E1,2.052E3,1.4E1,5.008E3,1.141E3,5.63E3,2.2E1,1.141E3,1.107E3,4.062E3,1.424E3,2.058E3,2.522E3,2.08E3,2.2E1,2.616E3,5.6E1,3.559E3,1.692E3,1.508E3,3.93E2,2.862E3,9.95E2,1.6E1,7E0,1.33E2,1.2E2,3.41E2,1.46E2,1.36E2,8.4E1,2.9E1,1.4E1,3.46E2,4.03E2,2.83E2,2.23E2,6.52E2,5.81E2,1.88E2,3.24E2,2.48E2,1.81E2,1.143E3,2.22E2,5.93E3,6.232E3,1.481E3,4.549E3,2.438E3,1.318E3,6.275E3,8.303E3,3.04E3,1.959E3,2.38E3,6.49E2,1.076E3,1.703E3,3.376E3,1.117E3,2.08E2,7.75E2,5E0,3E0,3.99E2,3E0,5.18E2,6.45E2,1.243E3,8.43E2,4.2E2,1.21E2,1.632E3,2.117E3,1.694E3,2.178E3,1.122E3,1.702E3,2.447E3,4.28E2,4.32E2,1.042E3,1.42E3,5.83E2,9.25E2,2.15E3,2.322E3,5.13E2,2.34E2,1.5E1,9.9E1,3.57E2,4.223E3,1.682E3,3.08E3,6.99E2,2.063E3,3.848E3,1.521E3,6.49E2,1.634E3,7.38E2,1.331E3,2.704E3,2.91E2,3.26E2,4E0,4E0,1.347E3,3.152E3,1.66E3,4.8E1,5.13E2,4E0,6.79E2,1.392E3,1.306E3,1.199E3,1.447E3,2.24E2,6.267E3,2.133E3,3.702E3,1.037E3,2.68E3,2.776E3,9E0,1.16E2,1.019E3,2.469E3,3E1,1.5E1,1.77E3,9.93E2,1.49E3,9.06E2,7.81E2,1.898E3,1.725E3,7.8E2,4.77E2,1.285E3,6.81E2,7.61E2,8.76E2,3.77E2,1.135E3,1.159E3,3E0,8E0,2.499E3,2.509E3,5.72E2,5.69E2,1.704E3,3.926E3,4E0,1.8E1,5.15E2,6.26E2,8.26E2,2.81E2,2.109E3,1.953E3,7.35E2,6.89E2,1.069E3,9.89E2,2.058E3,4.64E2,1.618E3,4.62E2,1.741E3,8.75E2,1.244E3,2.315E3,8.54E2,8.38E2,5.74E2,9.34E2,1.737E3,1.125E3,5.82E2,4.13E2,7.6E1,5.7E1,4E1,3.01E2,8.9E1,5.7E1,9.3E1,4.3E1,9E0,2E1,1.88E2,1.58E2,2.1E2,1.93E2,1.43E2,8E1,3.3E2,3.22E2,3.33E2,2.48E2,1.21E2,6.7E1,1.41E2,1.07E2,2.8E1,1.53E2,2.68E3,3.25E3,5.772E3,4.6E2,1.242E3,3.307E3,1.235E3,1.203E3,3.521E3,2.754E3,3.66E3,4.643E3,6.95E2,3.81E2,8.3E1,1.62E3,1.003E3,2.373E3,1.088E3,2.9E1,6.4E1,1.44E2,6.84E2,9.48E2,1.848E3,2.69E2,5.24E2,1.17E3,6.9E2,1.488E3,5.38E2,1.909E3,6.58E2,3.84E2,4E2,1.02E3,8.83E2,1.267E3,1.73E3,5.92E2,5E0,1E1,1.179E3,3.044E3,1.604E3,2.244E3,6.05E2,4.4E1,3.18E2,1.013E3,1.546E3,1.158E3,6.2E1,2.29E2,1.41E3,1.742E3,1.233E3,4.27E2,1.5E1,3.3E1,3.695E3,7E0,2.405E3,2.75E2,1.23E2,8.96E2,5E0,1E1,2.86E2,1.484E3,7.89E2,7.01E2,5.86E2,1.95E2,8.9E2,8.35E2,6.62E2,6.23E2,5.6E2,2.01E2,8.63E2,1.3E1,2.49E2,1.28E2,1.095E3,1.404E3,1.7E2,3.99E2,8.52E2,8.52E2,1.999E3,1.927E3,1.49E2,1.32E2,1.027E3,1.082E3,8.9E2,1.063E3,4.95E2,4.94E2,9.72E2,1.086E3,3.14E2,1.5E2,1.568E3,5E1,9.29E2,3.15E2,1.52E2,7.02E2,5.7E2,2.68E2,2.87E2,2.95E2,2.01E2,2.12E2,3.6E1,4E1,3.8E1,1.9E1,2.6E1,1.4E1,4.5E1,4.4E1,8E0,4.9E1,3.7E1,5.6E1,9E0,1.79E2,9E1,6.8E1,1.07E2,1.03E2,9.3E1,5E1,4.3E1,3.7E1,1.69E2,1.53E2,1.34E2,1.14E2,9.5E1,4.6E1,4.4E1,6.3E1,1.5E1,1.3E1,3.346E3,2.426E3,1.634E3,1.673E3,1.691E3,1.83E3,1.067E3,1.687E3,1.484E3,2.176E3,2.752E3,1.891E3,1.28E2,5.67E2,2.31E2,1.5E2,2.34E2,1.386E3,1.412E3,9.61E2,1.39E2,5E0,1.25E2,3.99E2,1.162E3,5.68E2,9.8E1,4.94E2,1.038E3,5.08E2,2.17E2,1.193E3,2.12E2,1.53E3,7E0,8E0],"tree_param":{"num_deleted":"0","num_feature":"21","num_nodes":"677","size_leaf_vector":"1"}},{"base_weights":[2.6881587E-4,-7.824425E-2,7.991794E-2,-1.2325938E-1,6.262156E-3,1.5338341E-2,1.8395264E-1,-1.8071361E-1,-1.653584E-2,-1.8733574E-2,1.3266668E-1,-3.563066E-2,1.2645228E-1,1.2702401E-1,3.013746E-1,-1.5459882E-1,-2.3809178E-1,1.0584149E-2,-7.107537E-2,1.0642524E-2,-7.398045E-2,2.0572919E-1,8.701085E-2,-4.9290758E-2,8.025985E-2,1.6068839E-1,7.383566E-2,1.6317576E-1,7.322791E-2,3.4031793E-1,2.450149E-1,-1.9323973E-1,-1.281312E-1,-2.7254346E-1,-2.1532527E-1,-2.0437473E-2,5.0570942E-2,-8.937473E-2,-3.7694793E-2,-2.4700837E-2,5.109157E-2,-9.6585676E-2,-3.9292585E-2,1.3048184E-1,2.5046858E-1,4.5173343E-2,1.1556503E-1,-2.8973797E-2,-9.804059E-2,3.877693E-2,1.0569995E-1,1.4195395E-1,2.4997094E-1,5.894443E-2,1.6588636E-1,1.4722738E-1,2.4205309E-1,4.0445667E-2,1.0540143E-1,3.1868073E-1,4.149651E-1,2.2877985E-1,3.3850121E-1,-2.0813392E-1,-1.7433275E-1,-1.4743759E-1,-1.0905641E-1,-2.8091767E-1,-2.093196E-2,-2.3040487E-1,-1.9627938E-1,-4.1901536E-2,-5.0654938E-3,3.0214831E-2,6.509373E-2,-1.12841435E-1,-7.879955E-2,-5.5855297E-2,-3.056699E-2,-4.2829975E-2,-6.408877E-3,3.129514E-2,6.728987E-2,-1.2114825E-1,-8.651388E-2,-5.631121E-2,-3.2099906E-2,9.162933E-2,1.5322907E-1,2.1359532E-1,2.5461248E-1,2.6536118E-2,6.8834744E-2,9.72144E-2,1.3252917E-1,-5.551085E-2,-2.552861E-3,-1.3914514E-1,-5.269584E-2,1.6869051E-2,5.500813E-2,1.141825E-1,5.684732E-2,1.2017745E-1,1.7085513E-1,2.1342917E-1,2.782345E-1,3.565713E-2,8.853587E-2,1.247995E-1,1.9746692E-1,1.1846364E-1,1.7635979E-1,2.095913E-1,2.7262115E-1,3.242983E-2,1.180563E-1,9.316586E-2,1.8286915E-1,2.8836647E-1,3.457705E-1,3.0037694E-2,4.3315107E-1,2.0433162E-1,2.551083E-1,3.0572096E-1,3.6354363E-1,-1.8242039E-2,-2.0611681E-1,-1.4705055E-2,-1.3611805E-2,-1.5277642E-1,-1.0979711E-2,-1.1920134E-1,-9.906196E-2,-2.35685E-2,-2.2411132E-2,-1.9362064E-2,-1.8065982E-2,-1.6750328E-2,-1.9147791E-1,-4.0625244E-2,-1.2211027E-2,-1.5334872E-2,7.4817906E-3,3.0600717E-2,-1.1328953E-2,5.7913303E-2,8.7873615E-2,-1.1831101E-2,-1.0814426E-1,-7.7845E-2,-1.4835238E-1,-5.489536E-2,-1.313619E-2,-3.4266703E-2,-1.5190013E-3,-4.1807104E-2,-1.604624E-1,-1.2948227E-2,7.318818E-3,3.1628605E-2,-1.4479831E-2,5.9809875E-2,8.3659604E-2,-1.3837622E-1,-9.60153E-3,-8.5571505E-2,-1.3037286E-2,-5.528799E-2,-1.4707847E-2,-3.1365395E-2,-1.4087287E-1,1.0051573E-1,6.4864904E-3,1.712542E-1,1.1639667E-1,1.835986E-2,1.5851164E-1,2.0588785E-2,2.5861258E-2,2.7610885E-2,-1.2110496E-2,6.212956E-3,6.0108572E-2,8.8764936E-2,1.08638056E-1,1.2816744E-1,1.4385549E-2,-6.463074E-2,-3.7339102E-2,-2.2790346E-2,2.6279874E-3,-1.5303783E-1,-1.1643175E-1,-6.78156E-2,-3.955541E-2,1.8125914E-2,-1.2339974E-1,3.2831263E-3,4.9534435E-3,8.9191735E-2,1.2812068E-1,5.83283E-2,-1.3487415E-2,1.102182E-1,1.29844E-1,1.626746E-1,1.8341877E-1,1.6163763E-2,1.828513E-2,2.7396587E-1,2.7719803E-2,1.5877593E-2,4.8336923E-2,6.2214835E-3,9.338006E-2,1.0167064E-1,1.3987544E-1,1.4547577E-2,1.7027965E-2,1.0929087E-1,1.3143542E-1,1.6872169E-1,2.0041747E-1,1.58267E-2,1.8029366E-2,2.0804444E-2,2.3610773E-2,1.920911E-2,5.0257996E-2,8.524806E-3,1.0471706E-2,8.535009E-2,1.1374412E-1,1.375972E-2,1.5806362E-2,2.2411948E-2,2.4741475E-2,3.3436796E-1,3.0584607E-2,3.4013927E-2,3.6991954E-2,1.5113777E-2,1.7351668E-2,1.9592302E-2,2.1575311E-2,2.296018E-2,2.605132E-2,2.780711E-2,3.0660506E-2,-1.6842121E-2,-1.9956431E-1,-1.2481016E-2,-1.1812337E-2,-1.21499285E-1,-8.945949E-3,-1.0024625E-1,-4.0197328E-2,-1.5794897E-2,-1.4556502E-2,-4.5734536E-2,-2.2114823E-3,-1.465545E-2,-1.2942109E-2,8.160112E-3,-1.1803344E-2,2.6406176E-2,3.543272E-2,5.811755E-2,-1.3643826E-2,8.4604956E-2,1.4080683E-2,-9.406233E-3,-1.0221548E-1,-8.4223114E-2,-7.039835E-2,-9.912559E-2,-1.312121E-2,-4.153506E-3,-6.220775E-2,-3.3262175E-2,-1.3721501E-2,-4.6958692E-2,-2.6287634E-2,-1.47534385E-2,-1.14406E-1,-1.2592451E-2,-1.2436235E-2,7.788035E-3,-1.1845654E-2,2.707851E-2,3.6375618E-3,5.464004E-2,6.384794E-2,8.296632E-2,1.3027085E-2,-1.4039311E-1,-5.6569144E-2,-9.141492E-2,-7.369694E-2,-4.6894E-3,-3.8347447E-3,-3.5545874E-2,-1.5568502E-3,-1.4494488E-2,-1.0535693E-3,9.4426714E-2,1.0583178E-2,1.2544863E-1,1.7891738E-1,6.8977736E-3,1.2674248E-1,1.772976E-1,7.3984917E-3,1.2987471E-3,4.1071072E-2,7.322782E-2,4.62553E-2,7.624043E-2,7.5199446E-3,9.423466E-3,9.861312E-2,1.3262151E-1,8.476087E-3,-7.3799595E-2,-5.6063432E-2,-3.507733E-3,-2.8793719E-3,-2.7351072E-2,-1.9358164E-2,-5.6968415E-3,8.97543E-3,-1.3043659E-2,-1.1462501E-2,-9.734776E-3,-8.442744E-3,-7.7448666E-2,-6.102213E-2,-3.878528E-2,-1.3179427E-1,1.0311487E-2,1.754535E-3,-1.3572538E-2,-2.1752547E-3,6.4604175E-3,9.7007014E-2,1.22295916E-1,1.1934206E-2,4.1822293E-3,5.6302403E-3,1.072739E-1,9.414458E-3,1.2639184E-1,1.1107431E-2,1.5440026E-1,1.679407E-1,1.4657055E-2,1.5842013E-2,2.052324E-2,2.3092797E-2,6.6863577E-4,1.5486177E-3,3.7220743E-2,4.291966E-3,9.096502E-2,1.0413654E-1,7.200374E-3,9.238864E-3,1.1435641E-2,5.352227E-4,8.587177E-3,1.14483505E-1,1.0259257E-2,1.0899248E-2,1.2689338E-2,1.755828E-1,1.5828012E-2,1.7272068E-2,8.518654E-3,2.7519811E-2,3.4781124E-3,5.3146962E-2,5.7071806E-3,9.1695234E-2,1.1508394E-1,5.7602435E-2,2.6342073E-2,2.815831E-2,-1.5571708E-2,-1.6727548E-2,-9.581133E-3,-1.0882545E-2,-1.0419951E-1,-7.7486956E-3,-1.710357E-2,-2.488496E-2,-4.3903277E-3,-4.252403E-2,-1.6149922E-3,-1.1609467E-2,2.3753793E-4,9.815841E-4,3.201318E-2,1.6791077E-2,4.1378923E-2,3.3228435E-2,4.493382E-3,5.13851E-3,8.025547E-2,7.6530413E-3,-8.217661E-3,-1.2394288E-2,-7.41952E-3,-6.4881677E-3,-5.9934957E-3,-6.6605926E-2,-1.2232842E-2,3.614675E-3,-4.6347696E-3,-6.17622E-3,-2.9252975E-3,-2.8698044E-2,-6.126449E-3,-4.6344783E-2,-1.998398E-3,-2.8175993E-3,5.8017923E-3,-1.1972721E-2,-2.0228243E-2,-9.331539E-3,1.3969122E-2,1.5454106E-3,3.2340884E-2,2.1268418E-2,4.7917087E-3,4.971108E-2,5.898663E-2,6.8153396E-2,7.980507E-2,7.606296E-3,-1.2249051E-2,-1.29031E-1,6.8601184E-3,-1.0478865E-2,-7.962304E-3,-8.648054E-2,-5.672616E-3,-6.306897E-3,-3.8595185E-2,-3.083688E-2,8.6660795E-3,6.586155E-3,7.3076854E-3,1.4547956E-1,1.5256617E-2,1.5279773E-1,1.3857773E-1,8.369703E-3,1.6009245E-2,8.651307E-3,3.8689284E-3,3.2921053E-2,6.9300397E-3,4.9997903E-3,4.851575E-3,3.202113E-2,7.42369E-3,5.5818334E-2,7.1262226E-2,1.0638437E-1,1.0179024E-2,1.1161166E-2,-6.501676E-3,-5.5606943E-3,-4.382482E-3,-4.7192345E-3,-2.4988162E-3,-1.7251604E-3,-1.7585937E-3,-1.48873525E-2,-1.6540202E-3,-1.5122179E-2,2.3731305E-3,1.4391704E-2,-6.5845717E-3,-7.086989E-2,-4.4228076E-3,-6.369897E-2,-4.325371E-2,-2.1833377E-3,-1.4646887E-2,-9.3566E-2,1.3208761E-3,-1.6814549E-4,8.24768E-3,7.0572803E-3,9.343395E-3,1.0520296E-2,8.34097E-3,1.1055353E-1,1.1963169E-1,1.0634307E-2,1.3652809E-1,1.2764508E-2,1.5962987E-1,1.7457092E-1,4.0892456E-3,2.8246725E-3,7.550941E-3,6.754256E-3,7.830564E-3,9.25924E-3,9.595995E-3,8.628931E-3,1.3894691E-2,1.4560433E-2,4.6438864E-3,1.0229547E-3,1.6775178E-3,3.133816E-2,4.1775443E-3,5.2127526E-3,7.1144314E-3,7.705636E-3,8.9010345E-3,1.0487818E-2,1.4120654E-3,7.929356E-2,-8.280437E-3,-1.0237873E-2,-1.7212145E-3,-9.796792E-3,-3.6746135E-3,-3.0535667E-3,-3.4788833E-4,-1.1371187E-3,2.056664E-3,2.9135642E-3,4.2347543E-4,1.5766559E-3,4.593007E-3,2.9049523E-3,2.1427197E-3,2.9305262E-3,6.7418106E-3,-1.0464399E-2,-4.8843487E-3,-5.845652E-3,-1.6712553E-3,-2.9661325E-3,-3.490205E-3,-4.0334505E-3,-1.1278748E-3,-2.1384065E-3,-1.1608545E-3,-3.6056997E-4,6.922214E-4,1.5348942E-3,-2.2283295E-4,5.138089E-4,2.1964447E-3,3.00954E-3,1.962231E-3,1.1064021E-3,4.357968E-3,3.4505175E-3,4.983512E-3,3.8621682E-3,5.86404E-3,5.1196455E-3,6.607702E-3,2.1829577E-3,-1.2069938E-2,-9.433562E-3,-6.6172173E-3,-7.266398E-3,-2.8919377E-3,-3.5881202E-3,-3.1066956E-3,-2.296837E-3,1.3152003E-2,5.7849204E-3,1.0365592E-2,1.5096231E-2,9.361902E-3,1.2514037E-2,1.3880322E-3,3.1340527E-3,3.0091556E-4,3.2192518E-3,6.1381496E-3,2.7047615E-3,1.1314255E-3,6.6736676E-3,9.535272E-3,7.2816475E-3,-7.344308E-4,-1.6762613E-3,-5.1347096E-4,2.1249565E-4,-2.1317087E-3,-7.309589E-4,-5.51949E-4,6.652979E-4,8.4546796E-4,2.3612503E-3,-6.323732E-3,-4.5978585E-3,-4.209823E-3,-5.322131E-3,-3.6884365E-3,-3.1692234E-3,-9.362883E-3,-1.9055544E-3,8.511241E-3,9.42141E-3,8.97483E-3,1.019835E-2,1.1585026E-2,8.48908E-3,1.163485E-2,1.3765997E-2,1.3699443E-2,1.4963947E-2,6.6310435E-4,-2.3122689E-4,3.2669813E-3,2.3116125E-3,7.683175E-3,7.879966E-4],"categories":[],"categories_nodes":[],"categories_segments":[],"categories_sizes":[],"default_left":[0,0,0,0,0,0,0,0,0,0,0,0,0,0,0,0,0,0,0,0,0,0,0,0,0,0,0,0,0,0,0,0,0,0,0,0,0,0,0,0,0,0,0,0,0,0,0,0,0,0,0,0,0,0,0,0,0,0,0,0,0,0,0,0,0,0,0,0,0,0,0,0,0,0,0,0,0,0,0,0,0,0,0,0,0,0,0,0,0,0,0,0,0,0,0,0,0,0,0,0,0,0,0,0,0,0,0,0,0,0,0,0,0,0,0,0,0,0,0,0,0,0,0,0,0,0,0,0,0,0,0,0,0,0,0,0,0,0,0,0,0,0,0,0,0,0,0,0,0,0,0,0,0,0,0,0,0,0,0,0,0,0,0,0,0,0,0,0,0,0,0,0,0,0,0,0,0,0,0,0,0,0,0,0,0,0,0,0,0,0,0,0,0,0,0,0,0,0,0,0,0,0,0,0,0,0,0,0,0,0,0,0,0,0,0,0,0,0,0,0,0,0,0,0,0,0,0,0,0,0,0,0,0,0,0,0,0,0,0,0,0,0,0,0,0,0,0,0,0,0,0,0,0,0,0,0,0,0,0,0,0,0,0,0,0,0,0,0,0,0,0,0,0,0,0,0,0,0,0,0,0,0,0,0,0,0,0,0,0,0,0,0,0,0,0,0,0,0,0,0,0,0,0,0,0,0,0,0,0,0,0,0,0,0,0,0,0,0,0,0,0,0,0,0,0,0,0,0,0,0,0,0,0,0,0,0,0,0,0,0,0,0,0,0,0,0,0,0,0,0,0,0,0,0,0,0,0,0,0,0,0,0,0,0,0,0,0,0,0,0,0,0,0,0,0,0,0,0,0,0,0,0,0,0,0,0,0,0,0,0,0,0,0,0,0,0,0,0,0,0,0,0,0,0,0,0,0,0,0,0,0,0,0,0,0,0,0,0,0,0,0,0,0,0,0,0,0,0,0,0,0,0,0,0,0,0,0,0,0,0,0,0,0,0,0,0,0,0,0,0,0,0,0,0,0,0,0,0,0,0,0,0,0,0,0,0,0,0,0,0,0,0,0,0,0,0,0,0,0,0,0,0,0,0,0,0,0,0,0,0,0,0,0,0,0,0,0,0,0,0,0,0,0,0,0,0,0,0,0,0,0,0,0,0,0,0,0,0,0,0,0,0,0,0,0,0,0,0,0,0,0,0,0,0,0,0,0,0,0,0,0,0,0,0,0,0,0,0,0,0,0,0,0,0,0,0,0,0,0,0,0,0,0,0,0,0,0,0,0,0,0,0,0,0,0,0,0,0,0,0,0,0,0,0,0,0,0,0,0,0,0,0,0,0,0,0,0,0,0,0,0,0,0,0,0,0,0,0,0,0,0,0,0,0,0,0,0,0,0,0,0,0,0,0,0,0,0,0,0,0,0],"id":1,"left_children":[1,3,5,7,9,11,13,15,17,19,21,23,25,27,29,31,33,35,37,39,41,43,45,47,49,51,53,55,57,59,61,63,65,67,69,71,73,75,77,79,81,83,85,87,89,91,93,95,97,99,101,103,105,107,109,111,113,115,117,119,121,123,125,127,129,131,133,135,-1,137,139,141,143,145,147,149,151,153,155,157,159,161,163,165,167,169,171,173,175,177,179,181,183,185,187,189,191,193,195,197,199,201,203,205,207,209,211,213,215,217,219,221,223,225,227,229,231,233,235,237,239,-1,241,243,245,247,249,-1,251,-1,-1,253,-1,255,257,-1,-1,-1,-1,-1,259,261,-1,263,265,267,-1,269,271,-1,273,275,277,279,-1,281,-1,283,285,287,289,291,-1,293,295,297,-1,299,-1,301,-1,303,305,307,-1,309,311,-1,313,-1,-1,315,-1,-1,317,319,321,323,-1,325,327,329,331,333,335,337,339,341,343,-1,-1,345,347,349,-1,351,353,355,357,-1,-1,359,-1,361,363,-1,365,367,369,-1,-1,371,373,375,377,-1,-1,-1,-1,379,381,-1,-1,383,385,-1,-1,-1,-1,387,-1,-1,-1,-1,-1,-1,-1,-1,-1,-1,-1,-1,389,-1,-1,391,-1,393,395,-1,-1,397,-1,399,-1,401,-1,403,405,407,-1,409,-1,-1,411,413,415,417,-1,-1,419,421,-1,423,425,-1,427,429,-1,431,-1,433,-1,435,437,439,-1,441,443,445,447,-1,-1,449,-1,-1,-1,451,-1,453,455,-1,457,459,-1,-1,461,463,465,467,-1,-1,469,471,-1,473,475,-1,-1,477,479,481,483,-1,-1,-1,-1,485,487,489,491,493,-1,-1,-1,-1,495,497,-1,-1,-1,499,-1,501,-1,503,505,-1,-1,-1,-1,-1,-1,507,-1,509,511,-1,-1,-1,-1,-1,513,-1,-1,-1,515,-1,-1,517,519,-1,521,-1,523,525,527,-1,-1,-1,-1,-1,-1,529,-1,-1,531,-1,533,-1,535,-1,-1,537,539,541,543,-1,-1,545,-1,-1,-1,-1,-1,-1,547,-1,-1,-1,-1,-1,549,-1,551,-1,-1,-1,-1,553,555,557,559,561,563,-1,565,567,569,571,-1,-1,573,-1,-1,-1,575,-1,-1,577,579,-1,-1,-1,581,-1,583,585,-1,-1,-1,-1,587,-1,-1,-1,589,-1,591,593,595,-1,-1,-1,-1,-1,-1,-1,-1,-1,597,599,601,603,605,-1,607,-1,609,611,-1,-1,613,-1,-1,-1,-1,-1,-1,-1,615,617,-1,619,-1,621,623,-1,-1,-1,-1,-1,-1,-1,-1,-1,-1,625,-1,-1,627,-1,-1,-1,-1,-1,-1,-1,629,-1,-1,-1,-1,-1,-1,-1,-1,-1,-1,-1,-1,-1,-1,-1,-1,-1,-1,-1,-1,-1,-1,-1,-1,-1,-1,-1,-1,-1,-1,-1,-1,-1,-1,-1,-1,-1,-1,-1,-1,-1,-1,-1,-1,-1,-1,-1,-1,-1,-1,-1,-1,-1,-1,-1,-1,-1,-1,-1,-1,-1,-1,-1,-1,-1,-1,-1,-1,-1,-1,-1,-1,-1,-1,-1,-1,-1,-1,-1,-1,-1,-1,-1,-1,-1,-1,-1,-1,-1,-1,-1,-1,-1,-1,-1,-1,-1,-1,-1,-1,-1,-1],"loss_changes":[1.7403544E3,5.331407E2,9.2816736E2,5.606874E2,1.539053E2,4.8274982E2,3.536609E2,8.903064E1,4.7333794E1,6.6004036E1,2.6808044E1,9.251257E1,4.8274384E1,6.9295654E1,3.7834717E1,4.175598E1,1.4522339E1,2.6514523E1,6.488674E0,3.7960144E1,1.1066513E1,1.0376602E1,5.90942E0,5.1772858E1,6.498844E0,2.7125153E1,1.4476288E1,2.677539E1,1.5104607E1,1.6364868E1,1.0642487E1,4.6397705E0,8.913635E0,8.335571E-1,3.1708984E0,3.9713368E0,2.7586021E0,1.6945076E0,4.8565102E-1,4.6990757E0,3.9684105E0,2.1039581E0,6.8025875E-1,1.0067368E0,2.4173737E-1,8.845496E-1,9.0296936E-1,2.587099E1,2.8653473E1,8.325772E-1,1.5760841E0,8.42807E0,2.847931E0,6.2663155E0,1.8840485E0,1.4836945E1,3.4982605E0,4.411317E0,6.83506E0,6.4066772E0,1.7096252E0,3.8234863E0,7.4505615E-1,2.6513672E-1,3.0169678E-1,7.610779E-1,1.2252808E0,1.324768E-1,0E0,3.4475708E-1,2.0092773E-1,6.898098E-1,9.040171E-1,2.5916123E-1,8.8619995E-1,3.1373405E-1,3.028183E-1,9.897351E-2,1.1800313E-1,8.496294E-1,6.3342357E-1,3.9542866E-1,8.287258E-1,1.0531616E-1,4.0990067E-1,2.0137739E-1,3.0869102E-1,3.659773E-2,4.627266E-1,1.04590416E-1,2.2766113E-2,2.168144E-1,5.4994583E-2,1.2713051E-1,2.7493668E-1,3.0484085E0,1.9387922E0,2.5270844E0,1.4502659E0,1.7835894E-1,1.1556959E-1,1.1216736E0,1.9697511E-1,7.230377E-1,5.6277466E-1,1.6378021E-1,3.3450317E-1,1.2765589E0,2.2336388E-1,2.0963764E-1,1.4902115E-1,1.0475998E0,1.5845032E0,2.7565765E-1,4.741516E-1,1.5155358E0,8.1272125E-2,9.947014E-1,1.23062134E-1,6.70166E-1,1.3546448E0,0E0,3.2598877E-1,4.9612427E-1,3.6149597E-1,6.875229E-2,4.508972E-2,0E0,3.463745E-2,0E0,0E0,3.8467407E-2,0E0,1.1138916E-1,4.2484665E-1,0E0,0E0,0E0,0E0,0E0,9.333801E-2,3.3816147E-1,0E0,3.7545502E-1,3.2875124E-1,7.774496E-2,0E0,2.011652E-1,3.5025787E-1,0E0,7.401848E-2,2.1601677E-1,2.5277972E-2,2.5422812E-2,0E0,2.73458E-1,0E0,5.6297207E-1,3.909886E-2,2.3658645E-1,1.6489458E-1,3.328581E-1,0E0,9.4148636E-2,1.003294E-1,4.9146652E-2,0E0,4.0896606E-1,0E0,3.0158043E-2,0E0,1.9764161E-1,1.2310201E-1,3.1356573E-2,0E0,1.4814854E-1,6.786132E-2,0E0,3.571427E-2,0E0,0E0,1.7434722E-1,0E0,0E0,7.2945476E-2,3.2894135E-2,3.3341408E-2,1.3349533E-1,0E0,9.585991E-1,6.583309E-2,5.8467746E-2,7.7803475E-1,4.30542E-1,1.2112045E-1,2.177105E-1,2.7299547E-1,2.6821584E-2,3.362438E-2,0E0,0E0,7.9826355E-2,2.1195984E-1,3.8765788E-2,0E0,5.1872253E-2,7.6675415E-2,1.2662506E-1,4.0115356E-2,0E0,0E0,2.5994873E-1,0E0,4.856527E-2,1.5483141E-1,0E0,6.432915E-2,3.03936E-2,5.1894188E-2,0E0,0E0,8.26149E-2,3.6071777E-2,5.405426E-1,1.00105286E-1,0E0,0E0,0E0,0E0,3.281374E-1,5.630207E-2,0E0,0E0,4.2557144E-1,1.2244797E-1,0E0,0E0,0E0,0E0,2.6531982E-1,0E0,0E0,0E0,0E0,0E0,0E0,0E0,0E0,0E0,0E0,0E0,0E0,3.5308838E-2,0E0,0E0,1.9275665E-1,0E0,1.0380554E-1,3.1595677E-1,0E0,0E0,9.410906E-2,0E0,6.111461E-2,0E0,6.471856E-2,0E0,1.1170709E-1,2.2230864E-2,5.5758476E-2,0E0,4.545498E-2,0E0,0E0,3.642845E-2,7.0056915E-2,2.336502E-2,1.2531933E-1,0E0,0E0,2.0456672E-2,2.495122E-2,0E0,8.9268684E-2,2.3855329E-2,0E0,1.4596811E-1,1.1853272E-1,0E0,8.760768E-2,0E0,1.2592268E-1,0E0,4.1699886E-2,5.081749E-2,6.445217E-2,0E0,2.0850658E-2,1.1326973E-1,1.2394714E-1,2.4795532E-2,0E0,0E0,4.0422678E-2,0E0,0E0,0E0,2.462244E-2,0E0,3.8677096E-2,6.929493E-2,0E0,3.6020756E-2,2.271545E-2,0E0,0E0,2.6290715E-2,2.4986386E-2,3.7929565E-2,5.709684E-2,0E0,0E0,4.8107147E-2,2.40345E-2,0E0,1.9180298E-1,2.4147034E-2,0E0,0E0,3.32036E-2,2.1923363E-2,2.4270354E-1,2.9870373E-1,0E0,0E0,0E0,0E0,2.8211594E-2,3.1438828E-2,2.0508194E-1,4.265827E-2,2.277859E-2,0E0,0E0,0E0,0E0,2.080822E-2,6.923103E-2,0E0,0E0,0E0,2.580452E-2,0E0,6.6265106E-2,0E0,4.9137115E-2,8.93898E-2,0E0,0E0,0E0,0E0,0E0,0E0,2.7010202E-2,0E0,2.9619217E-2,2.813387E-2,0E0,0E0,0E0,0E0,0E0,5.14431E-2,0E0,0E0,0E0,4.121399E-2,0E0,0E0,2.5554992E-2,5.373454E-2,0E0,3.3164978E-2,0E0,3.339386E-2,1.139946E-1,3.5247266E-2,0E0,0E0,0E0,0E0,0E0,0E0,1.4391708E-1,0E0,0E0,3.7611067E-2,0E0,3.3358097E-2,0E0,4.2706758E-2,0E0,0E0,3.315878E-2,2.3353398E-2,3.902018E-2,2.4977207E-2,0E0,0E0,5.255232E-1,0E0,0E0,0E0,0E0,0E0,0E0,3.1879425E-2,0E0,0E0,0E0,0E0,0E0,4.8871636E-2,0E0,5.59721E-2,0E0,0E0,0E0,0E0,5.4885983E-2,8.119124E-2,3.0519113E-2,2.3241516E-2,5.3314686E-2,4.3450832E-2,0E0,2.5732994E-2,3.1186104E-2,2.4199963E-2,1.3772583E-1,0E0,0E0,2.529025E-2,0E0,0E0,0E0,2.7677536E-2,0E0,0E0,2.762103E-2,2.0513415E-2,0E0,0E0,0E0,4.377961E-2,0E0,6.952286E-2,2.4639368E-2,0E0,0E0,0E0,0E0,2.0508647E-2,0E0,0E0,0E0,2.2145897E-2,0E0,3.6693096E-2,3.7198186E-2,2.6834488E-2,0E0,0E0,0E0,0E0,0E0,0E0,0E0,0E0,0E0,2.4624482E-2,8.902975E-2,1.3006648E-1,2.0127554E-1,2.6784152E-1,0E0,4.6784878E-2,0E0,2.7920723E-2,2.4234295E-2,0E0,0E0,2.7845263E-2,0E0,0E0,0E0,0E0,0E0,0E0,0E0,3.3187866E-2,4.472351E-2,0E0,2.4362087E-2,0E0,1.3102913E-1,3.5305023E-2,0E0,0E0,0E0,0E0,0E0,0E0,0E0,0E0,0E0,0E0,2.2007424E-2,0E0,0E0,3.279519E-2,0E0,0E0,0E0,0E0,0E0,0E0,0E0,2.7963921E-2,0E0,0E0,0E0,0E0,0E0,0E0,0E0,0E0,0E0,0E0,0E0,0E0,0E0,0E0,0E0,0E0,0E0,0E0,0E0,0E0,0E0,0E0,0E0,0E0,0E0,0E0,0E0,0E0,0E0,0E0,0E0,0E0,0E0,0E0,0E0,0E0,0E0,0E0,0E0,0E0,0E0,0E0,0E0,0E0,0E0,0E0,0E0,0E0,0E0,0E0,0E0,0E0,0E0,0E0,0E0,0E0,0E0,0E0,0E0,0E0,0E0,0E0,0E0,0E0,0E0,0E0,0E0,0E0,0E0,0E0,0E0,0E0,0E0,0E0,0E0,0E0,0E0,0E0,0E0,0E0,0E0,0E0,0E0,0E0,0E0,0E0,0E0,0E0,0E0,0E0,0E0,0E0,0E0,0E0,0E0,0E0,0E0,0E0,0E0,0E0,0E0,0E0],"parents":[2147483647,0,0,1,1,2,2,3,3,4,4,5,5,6,6,7,7,8,8,9,9,10,10,11,11,12,12,13,13,14,14,15,15,16,16,17,17,18,18,19,19,20,20,21,21,22,22,23,23,24,24,25,25,26,26,27,27,28,28,29,29,30,30,31,31,32,32,33,33,34,34,35,35,36,36,37,37,38,38,39,39,40,40,41,41,42,42,43,43,44,44,45,45,46,46,47,47,48,48,49,49,50,50,51,51,52,52,53,53,54,54,55,55,56,56,57,57,58,58,59,59,60,60,61,61,62,62,63,63,64,64,65,65,66,66,67,67,69,69,70,70,71,71,72,72,73,73,74,74,75,75,76,76,77,77,78,78,79,79,80,80,81,81,82,82,83,83,84,84,85,85,86,86,87,87,88,88,89,89,90,90,91,91,92,92,93,93,94,94,95,95,96,96,97,97,98,98,99,99,100,100,101,101,102,102,103,103,104,104,105,105,106,106,107,107,108,108,109,109,110,110,111,111,112,112,113,113,114,114,115,115,116,116,117,117,118,118,119,119,120,120,122,122,123,123,124,124,125,125,126,126,128,128,131,131,133,133,134,134,140,140,141,141,143,143,144,144,145,145,147,147,148,148,150,150,151,151,152,152,153,153,155,155,157,157,158,158,159,159,160,160,161,161,163,163,164,164,165,165,167,167,169,169,171,171,172,172,173,173,175,175,176,176,178,178,181,181,184,184,185,185,186,186,187,187,189,189,190,190,191,191,192,192,193,193,194,194,195,195,196,196,197,197,198,198,201,201,202,202,203,203,205,205,206,206,207,207,208,208,211,211,213,213,214,214,216,216,217,217,218,218,221,221,222,222,223,223,224,224,229,229,230,230,233,233,234,234,239,239,252,252,255,255,257,257,258,258,261,261,263,263,265,265,267,267,268,268,269,269,271,271,274,274,275,275,276,276,277,277,280,280,281,281,283,283,284,284,286,286,287,287,289,289,291,291,293,293,294,294,295,295,297,297,298,298,299,299,300,300,303,303,307,307,309,309,310,310,312,312,313,313,316,316,317,317,318,318,319,319,322,322,323,323,325,325,326,326,329,329,330,330,331,331,332,332,337,337,338,338,339,339,340,340,341,341,346,346,347,347,351,351,353,353,355,355,356,356,363,363,365,365,366,366,372,372,376,376,379,379,380,380,382,382,384,384,385,385,386,386,393,393,396,396,398,398,400,400,403,403,404,404,405,405,406,406,409,409,416,416,422,422,424,424,429,429,430,430,431,431,432,432,433,433,434,434,436,436,437,437,438,438,439,439,442,442,446,446,449,449,450,450,454,454,456,456,457,457,462,462,466,466,468,468,469,469,470,470,480,480,481,481,482,482,483,483,484,484,486,486,488,488,489,489,492,492,500,500,501,501,503,503,505,505,506,506,517,517,520,520,528,528],"right_children":[2,4,6,8,10,12,14,16,18,20,22,24,26,28,30,32,34,36,38,40,42,44,46,48,50,52,54,56,58,60,62,64,66,68,70,72,74,76,78,80,82,84,86,88,90,92,94,96,98,100,102,104,106,108,110,112,114,116,118,120,122,124,126,128,130,132,134,136,-1,138,140,142,144,146,148,150,152,154,156,158,160,162,164,166,168,170,172,174,176,178,180,182,184,186,188,190,192,194,196,198,200,202,204,206,208,210,212,214,216,218,220,222,224,226,228,230,232,234,236,238,240,-1,242,244,246,248,250,-1,252,-1,-1,254,-1,256,258,-1,-1,-1,-1,-1,260,262,-1,264,266,268,-1,270,272,-1,274,276,278,280,-1,282,-1,284,286,288,290,292,-1,294,296,298,-1,300,-1,302,-1,304,306,308,-1,310,312,-1,314,-1,-1,316,-1,-1,318,320,322,324,-1,326,328,330,332,334,336,338,340,342,344,-1,-1,346,348,350,-1,352,354,356,358,-1,-1,360,-1,362,364,-1,366,368,370,-1,-1,372,374,376,378,-1,-1,-1,-1,380,382,-1,-1,384,386,-1,-1,-1,-1,388,-1,-1,-1,-1,-1,-1,-1,-1,-1,-1,-1,-1,390,-1,-1,392,-1,394,396,-1,-1,398,-1,400,-1,402,-1,404,406,408,-1,410,-1,-1,412,414,416,418,-1,-1,420,422,-1,424,426,-1,428,430,-1,432,-1,434,-1,436,438,440,-1,442,444,446,448,-1,-1,450,-1,-1,-1,452,-1,454,456,-1,458,460,-1,-1,462,464,466,468,-1,-1,470,472,-1,474,476,-1,-1,478,480,482,484,-1,-1,-1,-1,486,488,490,492,494,-1,-1,-1,-1,496,498,-1,-1,-1,500,-1,502,-1,504,506,-1,-1,-1,-1,-1,-1,508,-1,510,512,-1,-1,-1,-1,-1,514,-1,-1,-1,516,-1,-1,518,520,-1,522,-1,524,526,528,-1,-1,-1,-1,-1,-1,530,-1,-1,532,-1,534,-1,536,-1,-1,538,540,542,544,-1,-1,546,-1,-1,-1,-1,-1,-1,548,-1,-1,-1,-1,-1,550,-1,552,-1,-1,-1,-1,554,556,558,560,562,564,-1,566,568,570,572,-1,-1,574,-1,-1,-1,576,-1,-1,578,580,-1,-1,-1,582,-1,584,586,-1,-1,-1,-1,588,-1,-1,-1,590,-1,592,594,596,-1,-1,-1,-1,-1,-1,-1,-1,-1,598,600,602,604,606,-1,608,-1,610,612,-1,-1,614,-1,-1,-1,-1,-1,-1,-1,616,618,-1,620,-1,622,624,-1,-1,-1,-1,-1,-1,-1,-1,-1,-1,626,-1,-1,628,-1,-1,-1,-1,-1,-1,-1,630,-1,-1,-1,-1,-1,-1,-1,-1,-1,-1,-1,-1,-1,-1,-1,-1,-1,-1,-1,-1,-1,-1,-1,-1,-1,-1,-1,-1,-1,-1,-1,-1,-1,-1,-1,-1,-1,-1,-1,-1,-1,-1,-1,-1,-1,-1,-1,-1,-1,-1,-1,-1,-1,-1,-1,-1,-1,-1,-1,-1,-1,-1,-1,-1,-1,-1,-1,-1,-1,-1,-1,-1,-1,-1,-1,-1,-1,-1,-1,-1,-1,-1,-1,-1,-1,-1,-1,-1,-1,-1,-1,-1,-1,-1,-1,-1,-1,-1,-1,-1,-1,-1],"split_conditions":[2.2222223E-2,6E1,6E1,1E0,1E0,1E0,1E0,1E0,1E0,1E0,1E0,3E0,1E0,1E0,1E0,-6.062222E-1,-6.4444447E-1,-5.3333336E-1,-4E-1,-5.1111114E-1,-4.4022223E-1,-6.2222224E-1,-7.537778E-1,1E0,4.888889E-1,3E0,3E0,3E0,4.888889E-1,3E0,3E0,-8.2222223E-1,-3.1111112E-1,-8.2222223E-1,-2.8866667E-1,-8.802222E-1,-3.1111112E-1,-8.802222E-1,-3.1111112E-1,-8.2222223E-1,-2.8666666E-1,-9.111111E-1,-3.1111112E-1,-9.111111E-1,-4.4444445E-1,-8.802222E-1,-3.9977777E-1,4.4444445E-1,5.3333336E-1,1.9266666E-1,1E0,4.4444445E-1,4.4444445E-1,4.888889E-1,5.1111114E-1,4.4444445E-1,4.888889E-1,3E0,3E0,4E-1,3.3333334E-1,4.4444445E-1,4.6666667E-1,-1.0888889E0,-7.111111E-1,-4E-1,-1.7755556E-1,-1.0295556E0,-2.093196E-2,-4.4444445E-1,-1.7777778E-1,3E0,-7.1088886E-1,3E0,-8.888889E-2,-1.0888889E0,3E0,3E0,-8.888889E-2,3E0,-6.2222224E-1,3E0,-8.888889E-2,-1.0888889E0,3E0,3E0,3E0,1E0,1E0,1E0,3E0,3E0,1E0,-5.3333336E-1,-2.2222223E-2,2.9533333E-1,5.3333336E-1,2.9533333E-1,8.666667E-1,1E0,3.1111112E-1,7.111111E-1,1.0888889E0,1.9266666E-1,6.888889E-1,1.5822223E-1,4E0,1.9266666E-1,6E-1,1.9266666E-1,7.777778E-1,2.48E-1,8.2222223E-1,1.9266666E-1,8E-1,2.7133334E-1,2.2222222E-1,8.666667E-1,8.2222223E-1,1.9266666E-1,7.5555557E-1,3.0037694E-2,8E-1,1.4177778E-1,6.2222224E-1,1.9266666E-1,7.3333335E-1,-1.8242039E-2,-8.666667E-1,-1.4705055E-2,-1.3611805E-2,-4.4022223E-1,-1.0979711E-2,-1.7777778E-1,3E0,-2.35685E-2,-2.2411132E-2,-1.9362064E-2,-1.8065982E-2,-1.6750328E-2,-2.2222223E-2,-9.5555556E-1,-1.2211027E-2,3E0,3E0,-4E-1,-1.1328953E-2,3E0,3E0,-1.1831101E-2,-1E0,-6.2222224E-1,2E0,1E0,-1.313619E-2,3E0,-1.5190013E-3,-9.111111E-1,7E1,3E0,3E0,-3.1111112E-1,-1.4479831E-2,-1.7777778E-1,3E0,3E0,-9.60153E-3,-6.22E-1,-1.3037286E-2,-3.3333334E-1,-1.4707847E-2,-8.888889E-2,0E0,-9.5555556E-1,6.4864904E-3,1E0,-8.4444445E-1,1.835986E-2,1E0,2.0588785E-2,2.5861258E-2,-1E0,-1.2110496E-2,6.212956E-3,1E0,1E0,1E0,-1.7755556E-1,1.4385549E-2,1.4177778E-1,3.3333334E-1,4.888889E-1,1E0,1.9266666E-1,4.888889E-1,7.5555557E-1,1.0888889E0,8.888889E-2,1E0,3.2831263E-3,4.9534435E-3,5.777778E-1,1E0,9.777778E-1,-1.3487415E-2,2E0,3.7777779E-1,1E0,9.3333334E-1,1.6163763E-2,1.828513E-2,6.4444447E-1,2.7719803E-2,8.888889E-2,2.9533333E-1,6.2214835E-3,9.111111E-1,1E0,4E0,1.4547577E-2,1.7027965E-2,1.4177778E-1,3.3333334E-1,5.777778E-1,1E0,1.58267E-2,1.8029366E-2,2.0804444E-2,2.3610773E-2,1.4177778E-1,3.5555556E-1,8.524806E-3,1.0471706E-2,6E-1,1.0888889E0,1.375972E-2,1.5806362E-2,2.2411948E-2,2.4741475E-2,5.777778E-1,3.0584607E-2,3.4013927E-2,3.6991954E-2,1.5113777E-2,1.7351668E-2,1.9592302E-2,2.1575311E-2,2.296018E-2,2.605132E-2,2.780711E-2,3.0660506E-2,-1.6842121E-2,-8.4444445E-1,-1.2481016E-2,-1.1812337E-2,-2.2222222E-1,-8.945949E-3,-4.4444446E-2,0E0,-1.5794897E-2,-1.4556502E-2,-1.0666667E0,-2.2114823E-3,-8.0733335E-1,-1.2942109E-2,-6.2222224E-1,-1.1803344E-2,-4.882222E-1,-3.9977777E-1,-1.7777778E-1,-1.3643826E-2,0E0,1.4080683E-2,-9.406233E-3,3E0,-7.777778E-1,-5.1111114E-1,1E0,-1.312121E-2,-4.153506E-3,4E0,-1.7777778E-1,-1.3721501E-2,-1.1111112E0,-8.4444445E-1,-1.47534385E-2,-1.0444444E0,-7.777778E-1,-1.2436235E-2,1E0,-1.1845654E-2,1E0,3.6375618E-3,1E0,7E1,0E0,1.3027085E-2,1E0,7E1,-7.777778E-1,1E0,-4.6894E-3,-3.8347447E-3,-1.7777778E-1,-1.5568502E-3,-1.4494488E-2,-1.0535693E-3,7E1,1.0583178E-2,-8.0733335E-1,1E0,6.8977736E-3,1E0,1E0,7.3984917E-3,1.2987471E-3,1E0,1E0,3E0,1E0,7.5199446E-3,9.423466E-3,1E0,-3.108889E-1,8.476087E-3,8.888889E-2,1E0,-3.507733E-3,-2.8793719E-3,1E0,1E0,8.4444445E-1,1E0,-1.3043659E-2,-1.1462501E-2,-9.734776E-3,-8.442744E-3,1E0,1E0,1.0222223E0,4.5E1,1E0,1.754535E-3,-1.3572538E-2,-2.1752547E-3,6.4604175E-3,4.5E1,8.666667E-1,1.1934206E-2,4.1822293E-3,5.6302403E-3,1E0,9.414458E-3,1E0,1.1107431E-2,4.888889E-1,1E0,1.4657055E-2,1.5842013E-2,2.052324E-2,2.3092797E-2,6.6863577E-4,1.5486177E-3,2.2222222E-1,4.291966E-3,4E0,4.5E1,7.200374E-3,9.238864E-3,1.1435641E-2,5.352227E-4,8.587177E-3,1E0,1.0259257E-2,1.0899248E-2,1.2689338E-2,6.888889E-1,1.5828012E-2,1.7272068E-2,7E1,1.9266666E-1,3.4781124E-3,4.6666667E-1,5.7071806E-3,7.111111E-1,1.0222223E0,7E1,2.6342073E-2,2.815831E-2,-1.5571708E-2,-1.6727548E-2,-9.581133E-3,-1.0882545E-2,-6.666667E-2,-7.7486956E-3,-1.710357E-2,4E0,-4.3903277E-3,4.5E1,-1.6149922E-3,1E0,2.3753793E-4,9.815841E-4,-5.1111114E-1,-4.4444445E-1,3.5E1,3.5E1,4.493382E-3,5.13851E-3,-2.2222223E-2,7.6530413E-3,-8.217661E-3,-1.2394288E-2,-7.41952E-3,-6.4881677E-3,-5.9934957E-3,-4.882222E-1,-1.2232842E-2,3.614675E-3,-4.6347696E-3,-6.17622E-3,-2.9252975E-3,-1.3333334E-1,-6.126449E-3,1E0,-1.998398E-3,-2.8175993E-3,5.8017923E-3,-1.1972721E-2,1E0,7E1,7E1,1E0,7E1,-3.62E-1,4.7917087E-3,1E0,-1.1111111E-1,1E0,-2.2222223E-2,7.606296E-3,-1.2249051E-2,-1.1111112E0,6.8601184E-3,-1.0478865E-2,-7.962304E-3,-7.111111E-1,-5.672616E-3,-6.306897E-3,-2.6644444E-1,2E0,8.6660795E-3,6.586155E-3,7.3076854E-3,1E0,1.5256617E-2,4E0,3E0,8.369703E-3,1.6009245E-2,8.651307E-3,3.8689284E-3,1E0,6.9300397E-3,4.9997903E-3,4.851575E-3,-8.4444445E-1,7.42369E-3,1E0,-5.1111114E-1,1E0,1.0179024E-2,1.1161166E-2,-6.501676E-3,-5.5606943E-3,-4.382482E-3,-4.7192345E-3,-2.4988162E-3,-1.7251604E-3,-1.7585937E-3,1E0,1E0,1E0,1E0,9.777778E-1,-6.5845717E-3,1E0,-4.4228076E-3,7.777778E-1,9.777778E-1,-2.1833377E-3,-1.4646887E-2,1E0,1.3208761E-3,-1.6814549E-4,8.24768E-3,7.0572803E-3,9.343395E-3,1.0520296E-2,8.34097E-3,1E0,1E0,1.0634307E-2,4E0,1.2764508E-2,1E0,6E-1,4.0892456E-3,2.8246725E-3,7.550941E-3,6.754256E-3,7.830564E-3,9.25924E-3,9.595995E-3,8.628931E-3,1.3894691E-2,1.4560433E-2,1E0,1.0229547E-3,1.6775178E-3,2.2222222E-1,4.1775443E-3,5.2127526E-3,7.1144314E-3,7.705636E-3,8.9010345E-3,1.0487818E-2,1.4120654E-3,4E0,-8.280437E-3,-1.0237873E-2,-1.7212145E-3,-9.796792E-3,-3.6746135E-3,-3.0535667E-3,-3.4788833E-4,-1.1371187E-3,2.056664E-3,2.9135642E-3,4.2347543E-4,1.5766559E-3,4.593007E-3,2.9049523E-3,2.1427197E-3,2.9305262E-3,6.7418106E-3,-1.0464399E-2,-4.8843487E-3,-5.845652E-3,-1.6712553E-3,-2.9661325E-3,-3.490205E-3,-4.0334505E-3,-1.1278748E-3,-2.1384065E-3,-1.1608545E-3,-3.6056997E-4,6.922214E-4,1.5348942E-3,-2.2283295E-4,5.138089E-4,2.1964447E-3,3.00954E-3,1.962231E-3,1.1064021E-3,4.357968E-3,3.4505175E-3,4.983512E-3,3.8621682E-3,5.86404E-3,5.1196455E-3,6.607702E-3,2.1829577E-3,-1.2069938E-2,-9.433562E-3,-6.6172173E-3,-7.266398E-3,-2.8919377E-3,-3.5881202E-3,-3.1066956E-3,-2.296837E-3,1.3152003E-2,5.7849204E-3,1.0365592E-2,1.5096231E-2,9.361902E-3,1.2514037E-2,1.3880322E-3,3.1340527E-3,3.0091556E-4,3.2192518E-3,6.1381496E-3,2.7047615E-3,1.1314255E-3,6.6736676E-3,9.535272E-3,7.2816475E-3,-7.344308E-4,-1.6762613E-3,-5.1347096E-4,2.1249565E-4,-2.1317087E-3,-7.309589E-4,-5.51949E-4,6.652979E-4,8.4546796E-4,2.3612503E-3,-6.323732E-3,-4.5978585E-3,-4.209823E-3,-5.322131E-3,-3.6884365E-3,-3.1692234E-3,-9.362883E-3,-1.9055544E-3,8.511241E-3,9.42141E-3,8.97483E-3,1.019835E-2,1.1585026E-2,8.48908E-3,1.163485E-2,1.3765997E-2,1.3699443E-2,1.4963947E-2,6.6310435E-4,-2.3122689E-4,3.2669813E-3,2.3116125E-3,7.683175E-3,7.879966E-4],"split_indices":[1,2,2,14,14,14,14,15,15,15,15,7,15,15,15,1,1,1,1,1,1,1,1,15,1,7,7,7,1,7,7,1,1,1,1,1,1,1,1,1,1,1,1,1,1,1,1,1,1,1,15,1,1,1,1,1,1,7,7,1,1,1,1,1,1,1,1,1,0,1,1,7,1,7,1,1,7,7,1,7,1,7,1,1,7,7,7,4,4,4,7,7,3,1,1,1,1,1,1,15,1,1,1,1,1,1,7,1,1,1,1,1,1,1,1,1,1,1,1,1,1,0,1,1,1,1,1,0,1,0,0,1,0,1,7,0,0,0,0,0,1,1,0,7,7,1,0,7,7,0,1,1,0,20,0,7,0,1,2,7,7,1,0,1,7,7,0,1,0,1,0,1,1,1,0,7,1,0,3,0,0,1,0,0,5,7,4,1,0,1,1,1,16,1,1,1,1,1,4,0,0,1,1,1,0,7,1,16,1,0,0,1,0,1,1,0,1,5,7,0,0,1,1,1,1,0,0,0,0,1,1,0,0,1,1,0,0,0,0,1,0,0,0,0,0,0,0,0,0,0,0,0,1,0,0,1,0,1,1,0,0,1,0,1,0,1,0,1,1,1,0,1,0,0,7,1,1,18,0,0,0,1,0,1,1,0,1,1,0,16,0,16,0,16,2,1,0,6,2,1,12,0,0,1,0,0,0,2,0,1,5,0,5,5,0,0,5,4,0,5,0,0,7,1,0,1,12,0,0,19,19,1,5,0,0,0,0,5,7,1,2,20,0,0,0,0,2,1,0,0,0,16,0,5,0,1,5,0,0,0,0,0,0,1,0,0,2,0,0,0,0,0,10,0,0,0,1,0,0,2,1,0,1,0,1,1,2,0,0,0,0,0,0,1,0,0,7,0,2,0,7,0,0,1,1,2,2,0,0,1,0,0,0,0,0,0,1,0,0,0,0,0,1,0,16,0,0,0,0,16,2,2,5,2,1,0,19,1,16,1,0,0,1,0,0,0,1,0,0,1,0,0,0,0,5,0,0,0,0,0,0,0,7,0,0,0,1,0,3,1,5,0,0,0,0,0,0,0,0,0,12,4,5,4,1,0,4,0,1,1,0,0,10,0,0,0,0,0,0,0,4,4,0,0,0,4,1,0,0,0,0,0,0,0,0,0,0,20,0,0,1,0,0,0,0,0,0,0,0,0,0,0,0,0,0,0,0,0,0,0,0,0,0,0,0,0,0,0,0,0,0,0,0,0,0,0,0,0,0,0,0,0,0,0,0,0,0,0,0,0,0,0,0,0,0,0,0,0,0,0,0,0,0,0,0,0,0,0,0,0,0,0,0,0,0,0,0,0,0,0,0,0,0,0,0,0,0,0,0,0,0,0,0,0,0,0,0,0,0,0,0,0,0,0,0,0,0,0,0,0,0],"split_type":[0,0,0,0,0,0,0,0,0,0,0,0,0,0,0,0,0,0,0,0,0,0,0,0,0,0,0,0,0,0,0,0,0,0,0,0,0,0,0,0,0,0,0,0,0,0,0,0,0,0,0,0,0,0,0,0,0,0,0,0,0,0,0,0,0,0,0,0,0,0,0,0,0,0,0,0,0,0,0,0,0,0,0,0,0,0,0,0,0,0,0,0,0,0,0,0,0,0,0,0,0,0,0,0,0,0,0,0,0,0,0,0,0,0,0,0,0,0,0,0,0,0,0,0,0,0,0,0,0,0,0,0,0,0,0,0,0,0,0,0,0,0,0,0,0,0,0,0,0,0,0,0,0,0,0,0,0,0,0,0,0,0,0,0,0,0,0,0,0,0,0,0,0,0,0,0,0,0,0,0,0,0,0,0,0,0,0,0,0,0,0,0,0,0,0,0,0,0,0,0,0,0,0,0,0,0,0,0,0,0,0,0,0,0,0,0,0,0,0,0,0,0,0,0,0,0,0,0,0,0,0,0,0,0,0,0,0,0,0,0,0,0,0,0,0,0,0,0,0,0,0,0,0,0,0,0,0,0,0,0,0,0,0,0,0,0,0,0,0,0,0,0,0,0,0,0,0,0,0,0,0,0,0,0,0,0,0,0,0,0,0,0,0,0,0,0,0,0,0,0,0,0,0,0,0,0,0,0,0,0,0,0,0,0,0,0,0,0,0,0,0,0,0,0,0,0,0,0,0,0,0,0,0,0,0,0,0,0,0,0,0,0,0,0,0,0,0,0,0,0,0,0,0,0,0,0,0,0,0,0,0,0,0,0,0,0,0,0,0,0,0,0,0,0,0,0,0,0,0,0,0,0,0,0,0,0,0,0,0,0,0,0,0,0,0,0,0,0,0,0,0,0,0,0,0,0,0,0,0,0,0,0,0,0,0,0,0,0,0,0,0,0,0,0,0,0,0,0,0,0,0,0,0,0,0,0,0,0,0,0,0,0,0,0,0,0,0,0,0,0,0,0,0,0,0,0,0,0,0,0,0,0,0,0,0,0,0,0,0,0,0,0,0,0,0,0,0,0,0,0,0,0,0,0,0,0,0,0,0,0,0,0,0,0,0,0,0,0,0,0,0,0,0,0,0,0,0,0,0,0,0,0,0,0,0,0,0,0,0,0,0,0,0,0,0,0,0,0,0,0,0,0,0,0,0,0,0,0,0,0,0,0,0,0,0,0,0,0,0,0,0,0,0,0,0,0,0,0,0,0,0,0,0,0,0,0,0,0,0,0,0,0,0,0,0,0,0,0,0,0,0,0,0,0,0,0,0,0,0,0,0,0,0,0,0,0,0,0,0,0,0,0,0,0,0,0,0,0,0,0,0,0,0,0,0,0,0,0,0,0,0,0,0,0,0,0,0,0,0,0,0],"sum_hessian":[2.78299E5,1.40149E5,1.3815E5,9.144E4,4.8709E4,8.5239E4,5.2911E4,5.944E4,3.2E4,4.0668E4,8.041E3,5.8435E4,2.6804E4,3.5636E4,1.7275E4,4.0851E4,1.8589E4,2.1373E4,1.0627E4,2.6551E4,1.4117E4,3.091E3,4.95E3,5.2274E4,6.161E3,1.6237E4,1.0567E4,2.1312E4,1.4324E4,1.0213E4,7.062E3,1.6604E4,2.4247E4,7.392E3,1.1197E4,1.2036E4,9.337E3,6.863E3,3.764E3,1.417E4,1.2381E4,8.546E3,5.571E3,1.154E3,1.937E3,2.009E3,2.941E3,3.6898E4,1.5376E4,2.343E3,3.818E3,1.3423E4,2.814E3,9.097E3,1.47E3,1.773E4,3.582E3,7.096E3,7.228E3,7.922E3,2.291E3,6.02E3,1.042E3,9.282E3,7.322E3,1.2047E4,1.22E4,4.69E3,2.702E3,6.243E3,4.954E3,5.022E3,7.014E3,3.889E3,5.448E3,2.129E3,4.734E3,1.059E3,2.705E3,7.116E3,7.054E3,5.573E3,6.808E3,2.482E3,6.064E3,1.653E3,3.918E3,4.28E2,7.26E2,2.01E2,1.736E3,1.125E3,8.84E2,1.416E3,1.525E3,1.8408E4,1.849E4,8.064E3,7.312E3,9.98E2,1.345E3,3.252E3,5.66E2,7.658E3,5.765E3,1.231E3,1.583E3,5.092E3,4.005E3,6.41E2,8.29E2,8.924E3,8.806E3,1.741E3,1.841E3,6.433E3,6.63E2,6.244E3,9.84E2,3.744E3,4.178E3,6.67E2,1.624E3,3.126E3,2.894E3,4.57E2,5.85E2,9.92E2,8.29E3,3.584E3,3.738E3,8.362E3,3.685E3,6.049E3,6.151E3,1.553E3,3.137E3,3.038E3,3.205E3,1.582E3,3.372E3,4.965E3,5.7E1,3.857E3,3.157E3,3.881E3,8E0,4.145E3,1.303E3,2.62E2,1.867E3,4.672E3,6.2E1,1.051E3,8E0,2.06E3,6.45E2,7.056E3,6E1,4.778E3,2.276E3,5.565E3,8E0,4.676E3,2.132E3,3.45E2,2.137E3,5.99E3,7.4E1,1.641E3,1.2E1,3.893E3,2.5E1,2.39E2,1.89E2,4.85E2,2.41E2,1.61E2,4E1,1.716E3,2E1,1.119E3,6E0,4.65E2,4.19E2,8.19E2,5.97E2,1.393E3,1.32E2,1.2255E4,6.153E3,3.768E3,1.4722E4,5E3,3.064E3,3.398E3,3.914E3,9.9E2,8E0,3.96E2,9.49E2,1.167E3,2.085E3,5.63E2,3E0,3.778E3,3.88E3,3.5E3,2.265E3,5.67E2,6.64E2,1.488E3,9.5E1,1.99E3,3.102E3,1.165E3,2.84E3,2.56E2,3.85E2,3.41E2,4.88E2,5.233E3,3.691E3,6.69E3,2.116E3,8.13E2,9.28E2,9.82E2,8.59E2,3.695E3,2.738E3,3.08E2,3.55E2,4.529E3,1.715E3,4.71E2,5.13E2,2.16E3,1.584E3,3.065E3,1.113E3,1.014E3,6.1E2,1.08E3,2.046E3,1.281E3,1.613E3,1.91E2,2.66E2,2.47E2,3.38E2,6.805E3,1.485E3,7.323E3,1.039E3,4.806E3,1.243E3,6.029E3,1.22E2,2.667E3,7.05E2,3.591E3,1.374E3,3.84E3,1.7E1,3.144E3,1.3E1,2.081E3,1.8E3,4.142E3,3E0,1.257E3,4.6E1,8.01E2,1.066E3,2.511E3,2.161E3,1.5E1,4.7E1,7.02E2,3.49E2,2.046E3,1.4E1,5.296E3,1.76E3,3.9E1,2.1E1,4.767E3,1.1E1,2.27E3,6E0,4.14E3,1.425E3,2.057E3,2.619E3,2.115E3,1.7E1,3.36E2,9E0,4.01E3,1.98E3,1.248E3,3.93E2,2.897E3,9.96E2,1.9E1,6E0,2.02E2,3.7E1,7.2E1,4.13E2,6.2E1,1.79E2,3E1,1E1,6.02E2,5.17E2,2.13E2,2.06E2,1.99E2,6.2E2,3.36E2,2.61E2,1.169E3,2.24E2,5.916E3,6.339E3,1.474E3,4.679E3,1.615E3,2.153E3,6.369E3,8.353E3,3.022E3,1.978E3,2.381E3,6.83E2,1.401E3,1.997E3,3.883E3,3.1E1,3.07E2,6.83E2,5E0,3E0,5.29E2,6.38E2,1.6E3,4.85E2,3.52E2,2.11E2,2.516E3,1.262E3,2.613E3,1.267E3,1.373E3,2.127E3,1.84E3,4.25E2,5.05E2,9.83E2,5.89E2,1.401E3,9.03E2,2.199E3,2.327E3,5.13E2,1.28E2,1.28E2,3.82E2,3E0,3.144E3,2.089E3,1.354E3,2.337E3,2.395E3,4.295E3,1.486E3,6.3E2,1.617E3,2.078E3,7.73E2,1.965E3,1.348E3,3.181E3,1.674E3,4.1E1,1.738E3,1.327E3,6.96E2,7.89E2,3.781E3,1.025E3,3.286E3,2.743E3,9E0,1.13E2,9.92E2,2.599E3,1.409E3,2.431E3,1.35E3,1.794E3,1.313E3,7.68E2,4.82E2,1.318E3,2.715E3,1.427E3,8.74E2,3.83E2,1.049E3,1.7E1,9.29E2,1.582E3,1.122E3,1.039E3,1.1E1,4E0,2.59E2,9E1,1.267E3,7.79E2,1.09E2,5.187E3,1.473E3,2.87E2,3E0,1.8E1,1.425E3,3.342E3,1.14E3,1.13E3,2.17E3,1.97E3,1.081E3,9.76E2,1.237E3,1.382E3,1.641E3,4.74E2,1.68E2,1.68E2,3E0,6E0,1.694E3,2.316E3,1.026E3,9.54E2,1.754E3,1.143E3,1.01E2,1.01E2,2.8E1,4.4E1,3.02E2,1.11E2,1.16E2,6.3E1,2.2E1,8E0,2.83E2,2.34E2,1.01E2,1.12E2,1.04E2,1.02E2,1.12E2,8.7E1,6E1,2.01E2,4.84E2,6.85E2,2.69E3,3.226E3,3.197E3,3.142E3,1.03E3,5.85E2,1.417E3,7.36E2,4.458E3,1.911E3,3.765E3,4.588E3,8.91E2,5.1E2,5.87E2,1.41E3,2.82E3,1.063E3,1.2E1,1.9E1,2.07E2,1E2,4.31E2,2.07E2,8.17E2,7.83E2,1.074E3,1.442E3,1.074E3,1.539E3,1.97E2,1.176E3,9.55E2,1.172E3,1.37E2,7.66E2,1.827E3,5E2,2.96E2,2.17E2,1.422E3,6.67E2,2.022E3,2.273E3,8.31E2,7.86E2,7.46E2,1.332E3,1.712E3,2.53E2,1.431E3,1.75E3,1.217E3,4.57E2,1.5E1,2.6E1,2.995E3,2.91E2,1.1E2,3E0,1.659E3,9.4E2,6.01E2,1.83E3,4.86E2,8.27E2,1.43E2,6.25E2,1.27E2,3.55E2,3.94E2,9.24E2,8.63E2,1.1E1,4.81E2,5.58E2,3.85E2,3.94E2,2.605E3,2.582E3,7.02E2,7.23E2,1.656E3,1.686E3,5.44E2,5.96E2,5.96E2,5.34E2,1.03E3,1.14E3,1.425E3,5.45E2,6.24E2,3.52E2,1.017E3,2.2E2,7.57E2,6.25E2,1.592E3,4.9E1,6.2E1,1.06E2,8.94E2,1.422E3,1.153E3,6.01E2,2.87E2,8.56E2,3.5E1,9E0,6.6E1,4.5E1,5E1,6.6E1,6.3E1,1.71E2,2.2E1,8E1,4.5E1,4.2E1,1E1,5E1,1.17E2,8.4E1,3.67E2,3.69E2,2.129E3,2.329E3,6.76E2,1.235E3,1.462E3,2.303E3,3.613E3,9.75E2,3.38E2,1.72E2,1.97E2,1.213E3,1.847E3,9.73E2,1.4E1,5E0,7.21E2,7.21E2,4.37E2,6.37E2,1.62E2,3.5E1,3.69E2,5.86E2,7.49E2,4.23E2,5.65E2,2.66E2,3.2E2,1.012E3,2.1E1,5E0],"tree_param":{"num_deleted":"0","num_feature":"21","num_nodes":"631","size_leaf_vector":"1"}},{"base_weights":[-7.2980583E-6,-7.2083406E-2,7.348056E-2,-1.05616696E-1,1.2162762E-2,2.416123E-2,1.7883961E-1,-8.2407326E-2,-1.5314744E-1,-1.0123091E-2,6.553555E-2,9.46049E-3,1.3122933E-1,1.5973626E-1,2.6998574E-1,-1.07355244E-1,-4.3365173E-2,-1.7248647E-1,-1.24662675E-1,5.440206E-3,-3.340115E-2,9.3416445E-2,1.7334953E-2,-1.5404497E-2,3.7064165E-2,1.0599665E-1,1.5291916E-1,1.9031428E-1,1.1649794E-1,2.9704893E-1,2.158383E-1,-1.2542564E-1,-9.528692E-2,-6.747081E-2,-3.63959E-2,-1.923855E-1,-1.584791E-1,-1.3665551E-1,-1.2135543E-1,-2.1185651E-2,2.4609188E-2,-5.91679E-2,-2.3119614E-2,8.79382E-2,1.4783706E-1,2.0005906E-2,-4.0966156E-3,3.616832E-3,-5.6489505E-2,1.5432638E-2,6.910608E-2,8.8722415E-2,1.16695605E-1,1.6136643E-1,1.2587683E-1,1.6563687E-1,2.2113574E-1,9.1576725E-2,1.38672E-1,2.6885992E-1,3.4575707E-1,1.7040783E-1,2.340017E-1,-1.23907916E-1,-1.1930334E-2,-9.9483E-2,-9.102639E-2,-6.0116928E-2,-7.352482E-2,-4.442928E-2,-3.0916866E-2,-1.8863434E-1,-1.8099999E-2,-1.3938836E-2,-1.56156E-1,-1.3365239E-1,-1.1797201E-2,-1.2590604E-1,-1.1725332E-1,-3.1137498E-2,-8.15058E-3,1.4385765E-2,4.143824E-2,-1.1069623E-1,-5.683081E-2,-2.1929896E-2,-1.4508964E-1,9.6054934E-2,6.310449E-2,1.125615E-2,1.7602421E-2,1.8354056E-2,4.4097982E-2,-1.2188504E-2,6.143814E-4,-1.0445455E-2,1.5669744E-2,-7.06688E-2,-3.1234467E-2,3.7275942E-4,2.7826503E-2,4.331523E-2,7.232823E-2,9.252987E-2,8.075278E-2,1.1705466E-1,-1.1265878E-2,1.5163474E-1,1.8443343E-1,1.2388543E-2,9.690709E-3,1.5196767E-1,1.7489228E-1,2.117681E-1,2.5486645E-1,8.4922984E-2,1.0511865E-1,1.2140827E-1,1.4489439E-1,2.4382646E-1,2.8704634E-1,2.5687508E-2,3.1703334E-2,1.5381211E-2,1.3385505E-2,2.2640166E-1,2.7737936E-1,-1.2652236E-1,-7.840646E-3,-9.6822485E-2,-1.117329E-1,-7.8560725E-2,-9.559652E-2,-6.4451195E-2,-4.9754757E-2,-8.633686E-2,-6.084059E-2,-3.646747E-2,-5.5383146E-2,-2.7256526E-2,-4.569104E-2,-2.1916218E-1,-1.8390805E-1,-1.5358278E-1,-1.7133081E-1,-1.1454536E-2,-1.3087365E-1,-1.2179308E-1,-1.1737205E-2,-8.659904E-3,-1.1928446E-1,-2.9974554E-2,-1.0451877E-2,-7.4477135E-3,-1.0870514E-2,1.51663665E-2,-1.2194459E-2,4.983855E-2,3.130747E-2,-9.938242E-3,-7.142924E-3,-5.557488E-2,-1.0846342E-2,-2.6145268E-2,-1.1055321E-2,-1.3030151E-2,-1.1175035E-1,1.0821671E-1,8.100587E-2,6.527251E-2,-1.5230854E-1,2.2590768E-2,1.6089006E-4,5.9399344E-2,3.0774958E-3,-1.7481103E-3,1.6918324E-2,-1.9721605E-2,-2.1090864E-3,5.4801847E-3,3.611293E-2,-8.995319E-2,-6.314465E-2,-2.8859822E-2,-4.8137594E-2,1.615513E-2,-2.0248562E-2,-3.762844E-3,3.1296354E-2,3.7563793E-2,4.952124E-2,6.1813843E-2,8.008742E-2,6.825744E-3,9.947123E-2,9.087383E-2,7.212237E-2,1.0580757E-1,1.2287727E-1,1.4183961E-1,1.2901334E-2,1.7961724E-1,1.97988E-2,1.4299767E-1,1.3083747E-2,1.6388252E-1,1.8549074E-1,1.9997503E-1,2.1840711E-1,2.807031E-1,2.474384E-1,8.177815E-2,9.271811E-2,9.9066705E-2,1.11490235E-1,9.69953E-3,1.0590886E-2,1.4429702E-1,1.7749277E-1,1.8555583E-2,2.0371256E-2,2.2578062E-2,2.4151858E-2,1.7273264E-2,2.3775224E-1,2.1131057E-2,2.5157087E-2,-1.4123018E-1,-1.2444537E-1,-1.0659522E-1,-9.470631E-2,-1.18541E-1,-1.0454607E-1,-8.653935E-2,-7.039764E-2,-1.0199577E-1,-9.111688E-2,-6.8178E-2,-4.620989E-3,-5.8104284E-2,-4.0755507E-2,-8.586577E-2,-1.4756057E-2,-6.0517263E-2,-1.4376995E-2,-3.7098583E-2,2.9182422E-3,-5.518388E-2,-1.4861704E-2,-3.3356715E-2,-1.6492201E-2,-8.416399E-2,-3.4974262E-2,-1.4530255E-2,-2.2922288E-1,-1.8624824E-1,-1.3101654E-2,-1.5006766E-1,-1.5703824E-1,-1.5105069E-2,-1.2685779E-2,-1.2160801E-1,-1.0956781E-2,-1.2501515E-1,-1.1501064E-1,-1.2291902E-1,-1.1119776E-1,-4.2678635E-3,-2.9147195E-2,-1.5612666E-3,-1.4346222E-2,2.3092723E-2,6.6107837E-3,5.7263345E-2,4.0978998E-2,3.169801E-2,-8.648888E-3,-5.9953343E-2,-4.2090528E-2,-2.0819468E-2,-3.2055214E-2,-8.334297E-3,-2.5832804E-2,-1.1018152E-2,-5.496041E-2,1.1588864E-1,9.910308E-2,9.124935E-2,6.872636E-2,4.3273387E-3,6.1219553E-3,-7.96E-2,-1.584607E-2,4.132714E-4,2.4964146E-2,8.97922E-3,-1.048441E-2,5.8672945E-3,2.4195695E-2,5.867706E-3,3.059061E-2,-3.2713816E-2,-8.174793E-3,-5.9884056E-3,1.4148225E-2,-7.006989E-3,1.03099225E-2,3.153083E-2,4.049124E-2,-8.663587E-2,-8.5759275E-3,-7.302942E-2,-6.0156528E-2,-3.244747E-2,-2.0021971E-2,-3.7850436E-2,-4.861136E-3,-9.332736E-3,2.3210779E-2,-3.9959047E-2,-5.959372E-3,1.5819702E-2,-2.7012747E-2,4.5796502E-2,2.3024315E-2,4.3875363E-2,2.421671E-2,3.6521234E-2,5.401158E-2,7.6954134E-2,3.8176507E-2,7.188716E-2,8.689162E-2,1.07760206E-1,9.1778874E-2,1.0164394E-1,6.3771685E-3,5.2812523E-3,8.735182E-2,1.09055944E-1,9.6714586E-2,1.4073701E-1,1.2069763E-1,1.3455482E-1,1.4837435E-1,1.391172E-2,1.5353207E-2,1.212411E-2,1.3881649E-1,1.6781542E-1,1.5815884E-1,1.7923051E-1,1.9149357E-1,1.5984897E-2,1.7577019E-2,1.7538523E-2,1.865932E-2,2.7265728E-1,2.659406E-2,1.7818268E-2,2.508565E-1,8.427484E-2,7.680051E-2,1.22830816E-1,8.5704155E-2,7.7336566E-3,8.610261E-3,1.1407844E-1,7.6585202E-3,1.5478653E-1,1.4249246E-1,2.181228E-1,1.3809028E-1,2.4314765E-2,1.9104652E-2,-1.273133E-2,-1.3709404E-1,-1.1474259E-1,-1.3035102E-1,-1.06201716E-1,-1.4783514E-2,-9.085382E-2,-1.0013362E-1,-9.95883E-3,-8.9513E-3,-8.366807E-3,-1.2809802E-2,-9.2152216E-2,-8.0628924E-2,-6.445549E-2,-6.2006074E-3,-9.6609086E-2,-1.0710545E-1,-7.936069E-2,-9.524973E-2,-7.601958E-2,-5.9867024E-2,-5.6752833E-3,-4.4771023E-2,-5.061434E-2,-3.2211155E-2,-1.0170003E-2,-6.9116815E-3,-6.490142E-2,-4.5669465E-3,-3.6803715E-2,-1.531749E-2,-5.7500526E-2,-4.6987742E-2,-2.8934374E-2,-4.8112642E-2,-6.145074E-3,-2.8857283E-2,-6.1318777E-3,-7.6802964E-3,-3.8257334E-2,1.2065108E-2,-1.8723484E-2,-7.918289E-2,-1.8411146E-1,-1.6771236E-2,-1.5508719E-1,-1.4486453E-1,-1.5432562E-1,-1.6299874E-1,-1.1353256E-1,-1.3052405E-1,-1.0121004E-2,-1.6037732E-2,-1.2018291E-1,-1.0931116E-1,-1.2563631E-1,-9.239054E-3,-1.09018095E-1,-1.2369649E-1,-2.6341872E-2,-3.242581E-2,7.83099E-3,-1.2802381E-2,-6.987004E-3,-2.251264E-2,3.156443E-2,1.2362341E-2,1.5709714E-4,1.1646757E-2,3.801306E-2,6.7865245E-2,3.2244563E-2,4.960675E-2,3.7153173E-2,2.5925554E-2,-5.4079737E-3,-4.5616957E-3,-3.2150116E-2,-6.866843E-2,-1.692497E-2,-2.4986487E-2,-8.981661E-3,-3.3551633E-2,-1.1189534E-2,2.7053622E-3,-1.528398E-2,-3.691538E-2,7.979826E-3,-1.0932177E-2,1.0324805E-1,1.19735375E-1,1.0489375E-1,8.052641E-2,9.180759E-2,-8.524744E-3,7.798181E-2,5.7901196E-2,-5.73222E-4,-1.2204165E-2,1.7169561E-2,2.7266743E-2,1.8423148E-3,2.9552974E-2,-7.297362E-3,-7.2034267E-3,-2.254709E-2,4.147224E-3,1.2335695E-2,-4.546043E-2,1.12378625E-2,4.9124617E-2,-2.3414271E-2,-4.3342218E-2,-1.3822721E-2,4.7897315E-3,-1.2632134E-2,4.2901863E-4,8.760467E-4,2.0359173E-2,6.296468E-4,-9.664547E-3,3.635919E-3,1.2187145E-2,2.3595914E-3,2.934281E-3,3.2594085E-2,4.4805977E-2,-8.2258984E-2,-9.181553E-2,-6.512946E-2,-7.85765E-2,-5.3919576E-2,-6.457441E-2,-2.7288776E-2,-5.5268418E-2,-1.32386405E-2,-2.9349674E-2,-1.4588158E-3,-4.5207497E-2,-1.8659075E-4,-1.74284E-2,1.37524E-2,3.127509E-2,-4.140882E-2,2.932419E-2,9.225946E-4,-3.1235263E-2,6.0452675E-3,2.1134312E-3,-2.8963408E-3,-1.9419823E-2,3.8938683E-2,5.2977018E-2,2.78614E-2,4.9668187E-3,2.7418314E-3,5.3292364E-2,3.4159742E-2,1.3192858E-2,2.365704E-3,4.2305733E-3,3.8606203E-3,6.459291E-2,5.2839625E-3,8.148721E-2,-2.0000031E-2,5.5494763E-2,7.8899994E-2,6.157881E-2,8.307751E-2,1.1287117E-1,9.643084E-2,1.1885827E-1,8.0627E-3,7.481219E-2,9.030251E-2,9.899994E-3,8.8162E-3,4.8851892E-3,1.0619911E-1,1.352496E-1,7.1726437E-3,1.1589239E-1,1.0065095E-2,1.2749561E-2,1.1218585E-1,1.0100016E-2,1.2690654E-1,1.4284022E-1,1.5543206E-1,1.3539922E-1,1.0717766E-2,1.1816057E-2,1.3237055E-2,1.4185194E-2,1.1650566E-2,1.3475521E-2,1.8407506E-1,1.6915353E-1,1.4863899E-2,1.5993305E-2,2.3386562E-2,2.0646492E-2,2.584705E-1,1.9161157E-2,8.988424E-2,8.156525E-2,8.216062E-2,6.5576665E-2,1.0640962E-2,8.448188E-3,9.105111E-2,7.679643E-2,1.1033197E-1,1.2788756E-1,1.1873013E-2,1.3304221E-2,1.3894057E-1,1.4894255E-1,1.9905148E-2,1.3293867E-2,1.5418953E-1,9.398081E-2,-1.0433354E-2,-1.17793055E-2,-9.051997E-3,-9.716584E-3,-1.0222858E-2,-1.0917683E-2,-8.005132E-3,-8.822548E-3,-7.350422E-3,-1.4076035E-2,-8.682119E-3,-7.2889407E-3,-6.654664E-3,-8.142041E-3,-6.1849677E-3,-7.2053317E-3,-4.4668345E-3,-5.4899314E-3,-7.4571893E-3,-8.230288E-3,-9.18666E-3,-8.420306E-3,-6.0236407E-3,-6.863463E-3,-8.204155E-3,-6.989259E-3,-5.456381E-3,-6.821392E-3,-5.4094843E-3,-4.1757813E-3,-4.5355875E-3,-2.5309338E-3,-5.4972973E-3,-2.7937854E-3,-3.8974255E-3,-1.2299871E-3,-4.750258E-3,-5.764925E-3,-2.7334243E-3,-3.2674996E-3,-4.370671E-3,-4.9833334E-3,-4.4336286E-3,-3.218129E-3,-2.3322126E-3,-1.4797804E-2,-3.5318178E-3,-4.615475E-3,1.5093547E-5,-1.0411562E-3,-2.570366E-3,-1.6843781E-3,-3.4543567E-3,-2.7183294E-3,2.2875809E-3,-1.7252511E-3,8.363562E-3,-1.5215449E-2,-1.4974605E-2,-1.1814228E-2,-1.2982976E-2,-1.2176673E-2,-1.1462943E-2,-1.2271538E-2,-1.2766529E-2,-1.1567835E-2,-1.397104E-2,-1.2440849E-2,-8.133789E-3,-1.0211203E-2,-9.248727E-3,-1.1903721E-2,-9.0865465E-3,-1.0420354E-2,-8.47116E-3,-1.0060131E-2,-9.756822E-3,-1.1040115E-2,-8.976671E-3,-5.540584E-3,-1.4367777E-2,-9.224396E-3,-2.360625E-3,-1.5539702E-3,-3.1306641E-3,-2.4548161E-3,-5.2396284E-4,1.3025497E-3,-1.3613065E-3,3.5264637E-4,-9.0310303E-4,6.207168E-4,-1.1695768E-3,-2.5344521E-3,2.1113027E-3,3.6657457E-3,8.73942E-4,2.8965184E-3,-3.2208906E-4,9.2793984E-4,1.3140839E-3,5.7031284E-4,2.4831684E-3,4.101758E-3,6.3210763E-3,4.4799424E-3,2.9304165E-3,1.3486964E-3,4.638777E-3,3.3078098E-3,2.3736604E-3,3.5407888E-3,6.4689195E-4,2.316621E-3,-3.5227016E-3,-1.7447891E-3,-4.5883246E-3,-6.6444194E-3,-1.6591548E-3,-4.713748E-4,-1.67302E-3,-2.5692992E-3,-1.7525784E-3,5.0354726E-4,-3.7326522E-3,-2.4442652E-3,-1.2565554E-3,-2.457561E-4,-3.3445397E-4,1.8081485E-3,-2.4386048E-3,-2.1302827E-4,-1.1884558E-3,-3.5291957E-3,7.3230444E-3,9.145617E-3,9.913216E-3,8.445067E-3,6.911006E-3,9.219576E-3,7.3591634E-3,5.4918732E-3,5.9650536E-3,8.019975E-3,4.3090167E-3,6.8232906E-3,4.025083E-3,6.1683217E-3,9.3670294E-4,2.7240843E-3,2.7190158E-3,1.7890681E-3,1.2524779E-3,-8.562486E-4,1.17209456E-4,6.750206E-3,-1.9394878E-5,-1.7094235E-3,-5.1651415E-3,2.7965773E-3,2.0946744E-4,2.856423E-3,-7.5051114E-3,-9.2608895E-4,-2.7771015E-4,4.49991E-3,-1.2082713E-4,5.3290827E-3,-1.5097919E-3,-3.3047558E-3,-3.780101E-3,-2.7430241E-3,-1.4881162E-3,-7.063666E-4,6.29284E-4,-3.243607E-4,-5.52969E-4,-1.4938137E-3,-4.821225E-4,5.144782E-4,2.088307E-3,8.0448744E-4,8.1346097E-4,-6.937947E-4,-1.0918226E-3,-4.7031656E-4,7.6780614E-4,-9.398151E-5,7.0981286E-4,1.2838352E-3,3.1609545E-3,2.1078738E-3,3.9062747E-3,2.9378515E-3,-5.9643267E-3,-7.3952205E-3,-7.995192E-3,-6.79261E-3,-4.9300897E-3,-6.1442577E-3,-6.015683E-3,-7.04926E-3,-4.860917E-3,-3.0522272E-3,-6.0171005E-3,-4.4744923E-3,-2.514205E-3,-9.3750807E-4,-5.2419947E-3,-3.6832895E-3,-7.5609185E-4,-1.6668275E-3,-3.757391E-3,-1.9094124E-3,-2.072008E-3,-5.1961658E-3,-9.292829E-4,7.1352354E-4,-1.0764152E-3,-2.1482662E-3,1.4273989E-3,9.775732E-5,3.6323082E-3,1.4897266E-3,-3.6275887E-3,-2.7693496E-3,9.0592345E-3,-1.565012E-3,-5.937033E-4,6.3294225E-4,-2.6504223E-3,4.1673123E-3,1.5770337E-3,-5.564596E-4,-2.6835527E-3,-1.1428269E-3,3.739572E-3,2.4556648E-3,3.9603044E-3,5.648866E-3,1.5629204E-3,2.8753446E-3,-5.150215E-4,1.2130607E-3,3.04337E-3,5.64507E-3,1.3586349E-3,4.0808395E-3,-3.16805E-7,2.0549472E-3,4.399904E-3,6.2812218E-3,6.828288E-3,4.933988E-3,-1.7993489E-3,7.8042825E-3,5.0470755E-3,1.7252591E-3,4.7282735E-3,6.8822135E-3,4.659482E-3,6.1175944E-3,4.58198E-3,6.858659E-3,8.698802E-3,1.03038745E-2,8.937609E-3,5.433479E-3,9.951614E-3,5.7901386E-3,7.1782325E-3,4.5045293E-3,5.8166855E-3,8.786493E-3,8.047541E-3,9.137682E-3,1.2826078E-2,8.790144E-3,1.0647819E-2,6.8996334E-3,8.942792E-3,1.2420115E-2,1.0718252E-2,8.695792E-3,1.2955372E-2,1.047018E-2,1.31718125E-2,1.1065553E-2,1.2023029E-2,9.831656E-3,1.5490839E-2,1.4365906E-2,1.4375294E-2,1.2245401E-2,2.1648888E-2,1.9954085E-2,8.597488E-3,6.8328776E-3,5.7015345E-3,6.7719338E-3,7.161633E-3,6.1084856E-3,3.5700442E-3,5.961448E-3,6.5385294E-3,7.886383E-3,6.8499683E-3,4.9676322E-3,9.496916E-3,7.983445E-3,9.158775E-3,1.1398413E-2,1.0924199E-2,1.182929E-2,1.2239287E-2,1.0788333E-2,1.5247594E-2,8.240382E-3,1.2750734E-2,-1.5129508E-3],"categories":[],"categories_nodes":[],"categories_segments":[],"categories_sizes":[],"default_left":[0,0,0,0,0,0,0,0,0,0,0,0,0,0,0,0,0,0,0,0,0,0,0,0,0,0,0,0,0,0,0,0,0,0,0,0,0,0,0,0,0,0,0,0,0,0,0,0,0,0,0,0,0,0,0,0,0,0,0,0,0,0,0,0,0,0,0,0,0,0,0,0,0,0,0,0,0,0,0,0,0,0,0,0,0,0,0,0,0,0,0,0,0,0,0,0,0,0,0,0,0,0,0,0,0,0,0,0,0,0,0,0,0,0,0,0,0,0,0,0,0,0,0,0,0,0,0,0,0,0,0,0,0,0,0,0,0,0,0,0,0,0,0,0,0,0,0,0,0,0,0,0,0,0,0,0,0,0,0,0,0,0,0,0,0,0,0,0,0,0,0,0,0,0,0,0,0,0,0,0,0,0,0,0,0,0,0,0,0,0,0,0,0,0,0,0,0,0,0,0,0,0,0,0,0,0,0,0,0,0,0,0,0,0,0,0,0,0,0,0,0,0,0,0,0,0,0,0,0,0,0,0,0,0,0,0,0,0,0,0,0,0,0,0,0,0,0,0,0,0,0,0,0,0,0,0,0,0,0,0,0,0,0,0,0,0,0,0,0,0,0,0,0,0,0,0,0,0,0,0,0,0,0,0,0,0,0,0,0,0,0,0,0,0,0,0,0,0,0,0,0,0,0,0,0,0,0,0,0,0,0,0,0,0,0,0,0,0,0,0,0,0,0,0,0,0,0,0,0,0,0,0,0,0,0,0,0,0,0,0,0,0,0,0,0,0,0,0,0,0,0,0,0,0,0,0,0,0,0,0,0,0,0,0,0,0,0,0,0,0,0,0,0,0,0,0,0,0,0,0,0,0,0,0,0,0,0,0,0,0,0,0,0,0,0,0,0,0,0,0,0,0,0,0,0,0,0,0,0,0,0,0,0,0,0,0,0,0,0,0,0,0,0,0,0,0,0,0,0,0,0,0,0,0,0,0,0,0,0,0,0,0,0,0,0,0,0,0,0,0,0,0,0,0,0,0,0,0,0,0,0,0,0,0,0,0,0,0,0,0,0,0,0,0,0,0,0,0,0,0,0,0,0,0,0,0,0,0,0,0,0,0,0,0,0,0,0,0,0,0,0,0,0,0,0,0,0,0,0,0,0,0,0,0,0,0,0,0,0,0,0,0,0,0,0,0,0,0,0,0,0,0,0,0,0,0,0,0,0,0,0,0,0,0,0,0,0,0,0,0,0,0,0,0,0,0,0,0,0,0,0,0,0,0,0,0,0,0,0,0,0,0,0,0,0,0,0,0,0,0,0,0,0,0,0,0,0,0,0,0,0,0,0,0,0,0,0,0,0,0,0,0,0,0,0,0,0,0,0,0,0,0,0,0,0,0,0,0,0,0,0,0,0,0,0,0,0,0,0,0,0,0,0,0,0,0,0,0,0,0,0,0,0,0,0,0,0,0,0,0,0,0,0,0,0,0,0,0,0,0,0,0,0,0,0,0,0,0,0,0,0,0,0,0,0,0,0,0,0,0,0,0,0,0,0,0,0,0,0,0,0,0,0,0,0,0,0,0,0,0,0,0,0,0,0,0,0,0,0,0,0,0,0,0,0,0,0,0,0,0,0,0,0,0,0,0,0,0,0,0,0,0,0,0,0,0,0,0,0,0,0,0,0,0,0,0,0,0,0,0,0,0,0,0,0,0,0,0,0,0,0,0,0,0,0,0,0,0,0,0,0,0,0,0,0,0,0,0,0,0,0,0,0,0,0,0,0,0,0,0,0,0,0,0,0,0,0,0,0,0,0,0,0,0,0,0,0,0,0,0,0,0,0,0,0,0,0,0,0,0,0,0,0,0,0,0,0,0,0,0,0,0,0,0,0,0,0,0,0,0,0,0,0,0,0,0,0,0,0,0,0,0,0,0,0,0,0,0,0,0,0,0,0,0,0,0,0,0,0,0,0,0,0,0,0,0,0,0,0,0,0,0,0,0,0,0,0,0,0,0,0,0,0,0,0,0,0,0,0,0,0,0,0,0,0,0,0,0,0,0,0,0,0,0,0,0,0,0,0],"id":2,"left_children":[1,3,5,7,9,11,13,15,17,19,21,23,25,27,29,31,33,35,37,39,41,43,45,47,49,51,53,55,57,59,61,63,65,67,69,71,73,75,77,79,81,83,85,87,89,91,93,95,97,99,101,103,105,107,109,111,113,115,117,119,121,123,125,127,-1,129,131,133,135,137,139,141,-1,-1,143,145,-1,147,149,151,153,155,157,159,161,163,165,167,169,-1,-1,171,173,-1,175,177,179,181,183,185,187,189,191,193,195,197,-1,199,201,-1,-1,203,205,207,209,211,213,215,217,219,221,-1,-1,-1,-1,223,225,227,-1,229,231,233,235,237,239,241,243,245,247,249,251,253,255,257,259,-1,261,263,-1,-1,265,267,-1,269,-1,271,-1,273,275,-1,-1,277,-1,279,281,-1,283,285,287,289,291,293,295,297,-1,-1,299,301,303,305,307,309,311,313,315,317,319,321,323,325,327,329,331,-1,333,335,337,339,341,343,-1,345,-1,347,-1,349,351,353,355,357,359,361,363,365,367,-1,-1,369,371,-1,-1,-1,-1,-1,373,-1,-1,375,377,379,381,383,385,387,389,391,393,395,-1,397,399,401,-1,403,-1,405,-1,407,-1,409,411,413,415,-1,417,419,-1,421,423,-1,-1,425,-1,427,429,431,433,-1,435,437,439,441,443,445,447,449,-1,451,453,455,457,459,461,-1,463,465,467,469,471,-1,-1,473,-1,-1,475,477,479,-1,481,483,485,487,489,491,493,495,497,499,501,503,-1,505,507,509,511,513,-1,515,517,519,521,523,525,527,529,531,533,535,537,539,541,543,545,547,549,551,-1,-1,553,555,557,559,561,563,565,-1,-1,-1,567,569,571,573,575,-1,-1,-1,-1,577,-1,-1,579,581,583,585,587,-1,-1,589,-1,591,593,595,597,-1,-1,-1,599,601,603,605,-1,607,609,-1,-1,-1,-1,611,613,615,-1,617,619,621,623,625,627,-1,629,631,633,-1,-1,635,-1,637,-1,639,641,643,645,647,649,-1,-1,651,653,-1,655,657,-1,659,661,663,665,667,669,-1,-1,671,673,675,-1,677,679,681,683,685,687,689,691,693,695,697,699,701,703,705,707,709,711,-1,-1,713,715,717,719,721,723,725,727,729,731,-1,-1,733,735,737,739,741,-1,743,745,-1,-1,747,749,751,753,755,-1,757,-1,759,761,763,765,767,769,771,773,775,777,-1,779,781,783,785,787,-1,-1,789,791,793,795,797,799,801,803,805,807,809,811,-1,813,815,817,819,821,823,825,827,829,831,-1,-1,833,835,837,839,841,-1,843,845,847,-1,-1,-1,849,-1,851,853,855,857,859,861,863,865,867,-1,869,871,-1,-1,-1,873,875,-1,877,-1,-1,879,-1,881,883,885,887,-1,-1,-1,-1,-1,-1,889,891,-1,-1,-1,-1,893,-1,895,897,899,901,-1,-1,903,905,907,909,-1,-1,911,913,-1,-1,915,917,-1,-1,-1,-1,-1,-1,-1,-1,-1,-1,-1,-1,-1,-1,-1,-1,-1,-1,-1,-1,-1,-1,-1,-1,-1,-1,-1,-1,-1,-1,-1,-1,-1,-1,-1,-1,-1,-1,-1,-1,-1,-1,-1,-1,-1,-1,-1,-1,-1,-1,-1,-1,-1,-1,-1,-1,-1,-1,-1,-1,-1,-1,-1,-1,-1,-1,-1,-1,-1,-1,-1,-1,-1,-1,-1,-1,-1,-1,-1,-1,-1,-1,-1,-1,-1,-1,-1,-1,-1,-1,-1,-1,-1,-1,-1,-1,-1,-1,-1,-1,-1,-1,-1,-1,-1,-1,-1,-1,-1,-1,-1,-1,-1,-1,-1,-1,-1,-1,-1,-1,-1,-1,-1,-1,-1,-1,-1,-1,-1,-1,-1,-1,-1,-1,-1,-1,-1,-1,-1,-1,-1,-1,-1,-1,-1,-1,-1,-1,-1,-1,-1,-1,-1,-1,-1,-1,-1,-1,-1,-1,-1,-1,-1,-1,-1,-1,-1,-1,-1,-1,-1,-1,-1,-1,-1,-1,-1,-1,-1,-1,-1,-1,-1,-1,-1,-1,-1,-1,-1,-1,-1,-1,-1,-1,-1,-1,-1,-1,-1,-1,-1,-1,-1,-1,-1,-1,-1,-1,-1,-1,-1,-1,-1,-1,-1,-1,-1,-1,-1,-1,-1,-1,-1,-1,-1,-1,-1,-1,-1,-1,-1,-1,-1,-1,-1,-1,-1,-1,-1,-1,-1,-1,-1,-1,-1,-1,-1,-1,-1,-1,-1,-1,-1,-1,-1,-1,-1,-1,-1,-1,-1,-1,-1,-1,-1,-1,-1,-1,-1,-1,-1,-1,-1,-1,-1,-1,-1,-1,-1,-1,-1,-1,-1,-1,-1,-1,-1,-1,-1,-1,-1,-1,-1,-1,-1,-1,-1,-1,-1,-1,-1,-1,-1,-1,-1,-1,-1,-1,-1,-1,-1,-1,-1,-1,-1,-1,-1,-1,-1,-1],"loss_changes":[1.4756658E3,3.9734747E2,7.168115E2,1.109718E2,4.7633705E1,1.4789781E2,7.654346E1,6.583908E1,1.816101E1,1.0235048E1,1.5850735E1,5.6709423E1,6.192276E0,4.80589E1,1.1102234E1,8.982513E0,4.4254875E0,5.4485474E0,5.129547E-1,8.642454E0,2.9975462E0,2.2149277E0,2.4759948E-1,3.3970078E1,2.713787E1,9.593735E-1,1.3726807E0,1.6164001E1,8.313385E0,6.879303E0,2.0585403E0,5.223999E-1,4.3312073E-1,2.586937E-1,8.986492E-1,8.904419E-1,3.2885742E-1,5.5778503E-2,1.8075562E-1,9.192233E-1,1.6932416E0,3.8244438E-1,1.1711931E0,1.3629913E0,4.0063286E-1,1.5220809E-1,3.3042404E-1,5.0362644E0,4.923794E0,4.363123E0,1.3082199E0,5.3549767E-2,3.1322098E-1,1.0142975E0,2.3409653E-1,1.4704285E0,2.9377136E0,6.3054276E-1,8.386688E-1,1.3964233E0,2.3151398E0,4.5196533E-2,5.352173E-1,1.089325E0,0E0,3.949356E-1,6.923065E-1,1.16889E-1,5.207958E-1,7.208843E-1,6.563492E-1,1.0039062E0,0E0,0E0,3.5766602E-1,2.6275635E-2,0E0,3.6348724E-1,1.05644226E-1,4.5251298E-1,2.7042913E-1,7.895696E-1,3.150177E-1,2.6293993E-2,2.906599E-1,3.6716747E-1,2.2259355E-2,9.277649E-1,7.926669E-1,0E0,0E0,2.7748132E-1,2.1006852E-2,0E0,1.6867799E-1,1.0604537E0,3.3327148E0,1.2724991E0,1.9721794E-1,3.4351614E0,1.4056492E0,6.0781956E-2,1.1393356E0,7.08437E-2,5.092144E-2,1.9871902E-1,0E0,2.1220398E-1,3.4972382E-1,0E0,0E0,3.7360382E-1,7.921448E-1,5.3692627E-1,3.2453918E-1,1.0920334E-1,7.8956604E-2,2.091217E-2,8.8386536E-2,9.111023E-2,9.075928E-2,0E0,0E0,0E0,0E0,1.8803406E-1,6.681061E-2,4.1255188E-1,0E0,2.0160675E-1,9.598541E-2,2.0890236E-1,2.4824524E-1,4.8823833E-2,5.721748E-2,5.671215E-2,5.057478E-2,2.2086716E-1,7.864857E-2,6.395464E-1,9.91951E-1,3.4856415E-1,2.999115E-1,7.865906E-2,2.856636E-1,0E0,4.4136047E-2,7.447815E-2,0E0,0E0,1.2220764E-1,7.279253E-2,0E0,1.2399353E-1,0E0,4.1338074E-1,0E0,1.3131905E-1,9.4321966E-2,0E0,0E0,1.770792E-1,0E0,1.8113327E-1,8.989504E-2,0E0,3.0713975E-2,1.861763E-1,2.819023E-1,1.9755077E-1,3.752935E-2,1.2114382E-1,6.4022176E-2,2.956976E-2,0E0,0E0,4.046297E-2,9.735036E-1,4.5568287E-1,6.4412034E-1,1.0549307E-1,1.196022E-1,1.8286705E-1,1.3699102E-1,7.127464E-2,1.075441E0,1.2885778E0,5.786485E-1,1.3848E0,7.6017976E-2,4.7120333E-2,2.130005E0,4.438591E-1,0E0,3.7102222E-2,3.1618357E-2,3.297031E-2,2.2239685E-2,6.56929E-2,4.7109604E-2,0E0,6.746292E-2,0E0,4.4345856E-2,0E0,5.1475525E-2,1.00357056E-1,9.182739E-2,7.6049805E-2,8.109665E-2,9.776306E-2,3.5820007E-2,2.7713966E-1,2.188778E-2,3.9281845E-2,0E0,0E0,8.686066E-2,1.3157272E-1,0E0,0E0,0E0,0E0,0E0,5.1216125E-2,0E0,0E0,9.070587E-2,6.925659E-1,3.4589767E-2,1.6700745E-1,2.5289536E-2,6.798458E-2,4.7805786E-2,5.3459167E-2,9.1243744E-2,2.4965668E-1,7.710838E-2,0E0,6.134224E-2,3.0800998E-2,3.38583E-2,0E0,2.6637554E-2,0E0,2.0597076E-1,0E0,6.343269E-2,0E0,4.0456438E-1,4.5120585E-1,4.01721E-2,2.9218674E-1,0E0,1.5172195E-1,2.0927429E-1,0E0,8.708954E-2,4.3128967E-2,0E0,0E0,2.1038055E-2,0E0,3.7330627E-2,2.583313E-2,6.417084E-2,2.5852203E-2,0E0,3.4418583E-2,1.7420071E-1,8.434114E-2,2.87323E-1,9.535493E-2,2.2253108E-1,6.848383E-2,5.2096963E-2,0E0,5.367756E-2,1.9567466E-1,4.8927903E-2,9.416652E-2,5.9730783E-2,4.0119827E-2,0E0,1.354689E-1,6.1985016E-2,1.3128948E-1,1.4617252E-1,1.0028553E-1,0E0,0E0,4.000641E-2,0E0,0E0,4.5675635E-2,5.4714225E-2,7.643375E-2,0E0,2.630311E-2,5.035926E-2,4.2490013E-2,3.0084038E-1,2.518059E-1,2.4869904E-1,2.8779209E-2,6.0464278E-2,9.643835E-2,2.8547287E-2,9.1153145E-2,3.8808823E-2,0E0,5.9168816E-2,1.3081741E-1,3.6179495E-1,7.908225E-2,4.7004044E-2,0E0,9.603196E-2,3.5676694E-1,1.9437003E-1,4.6168634E-1,6.877373E-2,3.7572235E-2,2.0455933E-1,6.4263844E-1,5.7124257E-2,3.1994045E-2,2.3676604E-2,3.940499E-2,1.8977356E-1,2.3476148E0,2.600155E-1,4.2700958E-1,3.241968E-2,4.249215E-2,2.496636E-2,0E0,0E0,5.7601392E-2,4.624939E-2,3.7889957E-2,4.205036E-2,4.6653748E-2,2.4773598E-2,4.6079636E-2,0E0,0E0,0E0,4.885292E-2,3.845215E-2,1.4061356E-1,5.5274963E-2,4.826355E-2,0E0,0E0,0E0,0E0,3.7363052E-2,0E0,0E0,9.8731995E-2,2.6956558E-2,6.367636E-2,2.5915384E-2,4.5781136E-2,0E0,0E0,3.638363E-2,0E0,4.0691376E-2,9.207153E-2,3.0584097E-2,2.3856044E-2,0E0,0E0,0E0,7.613945E-2,6.1439514E-2,1.2345886E-1,2.3515701E-2,0E0,1.0126495E-1,2.3669434E-1,0E0,0E0,0E0,0E0,6.2054634E-2,2.2751808E-2,2.1165848E-2,0E0,3.1671524E-2,2.6760101E-2,3.0743599E-2,1.9981384E-1,3.9586306E-2,3.1573772E-2,0E0,2.7700871E-2,4.673055E-2,5.5631503E-2,0E0,0E0,2.685666E-2,0E0,4.9978733E-2,0E0,3.5271645E-2,4.1161418E-2,1.4052963E-1,5.5193186E-2,8.132715E-2,3.597486E-2,0E0,0E0,3.4792185E-2,6.721056E-2,0E0,1.969279E-1,5.1574707E-2,0E0,2.8320312E-2,2.6325226E-2,8.0070496E-2,8.930206E-2,3.1380177E-2,4.4808865E-2,0E0,0E0,3.1742096E-2,3.3313274E-2,1.20960236E-1,0E0,7.2481155E-2,9.0718746E-2,4.0352345E-2,2.2467494E-2,1.0565683E-1,5.1206693E-2,4.498619E-2,4.6575844E-2,1.3230658E-1,5.160415E-2,5.9919678E-2,3.4484997E-2,3.5059154E-2,8.580136E-2,2.7463436E-2,2.8804302E-2,4.2949677E-2,3.841567E-2,0E0,0E0,6.46413E-2,2.7885437E-2,6.147909E-2,4.21378E-2,3.2311447E-2,1.0839009E-1,5.268286E-2,5.22011E-2,3.3560567E-2,2.408868E-2,0E0,0E0,3.4556627E-2,3.13282E-2,1.5991116E-1,3.4710407E-2,1.5226269E-1,0E0,8.057165E-2,6.930554E-2,0E0,0E0,5.3960845E-2,6.384075E-2,4.6981197E-2,1.445664E-1,2.8948259E-2,0E0,2.0933433E-2,0E0,2.9789366E-2,2.6157819E-2,3.9073158E-2,5.1153496E-2,1.3504595E-1,4.2375088E-2,5.517164E-2,2.7218297E-2,9.6159846E-2,1.1176324E-1,0E0,2.707316E-2,6.646929E-2,3.2317817E-2,4.725479E-2,7.4967265E-2,0E0,0E0,3.9545655E-2,4.8479557E-2,8.018017E-2,4.2220116E-2,2.3731947E-2,2.5176048E-2,1.9525385E-1,2.5312233E-1,1.459055E-1,4.9399257E-2,2.0680308E-2,5.101478E-2,0E0,8.648655E-2,6.178657E-2,2.5559708E-2,1.0377726E-1,4.392662E-1,4.3611288E-2,1.6216257E-1,1.18272826E-1,6.8351805E-2,