{"learner":{"attributes":{},"feature_names":["road_type","num_lanes","curvature","speed_limit","lighting","weather","road_signs_present","public_road","time_of_day","holiday","school_season","num_reported_accidents","curavture_accidents"],"feature_types":["int","int","float","int","int","int","int","int","int","int","int","int","float"],"gradient_booster":{"model":{"gbtree_model_param":{"num_parallel_tree":"1","num_trees":"429"},"iteration_indptr":[0,1,2,3,4,5,6,7,8,9,10,11,12,13,14,15,16,17,18,19,20,21,22,23,24,25,26,27,28,29,30,31,32,33,34,35,36,37,38,39,40,41,42,43,44,45,46,47,48,49,50,51,52,53,54,55,56,57,58,59,60,61,62,63,64,65,66,67,68,69,70,71,72,73,74,75,76,77,78,79,80,81,82,83,84,85,86,87,88,89,90,91,92,93,94,95,96,97,98,99,100,101,102,103,104,105,106,107,108,109,110,111,112,113,114,115,116,117,118,119,120,121,122,123,124,125,126,127,128,129,130,131,132,133,134,135,136,137,138,139,140,141,142,143,144,145,146,147,148,149,150,151,152,153,154,155,156,157,158,159,160,161,162,163,164,165,166,167,168,169,170,171,172,173,174,175,176,177,178,179,180,181,182,183,184,185,186,187,188,189,190,191,192,193,194,195,196,197,198,199,200,201,202,203,204,205,206,207,208,209,210,211,212,213,214,215,216,217,218,219,220,221,222,223,224,225,226,227,228,229,230,231,232,233,234,235,236,237,238,239,240,241,242,243,244,245,246,247,248,249,250,251,252,253,254,255,256,257,258,259,260,261,262,263,264,265,266,267,268,269,270,271,272,273,274,275,276,277,278,279,280,281,282,283,284,285,286,287,288,289,290,291,292,293,294,295,296,297,298,299,300,301,302,303,304,305,306,307,308,309,310,311,312,313,314,315,316,317,318,319,320,321,322,323,324,325,326,327,328,329,330,331,332,333,334,335,336,337,338,339,340,341,342,343,344,345,346,347,348,349,350,351,352,353,354,355,356,357,358,359,360,361,362,363,364,365,366,367,368,369,370,371,372,373,374,375,376,377,378,379,380,381,382,383,384,385,386,387,388,389,390,391,392,393,394,395,396,397,398,399,400,401,402,403,404,405,406,407,408,409,410,411,412,413,414,415,416,417,418,419,420,421,422,423,424,425,426,427,428,429],"tree_info":[0,0,0,0,0,0,0,0,0,0,0,0,0,0,0,0,0,0,0,0,0,0,0,0,0,0,0,0,0,0,0,0,0,0,0,0,0,0,0,0,0,0,0,0,0,0,0,0,0,0,0,0,0,0,0,0,0,0,0,0,0,0,0,0,0,0,0,0,0,0,0,0,0,0,0,0,0,0,0,0,0,0,0,0,0,0,0,0,0,0,0,0,0,0,0,0,0,0,0,0,0,0,0,0,0,0,0,0,0,0,0,0,0,0,0,0,0,0,0,0,0,0,0,0,0,0,0,0,0,0,0,0,0,0,0,0,0,0,0,0,0,0,0,0,0,0,0,0,0,0,0,0,0,0,0,0,0,0,0,0,0,0,0,0,0,0,0,0,0,0,0,0,0,0,0,0,0,0,0,0,0,0,0,0,0,0,0,0,0,0,0,0,0,0,0,0,0,0,0,0,0,0,0,0,0,0,0,0,0,0,0,0,0,0,0,0,0,0,0,0,0,0,0,0,0,0,0,0,0,0,0,0,0,0,0,0,0,0,0,0,0,0,0,0,0,0,0,0,0,0,0,0,0,0,0,0,0,0,0,0,0,0,0,0,0,0,0,0,0,0,0,0,0,0,0,0,0,0,0,0,0,0,0,0,0,0,0,0,0,0,0,0,0,0,0,0,0,0,0,0,0,0,0,0,0,0,0,0,0,0,0,0,0,0,0,0,0,0,0,0,0,0,0,0,0,0,0,0,0,0,0,0,0,0,0,0,0,0,0,0,0,0,0,0,0,0,0,0,0,0,0,0,0,0,0,0,0,0,0,0,0,0,0,0,0,0,0,0,0,0,0,0,0,0,0,0,0,0,0,0,0,0,0,0,0,0,0,0,0,0,0,0,0,0,0,0,0,0,0,0,0,0,0,0,0,0,0,0,0,0,0,0,0,0,0,0,0,0,0,0,0,0,0,0,0,0,0,0,0],"trees":[{"base_weights":[-1.21009005E-4,-8.543236E-2,8.694743E-2,-1.3451827E-1,6.8239775E-3,1.6861051E-2,1.9975315E-1,-1.9676428E-1,-1.808847E-2,-2.0248013E-2,1.4485633E-1,-3.8785655E-2,1.3788782E-1,1.3790782E-1,3.2784948E-1,-2.589282E-1,-1.6853167E-1,-7.646816E-2,1.1488674E-2,-8.054571E-2,1.1982732E-2,9.484525E-2,2.2431709E-1,-5.116884E-2,1.0732386E-1,8.090324E-2,1.7511676E-1,7.883141E-2,1.772421E-1,2.6678455E-1,3.6990228E-1,-2.9594246E-1,-2.3453526E-1,-2.1003465E-1,-1.3962966E-1,-9.6223E-2,-4.066156E-2,-2.6305892E-2,5.072121E-2,-1.0623132E-1,-4.3599807E-2,-2.6487615E-2,5.6145072E-2,5.798992E-2,1.3287695E-1,1.4417157E-1,2.7368018E-1,-1.0701406E-1,-2.8793273E-2,7.6093726E-2,1.1920535E-1,6.7084044E-2,1.9447261E-1,1.553458E-1,2.754322E-1,4.3057755E-2,1.1410019E-1,1.5963994E-1,2.6343307E-1,2.5037482E-1,3.7481722E-1,3.4451777E-1,4.502769E-1,-3.054859E-1,-2.798845E-1,-2.5084618E-1,-2.1420877E-1,-2.2609937E-1,-1.8977211E-1,-1.6078748E-1,-1.184487E-1,-1.2201594E-1,-8.4889725E-2,-5.851449E-2,-3.3741523E-2,-4.6327468E-2,-9.224276E-3,2.8254515E-2,7.131098E-2,-1.2833218E-1,-9.38532E-2,-6.319986E-2,-3.3855774E-2,-4.9524426E-2,-8.666728E-3,3.4464937E-2,7.381534E-2,2.1716777E-2,7.677288E-2,1.119974E-1,1.4616007E-1,1.01584405E-1,1.6925709E-1,2.4157122E-1,2.7728593E-1,-1.5219118E-1,-5.7449598E-2,-5.1053997E-2,-2.2903364E-4,-2.4580093E-2,7.7518E-2,6.1194148E-2,1.3089925E-1,4.5887403E-2,9.638414E-2,1.6016962E-1,2.1951853E-1,1.3708282E-1,1.8551452E-1,2.4356373E-1,3.1417397E-1,3.46889E-2,1.2829278E-1,1.01026624E-1,1.9937617E-1,1.3666692E-1,1.9154082E-1,2.3419431E-1,2.9851413E-1,2.2992125E-1,2.775426E-1,3.4618238E-1,2.8986735E-2,3.1750706E-1,3.729739E-1,4.1891688E-1,4.7534814E-1,-2.251438E-2,-2.14754E-2,-2.0356845E-2,-1.943355E-2,-1.8598104E-2,-1.7351348E-2,-2.1720663E-1,-1.3944334E-2,-1.754431E-2,-2.2383504E-1,-1.4110572E-2,-1.3089897E-2,-1.6653009E-1,-1.4760989E-1,-1.3019428E-1,-1.0702833E-1,-1.0423861E-2,-1.16882466E-1,-9.3982436E-2,-7.790164E-2,-4.1092797E-3,-1.3360336E-2,-3.7886444E-2,-1.4717034E-3,-5.197766E-2,-3.180477E-2,-1.7074523E-2,5.539257E-3,2.8647356E-2,-1.1376062E-2,6.297099E-2,9.665582E-2,-1.1469064E-2,-1.2679708E-1,-9.953499E-2,-8.4117405E-2,-6.209821E-2,-1.3887069E-2,-3.304644E-2,-1.5889001E-1,-5.299615E-2,-3.3683177E-2,-1.607024E-2,1.0103194E-2,2.9491523E-2,4.8973337E-2,6.583581E-2,9.147731E-2,9.867859E-3,2.9842682E-2,5.5747658E-2,8.392364E-2,1.2143608E-1,1.0019291E-1,1.424099E-1,1.3730787E-2,1.1188433E-1,6.3015595E-3,1.8677633E-1,1.3056438E-1,1.8088292E-2,1.941096E-1,1.9761242E-2,2.56639E-2,-1.6741034E-1,-1.2709051E-1,-7.624932E-2,-4.5855585E-2,-5.79283E-2,3.3238124E-2,-1.5780091E-3,2.9829508E-3,-1.528872E-3,-9.987153E-3,4.9965265E-3,6.2631294E-3,6.2411904E-2,-1.2672758E-2,1.20525084E-1,1.5222825E-1,3.9670166E-2,1.23373546E-1,5.8924076E-3,1.02080956E-1,3.990088E-2,1.6316073E-1,2.0492558E-1,1.6594842E-2,1.3168679E-1,1.5369958E-2,1.7528692E-1,1.9562416E-1,2.5399578E-1,1.4993327E-2,2.1566065E-2,2.4340935E-2,2.1278555E-2,5.275274E-2,1.29302E-1,-8.196751E-3,9.189144E-2,1.2501027E-1,1.32318875E-2,1.5199856E-2,1.3131024E-1,1.5142135E-2,1.7835826E-1,2.0481062E-1,2.1833387E-1,2.4683939E-1,2.7053928E-1,3.1083807E-1,2.2445872E-1,2.242141E-2,1.9037725E-2,2.0501606E-2,2.3052104E-2,2.5721544E-2,3.120714E-1,3.5617012E-1,2.529187E-2,3.8992363E-1,4.278174E-1,2.775078E-2,3.2829642E-2,3.551568E-2,-1.6066052E-2,-1.5239915E-2,-2.276009E-1,-1.587767E-2,-1.6637073E-1,-1.7433774E-2,-1.0834158E-2,-1.4409575E-1,-1.3277787E-1,-8.63078E-3,-1.083724E-1,-3.2518975E-2,-8.75896E-3,-1.0833252E-1,-9.275104E-2,-1.1812362E-2,-7.688951E-2,-1.3288848E-2,-3.6840983E-2,-1.2924924E-2,-5.1463112E-2,-1.1138851E-2,-2.178548E-3,-1.2855873E-2,-1.6356781E-2,-1.2415485E-2,6.4566415E-3,-1.0604018E-2,2.3662973E-2,3.7625287E-2,4.2776703E-3,6.8979174E-2,9.270197E-2,1.4075292E-2,-9.31159E-3,-1.1948182E-1,-9.8841E-2,-1.2237521E-2,-8.290746E-2,-1.2892613E-2,-6.5260425E-2,-3.588E-3,-3.75693E-2,-1.9929096E-2,-1.4227184E-2,-7.0038054E-4,-5.2596007E-2,-1.2795776E-2,-3.3051003E-2,-1.0458077E-2,-1.5776822E-2,-1.2501459E-2,1.0603416E-2,-1.1306137E-2,2.9708592E-2,-1.0390802E-2,4.9562115E-2,-1.3040167E-2,6.0086545E-2,7.042285E-2,9.053161E-2,1.28342295E-2,-1.0782405E-3,2.2018455E-2,2.7714254E-2,4.624146E-3,4.571218E-3,3.2789034E-3,7.284361E-2,8.885999E-2,1.0903054E-1,9.149277E-3,1.1243383E-1,8.3422095E-2,1.4782318E-1,8.134819E-3,7.6456554E-3,9.900698E-3,1.9983356E-1,1.5163322E-1,1.4579368E-1,7.5122137E-3,2.2746706E-1,8.643328E-3,-1.7565568E-1,-1.5450558E-1,-9.357271E-3,-8.193409E-3,-8.544647E-2,-6.6926025E-2,-5.348569E-2,-3.6818523E-2,-7.054014E-2,-3.7792753E-2,2.0629264E-2,5.198199E-2,9.669333E-3,-5.894363E-3,2.1428313E-2,-7.4805887E-3,-2.36617E-2,6.315585E-2,7.604093E-3,9.17424E-3,1.0275548E-2,1.1598097E-2,1.7651113E-2,5.4083318E-2,8.082005E-3,9.827928E-3,7.145366E-3,8.214529E-3,-2.542689E-3,5.3195353E-3,1.4704937E-1,1.2769804E-2,5.9318845E-3,2.062349E-1,1.1900727E-1,1.4303172E-1,1.216656E-2,1.2925757E-2,1.3376256E-2,1.9932176E-1,1.7044174E-2,1.9158091E-2,1.0139993E-2,3.004602E-2,5.1498804E-2,4.7301194E-3,1.1293392E-1,1.0240248E-2,7.649271E-2,9.835346E-2,1.264609E-1,6.845579E-2,1.2064027E-1,1.4796056E-1,1.2151682E-2,1.3290508E-2,1.4165631E-2,2.2151577E-1,1.6304625E-2,1.5140371E-2,2.4799664E-1,1.1475795E-2,1.491148E-2,1.9715881E-2,2.1697331E-2,2.335401E-2,1.4668905E-2,2.3410249E-1,3.0012318E-1,3.3090845E-1,2.7286654E-2,2.4275681E-2,2.724579E-2,2.977242E-2,2.9514858E-2,3.218774E-2,-1.5790533E-2,-1.6683547E-2,-1.1993757E-2,-1.13474885E-2,-1.0297371E-2,-1.6008327E-2,-1.2941334E-1,-1.0388119E-2,-1.12896375E-1,-1.0305386E-1,-1.674237E-3,-1.3412243E-2,-7.6638404E-3,-1.1045438E-2,-9.853329E-2,-8.7739594E-2,-8.0297835E-2,-7.138692E-2,-2.9178995E-3,-3.188305E-2,-6.1011646E-2,-4.7607504E-2,-2.454149E-2,-1.168747E-2,2.5478792E-5,6.4241694E-4,1.6655734E-2,2.7320271E-2,3.2009277E-3,2.5039362E-3,5.214054E-3,4.4483505E-3,8.741371E-2,7.475343E-3,-8.478651E-3,-1.1965628E-2,-1.0714433E-1,-9.556804E-2,-6.1323047E-3,-5.572036E-3,-5.088004E-3,-4.413165E-3,-2.8810129E-3,-2.3906957E-3,-1.5221305E-2,-1.9031913E-3,-5.7802964E-3,-5.197318E-2,-4.0837336E-2,-2.9744286E-2,-2.3685995E-2,-1.0188155E-2,3.7600782E-3,1.7291E-2,2.3307499E-2,3.56779E-2,3.2472408E-3,3.826315E-3,3.8982504E-3,4.6612923E-3,4.71638E-3,7.4499786E-2,8.732202E-2,7.273538E-3,3.5888124E-3,-3.7100096E-3,2.3955074E-3,5.603993E-4,3.494005E-2,1.965497E-2,5.8122366E-3,6.1890673E-2,6.7912824E-3,8.165217E-2,9.019837E-3,7.060503E-3,1.2661892E-1,9.1324046E-2,3.8325994E-3,8.8583924E-2,1.410064E-1,1.0920549E-2,1.5835784E-1,1.4731916E-2,1.2912987E-1,1.8210384E-1,1.2765142E-1,1.2783103E-2,1.7365199E-2,6.152952E-3,-1.2589759E-2,-2.0112854E-3,-1.1074096E-2,-2.467461E-3,-6.4543183E-3,-7.6635055E-2,-4.0346594E-3,-4.969185E-3,-4.15607E-3,-3.594202E-3,-3.5477787E-2,-1.3174728E-1,-8.0174394E-2,-6.135485E-2,-4.0489674E-2,-1.990137E-3,7.2276394E-4,1.6839715E-3,3.234062E-3,4.4513615E-3,2.4346318E-3,1.551103E-2,3.8907444E-4,-1.4017847E-2,-3.385985E-3,4.9737194E-3,-7.480589E-3,4.515111E-3,4.0833843E-3,5.196674E-3,1.4510843E-2,1.8044196E-3,4.003425E-2,5.98314E-2,1.0872168E-2,8.087817E-3,1.5415626E-2,1.34321265E-2,1.1435445E-1,8.775481E-3,1.3432087E-1,1.4648372E-1,1.4601808E-2,1.3736546E-2,3.7370493E-5,8.556745E-4,1.7365525E-3,3.3239875E-2,3.4610452E-3,3.912757E-3,6.4452686E-3,1.1801201E-1,5.2493596E-3,5.9016766E-3,9.384969E-2,1.0205204E-1,8.731371E-3,9.979465E-3,1.490023E-2,6.560364E-3,1.16386645E-1,9.375857E-3,1.0385015E-2,1.1525792E-2,1.5434446E-2,1.656577E-2,1.3047689E-2,2.4951386E-1,1.6399616E-2,1.7494688E-2,2.0982224E-2,2.1986462E-2,2.3052432E-2,2.436099E-2,-9.252026E-3,-1.6209936E-2,-1.1072729E-1,-9.782221E-3,-7.3687113E-3,-1.447249E-2,-6.067232E-3,-1.0201271E-1,-5.9805047E-3,-7.1133003E-3,-5.7642977E-3,1.4262882E-3,-4.587793E-3,-5.563361E-3,-1.9050362E-3,-2.5994293E-3,-6.026485E-2,-1.0521404E-2,-3.7618743E-3,-3.271417E-3,-1.7385553E-3,-9.987153E-3,-1.0696937E-3,-4.5836E-4,8.1631367E-4,1.5290945E-3,3.262318E-2,1.81867E-2,6.4850873E-3,-1.0047505E-1,-1.0597709E-1,-1.2216026E-2,-6.553512E-3,-7.1155895E-3,-1.5615729E-3,-6.395623E-4,-5.584988E-2,-4.798274E-2,-3.5520336E-3,-2.2357518E-3,-1.7809343E-3,-3.7895735E-2,-2.3114685E-2,-1.2190502E-1,-1.4662123E-2,-5.947681E-3,-1.820483E-4,5.0838204E-4,8.56913E-4,1.5768512E-3,1.871416E-2,2.7120242E-2,2.9848875E-2,2.9375548E-3,5.4223402E-3,3.9585875E-3,6.3641844E-3,2.5243172E-3,-1.1728919E-3,5.140083E-4,1.1065796E-3,2.9392221E-3,9.253934E-3,2.1481058E-3,7.867708E-2,4.2276643E-2,9.1106124E-2,6.925638E-2,7.787117E-3,1.0347686E-2,7.3808073E-3,6.145982E-2,4.4047018E-3,6.8048225E-3,9.597669E-3,1.12928115E-2,7.474855E-3,1.2662577E-2,7.5253085E-3,1.07475715E-2,7.755672E-3,1.39940865E-2,7.28762E-3,1.0251332E-2,-6.69066E-2,-6.4562806E-3,-4.268023E-2,-2.066437E-3,-1.3599056E-2,-1.0102734E-1,-6.2694033E-3,-5.3050634E-3,-4.5457897E-3,-5.8874454E-2,-4.687208E-2,-3.843478E-2,-7.169316E-3,8.770939E-3,1.9060713E-4,2.0503417E-2,-4.914561E-3,5.3817295E-3,-2.6679106E-2,-6.327659E-3,8.287392E-4,1.3974843E-3,3.7242789E-3,2.7054904E-3,4.018571E-3,4.5948126E-3,7.766616E-3,1.1848216E-1,9.1309E-3,1.0002131E-2,1.5134159E-1,1.3967696E-1,2.925689E-3,2.2071546E-3,9.729718E-3,7.847164E-3,7.482139E-3,9.1779865E-2,8.360645E-3,7.1637896E-3,-1.4717317E-3,4.051543E-3,7.973225E-3,8.473224E-3,1.736813E-2,1.9088905E-2,-8.384125E-3,-7.814295E-3,-8.4065E-3,-9.876805E-2,-5.6379284E-3,-5.7674844E-2,1.7420046E-3,2.676309E-3,1.579719E-2,2.326165E-3,5.813348E-3,-1.4849229E-2,-7.982597E-3,-7.1125184E-3,-3.596816E-3,-5.780069E-2,-3.7128758E-3,-3.2265997E-3,-2.1050926E-3,-4.6466015E-2,-1.9081961E-3,-1.9396557E-2,1.2830561E-3,-1.1682988E-2,-1.9120002E-2,-7.517064E-4,-8.865768E-4,1.2712961E-5,2.5183711E-2,1.3663224E-2,2.6344955E-3,1.257768E-3,1.7249727E-3,3.486384E-2,1.3379408E-3,-7.414564E-4,3.5210457E-3,9.299728E-2,1.8230086E-2,4.569516E-3,-4.980171E-4,6.600073E-3,5.838762E-3,3.864277E-3,1.4125307E-3,8.082451E-2,-5.3276676E-3,-3.6820055E-3,-3.862009E-2,-3.4738157E-3,-3.2279648E-2,-8.842804E-3,-4.1087465E-3,-6.7205645E-2,-3.6556583E-3,-3.0327437E-3,-4.0809166E-2,-2.6008962E-3,3.8174537E-3,-2.7327782E-2,6.113175E-3,2.1163898E-2,1.7684033E-2,3.5299093E-2,-7.1334245E-4,-9.535501E-4,1.6477835E-4,1.3961257E-2,-2.4708186E-3,-2.1557765E-2,-1.4190286E-2,4.965886E-4,8.847712E-3,1.1152592E-1,1.4650081E-1,1.1165968E-2,9.298703E-3,1.0268566E-2,6.154379E-3,6.9397795E-3,-7.856817E-3,-6.7462567E-3,-3.7402408E-3,-4.58027E-3,1.8906972E-3,7.781099E-4,6.461231E-3,-1.17775565E-2,-4.642367E-3,-3.987445E-3,-2.467942E-3,-4.2454023E-3,-1.7567504E-3,-1.0562291E-3,-7.9750386E-4,-1.6051222E-3,1.3597772E-3,3.047874E-3,1.7370336E-4,1.434286E-3,3.1783136E-3,1.8065565E-3,8.8386545E-3,5.4246155E-3,2.5810846E-3,-1.3972935E-3,1.0677773E-3,7.086223E-3,-3.2174268E-3,-2.2951027E-3,-6.7644278E-3,1.7127532E-3,-5.3748456E-3,-4.288687E-3,-2.5664906E-3,-3.0876023E-3,8.096746E-5,8.766392E-4,-9.895937E-4,-2.355106E-3,5.8487867E-4,-1.0558979E-4,1.1346518E-3,2.2003427E-3,8.737466E-4,1.6023003E-3,1.6172588E-3,3.222382E-3,-2.3750443E-4,6.055435E-4,1.3613086E-3,2.939044E-4,-1.3172489E-3,-2.3039298E-3,-1.4054183E-3,-6.705221E-4,2.6255238E-4,-1.0074927E-3,7.5112106E-3,9.008153E-3,9.6947355E-3,1.1061843E-2],"categories":[],"categories_nodes":[],"categories_segments":[],"categories_sizes":[],"default_left":[0,0,0,0,0,0,0,0,0,0,0,0,0,0,0,0,0,0,0,0,0,0,0,0,0,0,0,0,0,0,0,0,0,0,0,0,0,0,0,0,0,0,0,0,0,0,0,0,0,0,0,0,0,0,0,0,0,0,0,0,0,0,0,0,0,0,0,0,0,0,0,0,0,0,0,0,0,0,0,0,0,0,0,0,0,0,0,0,0,0,0,0,0,0,0,0,0,0,0,0,0,0,0,0,0,0,0,0,0,0,0,0,0,0,0,0,0,0,0,0,0,0,0,0,0,0,0,0,0,0,0,0,0,0,0,0,0,0,0,0,0,0,0,0,0,0,0,0,0,0,0,0,0,0,0,0,0,0,0,0,0,0,0,0,0,0,0,0,0,0,0,0,0,0,0,0,0,0,0,0,0,0,0,0,0,0,0,0,0,0,0,0,0,0,0,0,0,0,0,0,0,0,0,0,0,0,0,0,0,0,0,0,0,0,0,0,0,0,0,0,0,0,0,0,0,0,0,0,0,0,0,0,0,0,0,0,0,0,0,0,0,0,0,0,0,0,0,0,0,0,0,0,0,0,0,0,0,0,0,0,0,0,0,0,0,0,0,0,0,0,0,0,0,0,0,0,0,0,0,0,0,0,0,0,0,0,0,0,0,0,0,0,0,0,0,0,0,0,0,0,0,0,0,0,0,0,0,0,0,0,0,0,0,0,0,0,0,0,0,0,0,0,0,0,0,0,0,0,0,0,0,0,0,0,0,0,0,0,0,0,0,0,0,0,0,0,0,0,0,0,0,0,0,0,0,0,0,0,0,0,0,0,0,0,0,0,0,0,0,0,0,0,0,0,0,0,0,0,0,0,0,0,0,0,0,0,0,0,0,0,0,0,0,0,0,0,0,0,0,0,0,0,0,0,0,0,0,0,0,0,0,0,0,0,0,0,0,0,0,0,0,0,0,0,0,0,0,0,0,0,0,0,0,0,0,0,0,0,0,0,0,0,0,0,0,0,0,0,0,0,0,0,0,0,0,0,0,0,0,0,0,0,0,0,0,0,0,0,0,0,0,0,0,0,0,0,0,0,0,0,0,0,0,0,0,0,0,0,0,0,0,0,0,0,0,0,0,0,0,0,0,0,0,0,0,0,0,0,0,0,0,0,0,0,0,0,0,0,0,0,0,0,0,0,0,0,0,0,0,0,0,0,0,0,0,0,0,0,0,0,0,0,0,0,0,0,0,0,0,0,0,0,0,0,0,0,0,0,0,0,0,0,0,0,0,0,0,0,0,0,0,0,0,0,0,0,0,0,0,0,0,0,0,0,0,0,0,0,0,0,0,0,0,0,0,0,0,0,0,0,0,0,0,0,0,0,0,0,0,0,0,0,0,0,0,0,0,0,0,0,0,0,0,0,0,0,0,0,0,0,0,0,0,0,0,0,0,0,0,0,0,0,0,0,0,0,0,0,0,0,0,0,0,0,0,0,0,0,0,0,0,0,0,0,0,0,0,0,0,0,0,0,0,0,0,0,0,0,0,0,0,0,0,0,0,0,0,0,0,0,0,0,0,0,0,0,0,0,0,0,0,0,0,0,0,0,0,0,0,0,0,0,0,0,0,0,0,0,0,0,0,0,0,0,0,0,0,0,0,0,0,0,0,0,0,0,0,0,0,0,0,0,0,0,0,0,0,0,0,0,0,0,0,0,0,0,0,0,0,0,0,0,0,0,0,0,0,0,0,0,0,0,0,0,0,0,0,0,0,0,0,0,0,0,0,0,0,0,0,0,0,0,0,0,0,0,0,0,0,0,0,0,0,0,0,0,0,0,0,0,0,0,0,0,0,0,0,0,0,0,0,0,0,0,0,0,0,0,0,0,0,0,0,0,0,0,0,0,0,0,0,0,0,0,0,0,0,0,0],"id":0,"left_children":[1,3,5,7,9,11,13,15,17,19,21,23,25,27,29,31,33,35,37,39,41,43,45,47,49,51,53,55,57,59,61,63,65,67,69,71,73,75,77,79,81,83,85,87,89,91,93,95,97,99,101,103,105,107,109,111,113,115,117,119,121,123,125,127,129,131,133,135,137,139,141,143,145,147,149,151,153,155,157,159,161,163,165,167,169,171,173,175,177,179,181,183,185,187,189,191,193,195,197,199,201,203,205,207,209,211,213,215,217,219,221,223,225,227,229,231,233,235,237,239,241,243,-1,245,247,249,251,-1,-1,-1,-1,-1,-1,253,-1,-1,255,-1,-1,257,259,261,263,-1,265,267,269,-1,-1,271,-1,273,275,277,279,281,-1,283,285,-1,287,289,291,293,-1,295,297,299,301,303,305,307,309,311,313,315,317,319,321,323,325,327,-1,329,-1,331,333,-1,335,-1,-1,337,339,341,343,345,347,-1,349,351,-1,-1,-1,353,-1,355,357,359,361,-1,363,365,367,369,-1,371,-1,373,375,377,-1,-1,-1,379,381,383,-1,385,387,-1,-1,389,-1,391,393,395,397,399,401,403,-1,-1,-1,-1,-1,405,407,-1,409,411,-1,-1,-1,-1,-1,413,-1,415,-1,-1,417,419,-1,421,423,-1,425,427,-1,429,-1,431,-1,433,-1,-1,-1,435,-1,437,-1,439,441,-1,443,445,-1,-1,447,449,-1,451,-1,453,-1,455,457,-1,-1,459,-1,461,-1,463,-1,465,-1,467,-1,469,-1,471,473,475,-1,477,479,481,-1,-1,-1,483,485,487,-1,489,491,493,-1,-1,-1,495,497,499,-1,501,-1,503,505,-1,-1,507,509,511,513,515,517,519,521,523,525,527,-1,529,531,-1,-1,-1,-1,533,535,-1,-1,-1,-1,-1,-1,537,-1,-1,539,541,543,-1,-1,-1,545,-1,-1,547,549,551,-1,553,-1,555,557,559,561,563,565,-1,-1,-1,567,-1,-1,569,-1,-1,-1,-1,-1,-1,571,573,575,-1,-1,-1,-1,-1,-1,-1,-1,-1,-1,-1,-1,577,-1,579,581,-1,-1,-1,-1,583,585,587,589,-1,591,593,595,597,599,-1,-1,601,603,-1,-1,-1,-1,605,-1,-1,-1,607,609,-1,-1,-1,-1,-1,-1,611,-1,-1,613,615,617,619,621,623,625,627,629,-1,-1,-1,-1,-1,631,633,-1,-1,635,-1,-1,637,639,-1,641,-1,643,-1,-1,645,647,-1,649,651,-1,653,-1,655,657,659,-1,-1,-1,-1,-1,-1,-1,-1,661,-1,-1,-1,-1,663,665,667,669,671,-1,-1,-1,-1,-1,673,675,677,679,-1,-1,-1,-1,-1,-1,681,-1,683,685,-1,-1,-1,-1,687,-1,689,691,-1,-1,-1,-1,-1,693,-1,-1,-1,695,-1,-1,697,699,-1,-1,701,-1,703,-1,-1,-1,-1,-1,-1,705,-1,-1,-1,-1,-1,-1,-1,-1,707,-1,-1,-1,-1,709,-1,-1,-1,-1,-1,-1,-1,-1,711,-1,-1,-1,-1,-1,-1,-1,-1,-1,713,715,-1,717,719,-1,-1,-1,-1,-1,721,723,-1,-1,-1,725,727,729,731,733,-1,-1,-1,-1,735,737,739,-1,-1,-1,-1,-1,-1,-1,-1,-1,741,-1,743,745,747,749,-1,-1,-1,751,-1,-1,-1,-1,-1,-1,-1,-1,-1,-1,-1,-1,753,-1,755,-1,-1,757,-1,-1,-1,759,761,763,765,767,-1,769,771,773,775,777,-1,-1,-1,-1,-1,-1,-1,779,-1,-1,781,783,-1,-1,-1,-1,-1,785,-1,-1,-1,-1,-1,-1,-1,-1,-1,-1,-1,787,-1,789,-1,-1,791,-1,793,-1,-1,-1,-1,795,-1,-1,-1,797,-1,799,-1,-1,801,-1,-1,-1,803,805,-1,-1,-1,807,-1,-1,-1,809,811,-1,-1,-1,-1,-1,-1,813,-1,-1,815,-1,817,-1,-1,819,-1,-1,821,-1,823,825,827,829,831,833,-1,835,-1,837,-1,839,841,843,-1,845,847,-1,-1,-1,-1,-1,-1,-1,-1,-1,-1,-1,-1,-1,-1,-1,-1,-1,-1,-1,-1,-1,-1,-1,-1,-1,-1,-1,-1,-1,-1,-1,-1,-1,-1,-1,-1,-1,-1,-1,-1,-1,-1,-1,-1,-1,-1,-1,-1,-1,-1,-1,-1,-1,-1,-1,-1,-1,-1,-1,-1,-1,-1,-1,-1,-1,-1,-1],"loss_changes":[2.7436162E3,8.4485767E2,1.4452399E3,8.8252783E2,2.4211838E2,7.593474E2,5.5490967E2,1.3922144E2,7.325459E1,1.05275154E2,4.21976E1,1.3975226E2,7.5325806E1,1.0976819E2,5.8471436E1,2.2304932E1,6.5429565E1,1.0087196E1,4.175484E1,1.7901634E1,5.9975784E1,9.133999E0,1.6192963E1,8.8971176E1,2.230278E0,2.2014023E1,4.255725E1,2.3822166E1,4.2984253E1,1.6401917E1,2.7396606E1,1.4224243E0,4.9002075E0,7.248596E0,1.4398621E1,2.6769257E0,6.2488174E-1,4.904891E0,6.389511E0,3.032753E0,1.4760723E0,7.745161E0,6.293602E0,2.256217E0,8.736305E-1,1.655796E0,2.2686768E-1,4.5598877E1,3.232524E1,2.4078846E-1,2.956501E0,7.7675705E0,1.2724648E0,9.861755E0,4.287964E0,6.684347E0,1.0581062E1,1.7234863E1,4.8617554E0,4.426605E0,9.0989685E-1,7.7730713E0,2.3467407E0,2.133789E-1,5.984497E-2,5.645752E-1,3.4698486E-1,4.790039E-1,4.6713257E-1,1.1931458E0,2.143158E0,3.217659E-1,3.9870453E-1,1.951189E-1,1.9928932E-1,5.4016304E-1,8.972562E-1,4.9032116E-1,1.5177231E0,1.747055E-1,3.8647842E-1,3.578863E-1,5.181279E-1,4.5078087E-1,1.4785931E0,5.3121376E-1,1.2699966E0,1.0869813E-1,3.2352734E-1,1.2732792E-1,3.0728912E-1,7.1783066E-2,6.4263535E-1,8.882332E-2,1.5066528E-1,4.049057E0,2.1138039E0,1.655738E1,1.5596038E0,6.33384E-2,1.20414734E-1,2.2419882E-1,7.8619003E-1,3.4940538E0,4.1366196E-1,2.2587967E-1,1.0866165E-1,4.649933E0,6.651001E-1,6.405411E-1,4.3128967E-1,2.067627E0,2.2009468E-1,1.7953873E0,1.9824982E-1,5.457596E0,1.6879272E0,4.7297668E-1,6.681824E-1,2.0265198E0,2.7819824E-1,8.3984375E-2,0E0,9.971924E-1,1.5395508E0,2.3892212E-1,3.9694214E-1,0E0,0E0,0E0,0E0,0E0,0E0,1.333313E-1,0E0,0E0,3.90625E-2,0E0,0E0,9.674072E-2,4.132843E-2,1.8215942E-1,8.135681E-1,0E0,9.3696594E-2,2.2690773E-1,3.80064E-1,0E0,0E0,4.0821624E-1,0E0,2.4520779E-1,3.7340093E-1,5.640907E-1,3.797394E-1,2.9427767E-1,0E0,1.01537704E-1,6.859226E-1,0E0,7.4409485E-2,2.060051E-1,2.9107666E-1,9.343815E-2,0E0,3.0419683E-1,1.9374591E-1,3.2994843E-1,1.0042894E-1,3.5207283E-1,2.5458825E-1,2.127409E-1,2.6519108E-1,1.6033173E-1,2.1733093E-1,6.1470494E-2,4.780507E-2,4.1927695E-2,8.251572E-2,4.0233612E-2,1.0599375E-1,2.660637E-1,0E0,2.9560566E-2,0E0,2.794361E-1,1.0589123E-1,0E0,1.04798555E-1,0E0,0E0,6.783142E-1,1.6725159E-1,3.1189346E-1,4.1251087E-1,6.705826E0,5.082376E-1,0E0,1.1521192E0,5.1858556E-2,0E0,0E0,0E0,4.8367262E-2,0E0,2.5286102E-1,7.760048E-2,2.133318E0,6.309986E-2,0E0,9.740448E-2,4.670549E-2,1.2753677E-1,4.8143387E-2,0E0,1.4872131E0,0E0,6.404114E-2,7.376099E-2,2.5749207E-1,0E0,0E0,0E0,4.7850728E-1,5.7250977E-2,1.709032E-1,0E0,5.871315E-1,1.7773438E-1,0E0,0E0,2.2531586E0,0E0,2.789917E-1,5.3079224E-1,2.773285E-2,1.0597992E-1,1.4294052E-1,8.2351685E-2,7.727814E-1,0E0,0E0,0E0,0E0,0E0,9.432068E-1,1.45607E-1,0E0,4.978943E-1,1.9424438E-1,0E0,0E0,0E0,0E0,0E0,1.0084534E-1,0E0,7.104492E-2,0E0,0E0,2.9953003E-2,2.3908997E-1,0E0,1.8118286E-1,2.021641E-1,0E0,3.8253784E-2,7.037544E-2,0E0,6.1540604E-2,0E0,5.218172E-2,0E0,1.7123222E-1,0E0,0E0,0E0,1.920209E-1,0E0,4.0988356E-2,0E0,1.08308315E-1,4.2723417E-2,0E0,4.5259476E-2,9.691906E-2,0E0,0E0,4.1477203E-2,1.1099243E-1,0E0,2.9510498E-2,0E0,3.8007736E-2,0E0,4.1203022E-2,4.089439E-2,0E0,0E0,1.13622665E-1,0E0,3.6762357E-2,0E0,3.3644342E-1,0E0,1.3732272E-1,0E0,2.0909452E-1,0E0,2.8231144E-2,0E0,7.494354E-2,5.9602737E-2,8.98056E-2,0E0,3.3057682E-2,3.5269327E-2,3.623405E-2,0E0,0E0,0E0,4.114914E-2,4.0486336E-2,2.9978514E-2,0E0,8.485794E-2,3.2462716E-2,2.6920319E-2,0E0,0E0,0E0,8.654213E-2,1.0470915E-1,9.1123104E-2,0E0,5.5651188E-2,0E0,7.810974E-2,3.3821106E-2,0E0,0E0,6.979275E-2,4.413128E-2,4.593849E-2,3.459661E-1,1.4323883E0,2.7341843E-1,3.8972497E-2,5.731392E-2,4.6785522E-1,4.2565647E-1,6.26737E-2,0E0,5.562261E-2,3.7783623E-2,0E0,0E0,0E0,0E0,6.2702775E-2,3.2579422E-1,0E0,0E0,0E0,0E0,0E0,0E0,3.3385277E-2,0E0,0E0,2.7511597E-2,6.713867E-2,1.461258E-1,0E0,0E0,0E0,4.2518616E-2,0E0,0E0,3.757444E-2,4.998827E-2,3.0467987E-2,0E0,3.422165E-2,0E0,2.741623E-2,6.048584E-2,1.12586975E-1,7.1780056E-2,3.2559967E-1,1.6770172E-1,0E0,0E0,0E0,3.490448E-2,0E0,0E0,9.762573E-2,0E0,0E0,0E0,0E0,0E0,0E0,9.492493E-2,4.9865723E-2,3.970337E-2,0E0,0E0,0E0,0E0,0E0,0E0,0E0,0E0,0E0,0E0,0E0,0E0,7.746124E-2,0E0,2.0692062E-1,3.850937E-2,0E0,0E0,0E0,0E0,5.1825523E-2,6.377792E-2,4.3847084E-2,5.872345E-2,0E0,2.7524948E-2,7.819986E-2,2.9604435E-2,5.2345753E-2,5.4978162E-2,0E0,0E0,3.5748333E-2,1.3439345E-1,0E0,0E0,0E0,0E0,7.099266E-1,0E0,0E0,0E0,7.469559E-2,4.026985E-2,0E0,0E0,0E0,0E0,0E0,0E0,3.1902507E-2,0E0,0E0,9.918976E-2,3.5277247E-2,4.0358424E-2,1.7410827E-1,8.462167E-2,3.126292E-2,3.7951916E-2,4.5972586E-2,8.721042E-2,0E0,0E0,0E0,0E0,0E0,3.836727E-2,1.7093468E-1,0E0,0E0,3.2251593E-2,0E0,0E0,3.896129E-2,3.220076E-2,0E0,7.0096314E-2,0E0,5.4042816E-2,0E0,0E0,4.5010805E-2,4.0283203E-2,0E0,2.9699445E-2,5.2559853E-2,0E0,4.6299696E-2,0E0,4.0140033E-2,5.44281E-2,3.6373854E-2,0E0,0E0,0E0,0E0,0E0,0E0,0E0,0E0,7.970095E-2,0E0,0E0,0E0,0E0,1.284306E-1,4.86874E-2,3.495102E-1,3.99971E-2,1.0329056E-1,0E0,0E0,0E0,0E0,0E0,3.0110544E-1,3.9286268E-1,1.2455824E-1,3.5395664E-1,0E0,0E0,0E0,0E0,0E0,0E0,2.7443975E-2,0E0,2.9987335E-2,4.2779922E-2,0E0,0E0,0E0,0E0,3.9497375E-2,0E0,3.967476E-2,1.0907745E-1,0E0,0E0,0E0,0E0,0E0,3.128314E-2,0E0,0E0,0E0,3.2107353E-2,0E0,0E0,3.2398224E-2,5.6570053E-2,0E0,0E0,2.923173E-2,0E0,4.0634155E-2,0E0,0E0,0E0,0E0,0E0,0E0,1.0194397E-1,0E0,0E0,0E0,0E0,0E0,0E0,0E0,0E0,2.7793884E-2,0E0,0E0,0E0,0E0,3.8276672E-2,0E0,0E0,0E0,0E0,0E0,0E0,0E0,0E0,5.986023E-2,0E0,0E0,0E0,0E0,0E0,0E0,0E0,0E0,0E0,6.850588E-2,3.4531385E-2,0E0,2.2838564E-1,3.4002304E-2,0E0,0E0,0E0,0E0,0E0,3.3690453E-2,3.4439564E-2,0E0,0E0,0E0,2.6831448E-2,4.0644288E-2,1.066854E-1,4.013467E-2,9.037796E-2,0E0,0E0,0E0,0E0,3.90974E-2,1.331271E-1,3.8520336E-2,0E0,0E0,0E0,0E0,0E0,0E0,0E0,0E0,0E0,2.8292105E-2,0E0,4.571849E-2,5.3195268E-2,3.0479908E-2,3.821838E-2,0E0,0E0,0E0,3.0734181E-2,0E0,0E0,0E0,0E0,0E0,0E0,0E0,0E0,0E0,0E0,0E0,0E0,4.0593863E-2,0E0,2.8876543E-2,0E0,0E0,3.76814E-2,0E0,0E0,0E0,4.4304848E-2,3.460312E-2,2.9022217E-2,4.3574843E-1,9.8057464E-2,0E0,1.8337905E-1,4.5582168E-2,6.40137E-2,5.4295838E-2,1.21485405E-1,0E0,0E0,0E0,0E0,0E0,0E0,0E0,3.0338287E-2,0E0,0E0,2.7763367E-2,4.164505E-2,0E0,0E0,0E0,0E0,0E0,3.9752007E-2,0E0,0E0,0E0,0E0,0E0,0E0,0E0,0E0,0E0,0E0,0E0,3.123951E-2,0E0,3.7213802E-2,0E0,0E0,4.5786947E-2,0E0,1.7292641E-1,0E0,0E0,0E0,0E0,3.3192635E-2,0E0,0E0,0E0,2.7339816E-2,0E0,3.616953E-2,0E0,0E0,2.7303219E-2,0E0,0E0,0E0,5.603963E-2,4.8584476E-2,0E0,0E0,0E0,6.5467894E-2,0E0,0E0,0E0,3.2109976E-2,3.498458E-2,0E0,0E0,0E0,0E0,0E0,0E0,3.0777857E-2,0E0,0E0,3.0516267E-2,0E0,3.021023E-2,0E0,0E0,2.8933525E-2,0E0,0E0,3.112936E-2,0E0,2.8819997E-2,5.1650047E-2,3.828252E-2,2.6267663E-2,9.50526E-2,8.5912704E-2,0E0,2.8462162E-2,0E0,3.1763047E-2,0E0,2.738452E-2,2.7413562E-2,5.604682E-2,0E0,3.777504E-2,7.89299E-2,0E0,0E0,0E0,0E0,0E0,0E0,0E0,0E0,0E0,0E0,0E0,0E0,0E0,0E0,0E0,0E0,0E0,0E0,0E0,0E0,0E0,0E0,0E0,0E0,0E0,0E0,0E0,0E0,0E0,0E0,0E0,0E0,0E0,0E0,0E0,0E0,0E0,0E0,0E0,0E0,0E0,0E0,0E0,0E0,0E0,0E0,0E0,0E0,0E0,0E0,0E0,0E0,0E0,0E0,0E0,0E0,0E0,0E0,0E0,0E0,0E0,0E0,0E0,0E0,0E0,0E0,0E0],"parents":[2147483647,0,0,1,1,2,2,3,3,4,4,5,5,6,6,7,7,8,8,9,9,10,10,11,11,12,12,13,13,14,14,15,15,16,16,17,17,18,18,19,19,20,20,21,21,22,22,23,23,24,24,25,25,26,26,27,27,28,28,29,29,30,30,31,31,32,32,33,33,34,34,35,35,36,36,37,37,38,38,39,39,40,40,41,41,42,42,43,43,44,44,45,45,46,46,47,47,48,48,49,49,50,50,51,51,52,52,53,53,54,54,55,55,56,56,57,57,58,58,59,59,60,60,61,61,62,62,63,63,64,64,65,65,66,66,67,67,68,68,69,69,70,70,71,71,72,72,73,73,74,74,75,75,76,76,77,77,78,78,79,79,80,80,81,81,82,82,83,83,84,84,85,85,86,86,87,87,88,88,89,89,90,90,91,91,92,92,93,93,94,94,95,95,96,96,97,97,98,98,99,99,100,100,101,101,102,102,103,103,104,104,105,105,106,106,107,107,108,108,109,109,110,110,111,111,112,112,113,113,114,114,115,115,116,116,117,117,118,118,119,119,120,120,121,121,123,123,124,124,125,125,126,126,133,133,136,136,139,139,140,140,141,141,142,142,144,144,145,145,146,146,149,149,151,151,152,152,153,153,154,154,155,155,157,157,158,158,160,160,161,161,162,162,163,163,165,165,166,166,167,167,168,168,169,169,170,170,171,171,172,172,173,173,174,174,175,175,176,176,177,177,178,178,179,179,180,180,181,181,183,183,185,185,186,186,188,188,191,191,192,192,193,193,194,194,195,195,196,196,198,198,199,199,203,203,205,205,206,206,207,207,208,208,210,210,211,211,212,212,213,213,215,215,217,217,218,218,219,219,223,223,224,224,225,225,227,227,228,228,231,231,233,233,234,234,235,235,236,236,237,237,238,238,239,239,245,245,246,246,248,248,249,249,255,255,257,257,260,260,261,261,263,263,264,264,266,266,267,267,269,269,271,271,273,273,277,277,279,279,281,281,282,282,284,284,285,285,288,288,289,289,291,291,293,293,295,295,296,296,299,299,301,301,303,303,305,305,307,307,309,309,311,311,312,312,313,313,315,315,316,316,317,317,321,321,322,322,323,323,325,325,326,326,327,327,331,331,332,332,333,333,335,335,337,337,338,338,341,341,342,342,343,343,344,344,345,345,346,346,347,347,348,348,349,349,350,350,351,351,353,353,354,354,359,359,360,360,367,367,370,370,371,371,372,372,376,376,379,379,380,380,381,381,383,383,385,385,386,386,387,387,388,388,389,389,390,390,394,394,397,397,404,404,405,405,406,406,419,419,421,421,422,422,427,427,428,428,429,429,430,430,432,432,433,433,434,434,435,435,436,436,439,439,440,440,445,445,449,449,450,450,457,457,460,460,461,461,462,462,463,463,464,464,465,465,466,466,467,467,468,468,474,474,475,475,478,478,481,481,482,482,484,484,486,486,489,489,490,490,492,492,493,493,495,495,497,497,498,498,499,499,508,508,513,513,514,514,515,515,516,516,517,517,523,523,524,524,525,525,526,526,533,533,535,535,536,536,541,541,543,543,544,544,550,550,554,554,557,557,558,558,561,561,563,563,570,570,579,579,584,584,593,593,603,603,604,604,606,606,607,607,613,613,614,614,618,618,619,619,620,620,621,621,622,622,627,627,628,628,629,629,639,639,641,641,642,642,643,643,644,644,648,648,661,661,663,663,666,666,670,670,671,671,672,672,673,673,674,674,676,676,677,677,678,678,679,679,680,680,688,688,691,691,692,692,698,698,710,710,712,712,715,715,717,717,722,722,726,726,728,728,731,731,735,735,736,736,740,740,744,744,745,745,752,752,755,755,757,757,760,760,763,763,765,765,766,766,767,767,768,768,769,769,770,770,772,772,774,774,776,776,777,777,778,778,780,780,781,781],"right_children":[2,4,6,8,10,12,14,16,18,20,22,24,26,28,30,32,34,36,38,40,42,44,46,48,50,52,54,56,58,60,62,64,66,68,70,72,74,76,78,80,82,84,86,88,90,92,94,96,98,100,102,104,106,108,110,112,114,116,118,120,122,124,126,128,130,132,134,136,138,140,142,144,146,148,150,152,154,156,158,160,162,164,166,168,170,172,174,176,178,180,182,184,186,188,190,192,194,196,198,200,202,204,206,208,210,212,214,216,218,220,222,224,226,228,230,232,234,236,238,240,242,244,-1,246,248,250,252,-1,-1,-1,-1,-1,-1,254,-1,-1,256,-1,-1,258,260,262,264,-1,266,268,270,-1,-1,272,-1,274,276,278,280,282,-1,284,286,-1,288,290,292,294,-1,296,298,300,302,304,306,308,310,312,314,316,318,320,322,324,326,328,-1,330,-1,332,334,-1,336,-1,-1,338,340,342,344,346,348,-1,350,352,-1,-1,-1,354,-1,356,358,360,362,-1,364,366,368,370,-1,372,-1,374,376,378,-1,-1,-1,380,382,384,-1,386,388,-1,-1,390,-1,392,394,396,398,400,402,404,-1,-1,-1,-1,-1,406,408,-1,410,412,-1,-1,-1,-1,-1,414,-1,416,-1,-1,418,420,-1,422,424,-1,426,428,-1,430,-1,432,-1,434,-1,-1,-1,436,-1,438,-1,440,442,-1,444,446,-1,-1,448,450,-1,452,-1,454,-1,456,458,-1,-1,460,-1,462,-1,464,-1,466,-1,468,-1,470,-1,472,474,476,-1,478,480,482,-1,-1,-1,484,486,488,-1,490,492,494,-1,-1,-1,496,498,500,-1,502,-1,504,506,-1,-1,508,510,512,514,516,518,520,522,524,526,528,-1,530,532,-1,-1,-1,-1,534,536,-1,-1,-1,-1,-1,-1,538,-1,-1,540,542,544,-1,-1,-1,546,-1,-1,548,550,552,-1,554,-1,556,558,560,562,564,566,-1,-1,-1,568,-1,-1,570,-1,-1,-1,-1,-1,-1,572,574,576,-1,-1,-1,-1,-1,-1,-1,-1,-1,-1,-1,-1,578,-1,580,582,-1,-1,-1,-1,584,586,588,590,-1,592,594,596,598,600,-1,-1,602,604,-1,-1,-1,-1,606,-1,-1,-1,608,610,-1,-1,-1,-1,-1,-1,612,-1,-1,614,616,618,620,622,624,626,628,630,-1,-1,-1,-1,-1,632,634,-1,-1,636,-1,-1,638,640,-1,642,-1,644,-1,-1,646,648,-1,650,652,-1,654,-1,656,658,660,-1,-1,-1,-1,-1,-1,-1,-1,662,-1,-1,-1,-1,664,666,668,670,672,-1,-1,-1,-1,-1,674,676,678,680,-1,-1,-1,-1,-1,-1,682,-1,684,686,-1,-1,-1,-1,688,-1,690,692,-1,-1,-1,-1,-1,694,-1,-1,-1,696,-1,-1,698,700,-1,-1,702,-1,704,-1,-1,-1,-1,-1,-1,706,-1,-1,-1,-1,-1,-1,-1,-1,708,-1,-1,-1,-1,710,-1,-1,-1,-1,-1,-1,-1,-1,712,-1,-1,-1,-1,-1,-1,-1,-1,-1,714,716,-1,718,720,-1,-1,-1,-1,-1,722,724,-1,-1,-1,726,728,730,732,734,-1,-1,-1,-1,736,738,740,-1,-1,-1,-1,-1,-1,-1,-1,-1,742,-1,744,746,748,750,-1,-1,-1,752,-1,-1,-1,-1,-1,-1,-1,-1,-1,-1,-1,-1,754,-1,756,-1,-1,758,-1,-1,-1,760,762,764,766,768,-1,770,772,774,776,778,-1,-1,-1,-1,-1,-1,-1,780,-1,-1,782,784,-1,-1,-1,-1,-1,786,-1,-1,-1,-1,-1,-1,-1,-1,-1,-1,-1,788,-1,790,-1,-1,792,-1,794,-1,-1,-1,-1,796,-1,-1,-1,798,-1,800,-1,-1,802,-1,-1,-1,804,806,-1,-1,-1,808,-1,-1,-1,810,812,-1,-1,-1,-1,-1,-1,814,-1,-1,816,-1,818,-1,-1,820,-1,-1,822,-1,824,826,828,830,832,834,-1,836,-1,838,-1,840,842,844,-1,846,848,-1,-1,-1,-1,-1,-1,-1,-1,-1,-1,-1,-1,-1,-1,-1,-1,-1,-1,-1,-1,-1,-1,-1,-1,-1,-1,-1,-1,-1,-1,-1,-1,-1,-1,-1,-1,-1,-1,-1,-1,-1,-1,-1,-1,-1,-1,-1,-1,-1,-1,-1,-1,-1,-1,-1,-1,-1,-1,-1,-1,-1,-1,-1,-1,-1,-1,-1],"split_conditions":[2.2222223E-2,6E1,6E1,2E0,2E0,2E0,2E0,1E0,1E0,1E0,1E0,1.8809524E0,1E0,1E0,1E0,-6.4444447E-1,-6E-1,-4E-1,-5.777778E-1,-4.4444445E-1,-5.1111114E-1,-6.2222224E-1,-6.22E-1,1E0,5.777778E-1,1.8452381E0,1.5952381E0,4.888889E-1,1.5952381E0,1.7023809E0,1.5119047E0,-8.2222223E-1,-2.8866667E-1,-8.2222223E-1,-3.1111112E-1,-8.802222E-1,-3.1111112E-1,-8.802222E-1,-3.1111112E-1,-8.802222E-1,-3.1111112E-1,-8.802222E-1,-2.8666666E-1,-9.3333334E-1,-3.9977777E-1,-9.111111E-1,-4.4022223E-1,5.3333336E-1,4.888889E-1,3.3333334E-1,1E0,4.888889E-1,2.3452382E0,4.6666667E-1,2.2738094E0,1.2261904E0,1.8809524E0,4.888889E-1,2.202381E0,4.6666667E-1,2.3452382E0,4E-1,2.202381E0,-1E0,-7.111111E-1,-4.4444445E-1,-2.2222223E-2,-1.0888889E0,-7.111111E-1,-4E-1,-1.7755556E-1,-1.0666667E0,-6.666667E-1,3.5714287E-1,-8.888889E-2,-9.5555556E-1,-7.1088886E-1,3.5714287E-1,-8.888889E-2,-1.1111112E0,-6.2222224E-1,3.5714287E-1,7.2619045E-1,-9.3333334E-1,-6.2222224E-1,-3.1111112E-1,-8.888889E-2,-1.0444444E0,-8.4444445E-1,1E0,-2.2222223E-2,1E0,1E0,1E0,7.2619045E-1,2.9533333E-1,8.4444445E-1,1.2261904E0,5.3333336E-1,2.452381E0,4.888889E-1,1.0888889E0,2.8095238E0,1.2261904E0,6E-1,1.9266666E-1,8.666667E-1,1.2023809E0,6.4444447E-1,6E-1,2.8095238E0,2.7133334E-1,2.6309524E0,8.666667E-1,8.2222223E-1,1.2261904E0,6.888889E-1,1.7976191E0,7.111111E-1,1.2023809E0,6.2222224E-1,1.8809524E0,2.8986735E-2,1.0119047E0,5.777778E-1,7E1,8E-1,-2.251438E-2,-2.14754E-2,-2.0356845E-2,-1.943355E-2,-1.8598104E-2,-1.7351348E-2,-1.7777778E-1,-1.3944334E-2,-1.754431E-2,-1E0,-1.4110572E-2,-1.3089897E-2,2.6190478E-1,2E0,-1.7777778E-1,1.2976191E0,-1.0423861E-2,-9.5555556E-1,-2.3809524E-2,2.857143E-1,-4.1092797E-3,-1.3360336E-2,5.952381E-1,-1.4717034E-3,-3.3333334E-1,-2.3809524E-1,-4.761905E-2,7.1428575E-2,-4E-1,-1.1376062E-2,-1.7777778E-1,1.2976191E0,-1.1469064E-2,-9.5555556E-1,2.3809524E-2,3.2142857E-1,-3.3333334E-1,-1.3887069E-2,-8.888889E-2,0E0,-3.0952382E-1,-2.3809524E-1,3.5714287E-2,1.4285715E-1,3.5714287E-1,4.047619E-1,-1.7777778E-1,7.2619045E-1,7E1,-3.2142857E-1,1E0,-3.3333334E-1,-5.3333336E-1,1E0,-1.7755556E-1,1.3730787E-2,-9.5555556E-1,6.3015595E-3,1E0,1E0,1.8088292E-2,1E0,1.9761242E-2,2.56639E-2,1.9266666E-1,4.888889E-1,7.5555557E-1,9.777778E-1,2.9533333E-1,1.9266666E-1,-1.5780091E-3,2E0,1E0,-9.987153E-3,4.9965265E-3,6.2631294E-3,6.4444447E-1,-1.2672758E-2,7.111111E-1,2.952381E0,1.9266666E-1,1.5822223E-1,5.8924076E-3,9.3333334E-1,3E0,2.0595238E0,5.555556E-1,1.6594842E-2,1.9266666E-1,1.5369958E-2,5.555556E-1,1E0,3.7777779E-1,1.4993327E-2,2.1566065E-2,2.4340935E-2,1.4177778E-1,4.6666667E-1,2.2222222E-1,-8.196751E-3,6E-1,1.0888889E0,1.32318875E-2,1.5199856E-2,2.7133334E-1,1.5142135E-2,5.777778E-1,8.666667E-1,2.9533333E-1,1.0888889E0,4.4444445E-1,2.8809524E0,1.4177778E-1,2.242141E-2,1.9037725E-2,2.0501606E-2,2.3052104E-2,2.5721544E-2,1.9266666E-1,1.3333334E-1,2.529187E-2,8E-1,1.8452381E0,2.775078E-2,3.2829642E-2,3.551568E-2,-1.6066052E-2,-1.5239915E-2,-1.0444444E0,-1.587767E-2,-4.2222223E-1,-1.7433774E-2,-1.0834158E-2,3.5714287E-1,-2.2222222E-1,-8.63078E-3,-4.4444446E-2,1.3214285E0,-8.75896E-3,-2.3809524E-1,-7.777778E-1,-1.1812362E-2,-5.1111114E-1,-1.3288848E-2,-2.22E-1,-1.2924924E-2,-1.0666667E0,-1.1138851E-2,-2.178548E-3,-1.2855873E-2,-8.0733335E-1,-1.2415485E-2,3.5E1,-1.0604018E-2,-5.3333336E-1,-3.9977777E-1,4.2776703E-3,-1.3333334E-1,0E0,1.4075292E-2,-9.31159E-3,-2.3809524E-1,-8.0733335E-1,-1.2237521E-2,-5.1111114E-1,-1.2892613E-2,-4E-1,-3.588E-3,-1.7777778E-1,-2.2222223E-2,-1.4227184E-2,-7.0038054E-4,-1.1111112E0,-1.2795776E-2,-9.111111E-1,-1.0458077E-2,-7.777778E-1,-1.2501459E-2,2E0,-1.1306137E-2,2E0,-1.0390802E-2,2E0,-1.3040167E-2,2E0,7E1,0E0,1.28342295E-2,-1.1111112E0,1E0,1E0,4.624146E-3,4.571218E-3,3.2789034E-3,1E0,1E0,1E0,9.149277E-3,1E0,-5.777778E-1,-3.108889E-1,8.134819E-3,7.6456554E-3,9.900698E-3,-5E-1,4E0,4E0,7.5122137E-3,-4.882222E-1,8.643328E-3,1.5357143E0,1.0357143E0,-9.357271E-3,-8.193409E-3,1E0,7.777778E-1,8.888889E-1,1.0888889E0,1.4177778E-1,4.4444445E-1,6.666667E-2,3.1111112E-1,1E0,7.777778E-1,6.666667E-2,-7.4805887E-3,3.5E1,9.777778E-1,7.604093E-3,9.17424E-3,1.0275548E-2,1.1598097E-2,1.4177778E-1,2.9533333E-1,8.082005E-3,9.827928E-3,7.145366E-3,8.214529E-3,-2.542689E-3,5.3195353E-3,4.6666667E-1,1.2769804E-2,5.9318845E-3,4.5E1,1E0,2.7133334E-1,1.216656E-2,1.2925757E-2,1.3376256E-2,2E0,1.7044174E-2,1.9158091E-2,4.4444446E-2,1.9266666E-1,3.7777779E-1,4.7301194E-3,6.666667E-2,1.0240248E-2,5.555556E-1,7.111111E-1,1.0222223E0,7E1,1.9266666E-1,4.4444445E-1,1.2151682E-2,1.3290508E-2,1.4165631E-2,1E0,1.6304625E-2,1.5140371E-2,1.3333334E-1,1.1475795E-2,1.491148E-2,1.9715881E-2,2.1697331E-2,2.335401E-2,1.4668905E-2,3.7777779E-1,1.1111111E-1,2.7133334E-1,2.7286654E-2,2.4275681E-2,2.724579E-2,2.977242E-2,2.9514858E-2,3.218774E-2,-1.5790533E-2,-1.6683547E-2,-1.1993757E-2,-1.13474885E-2,-1.0297371E-2,-1.6008327E-2,4.5238096E-1,-1.0388119E-2,-6.666667E-2,7.2619045E-1,-1.674237E-3,-1.3412243E-2,-7.6638404E-3,-1.1045438E-2,-8.4444445E-1,-7.111111E-1,2.5E-1,-4.882222E-1,-2.9178995E-3,-1.7755556E-1,-4.5238096E-1,3.5E1,-1.6666667E-1,4.5E1,2.5478792E-5,6.4241694E-4,2E0,-4.882222E-1,3.2009277E-3,2.5039362E-3,5.214054E-3,4.4483505E-3,-2.2222223E-2,7.475343E-3,-8.478651E-3,-1.1965628E-2,-1.6666667E-1,-2.857143E-1,-6.1323047E-3,-5.572036E-3,-5.088004E-3,-4.413165E-3,-2.8810129E-3,-2.3906957E-3,1E0,-1.9031913E-3,-5.7802964E-3,2E0,7E1,-8.888889E-1,-1.4285715E-1,2E0,1E0,7E1,-4E-1,7E1,3.2472408E-3,3.826315E-3,3.8982504E-3,4.6612923E-3,4.71638E-3,5.714286E-1,-2.2222223E-2,7.273538E-3,3.5888124E-3,3E0,2.3955074E-3,5.603993E-4,2E0,1E0,5.8122366E-3,1E0,6.7912824E-3,1E0,9.019837E-3,7.060503E-3,-5.108889E-1,2E0,3.8325994E-3,2E0,4E0,1.0920549E-2,-8.0733335E-1,1.4731916E-2,7E1,-3.690476E-1,-8.0733335E-1,1.2783103E-2,1.7365199E-2,6.152952E-3,-1.2589759E-2,-2.0112854E-3,-1.1074096E-2,-2.467461E-3,-6.4543183E-3,4.5E1,-4.0346594E-3,-4.969185E-3,-4.15607E-3,-3.594202E-3,1.0222223E0,4.5E1,8.888889E-2,2.4444444E-1,3.3333334E-1,-1.990137E-3,7.2276394E-4,1.6839715E-3,3.234062E-3,4.4513615E-3,1E0,7.111111E-1,1E0,1E0,-3.385985E-3,4.9737194E-3,-7.480589E-3,4.515111E-3,4.0833843E-3,5.196674E-3,4.5E1,1.8044196E-3,2.2222222E-1,4E-1,1.0872168E-2,8.087817E-3,1.5415626E-2,1.34321265E-2,1E0,8.775481E-3,1E0,2E0,1.4601808E-2,1.3736546E-2,3.7370493E-5,8.556745E-4,1.7365525E-3,2.2222222E-1,3.4610452E-3,3.912757E-3,6.4452686E-3,7E1,5.2493596E-3,5.9016766E-3,6.2222224E-1,7.3333335E-1,8.731371E-3,9.979465E-3,3E0,6.560364E-3,6.666667E-2,9.375857E-3,1.0385015E-2,1.1525792E-2,1.5434446E-2,1.656577E-2,1.3047689E-2,2.0595238E0,1.6399616E-2,1.7494688E-2,2.0982224E-2,2.1986462E-2,2.3052432E-2,2.436099E-2,-9.252026E-3,-1.6209936E-2,-1.3333334E-1,-9.782221E-3,-7.3687113E-3,-1.447249E-2,-6.067232E-3,-8.2222223E-1,-5.9805047E-3,-7.1133003E-3,-5.7642977E-3,1.4262882E-3,-4.587793E-3,-5.563361E-3,-1.9050362E-3,-2.5994293E-3,-1.1111112E0,-1.0521404E-2,-3.7618743E-3,-3.271417E-3,-1.7385553E-3,-9.987153E-3,-1.0696937E-3,-4.5836E-4,8.1631367E-4,1.5290945E-3,-5.1111114E-1,2.3809524E-1,6.4850873E-3,1E0,7E1,-1.2216026E-2,-6.553512E-3,-7.1155895E-3,-1.5615729E-3,-6.395623E-4,-5E-1,-1.0444444E0,-3.5520336E-3,-2.2357518E-3,-1.7809343E-3,3E0,2E0,2E0,-2.857143E-1,7E1,-1.820483E-4,5.0838204E-4,8.56913E-4,1.5768512E-3,-4.882222E-1,-3.62E-1,-4E-1,2.9375548E-3,5.4223402E-3,3.9585875E-3,6.3641844E-3,2.5243172E-3,-1.1728919E-3,5.140083E-4,1.1065796E-3,2.9392221E-3,2E0,2.1481058E-3,2E0,7E1,-8.2222223E-1,1E0,7.787117E-3,1.0347686E-2,7.3808073E-3,-5E-1,4.4047018E-3,6.8048225E-3,9.597669E-3,1.12928115E-2,7.474855E-3,1.2662577E-2,7.5253085E-3,1.07475715E-2,7.755672E-3,1.39940865E-2,7.28762E-3,1.0251332E-2,1E0,-6.4562806E-3,1E0,-2.066437E-3,-1.3599056E-2,2E0,-6.2694033E-3,-5.3050634E-3,-4.5457897E-3,2.7133334E-1,1E0,3.7777779E-1,7.777778E-1,1.5595238E0,1.9060713E-4,1.0222223E0,1E0,7.111111E-1,1E0,1E0,8.287392E-4,1.3974843E-3,3.7242789E-3,2.7054904E-3,4.018571E-3,4.5948126E-3,7.766616E-3,2E0,9.1309E-3,1.0002131E-2,1E0,1E0,2.925689E-3,2.2071546E-3,9.729718E-3,7.847164E-3,7.482139E-3,7E1,8.360645E-3,7.1637896E-3,-1.4717317E-3,4.051543E-3,7.973225E-3,8.473224E-3,1.736813E-2,1.9088905E-2,-8.384125E-3,-7.814295E-3,-8.4065E-3,3.5E1,-5.6379284E-3,1E0,1.7420046E-3,2.676309E-3,-5E-1,2.326165E-3,1E0,-1.4849229E-2,-7.982597E-3,-7.1125184E-3,-3.596816E-3,-1.0666667E0,-3.7128758E-3,-3.2265997E-3,-2.1050926E-3,1E0,-1.9081961E-3,7E1,1.2830561E-3,-1.1682988E-2,-7.5555557E-1,-7.517064E-4,-8.865768E-4,1.2712961E-5,4E0,-1.4285715E-1,2.6344955E-3,1.257768E-3,1.7249727E-3,-3.7755555E-1,1.3379408E-3,-7.414564E-4,3.5210457E-3,1E0,4E0,4.569516E-3,-4.980171E-4,6.600073E-3,5.838762E-3,3.864277E-3,1.4125307E-3,2E0,-5.3276676E-3,-3.6820055E-3,1E0,-3.4738157E-3,1E0,-8.842804E-3,-4.1087465E-3,1E0,-3.6556583E-3,-3.0327437E-3,3.5555556E-1,-2.6008962E-3,7.111111E-1,8.2222223E-1,4E0,4.5E1,1E0,1E0,-7.1334245E-4,1.3690476E0,1.6477835E-4,4.5E1,-2.4708186E-3,4E0,1E0,4E0,8.847712E-3,7.5E-1,1E0,1.1165968E-2,9.298703E-3,1.0268566E-2,6.154379E-3,6.9397795E-3,-7.856817E-3,-6.7462567E-3,-3.7402408E-3,-4.58027E-3,1.8906972E-3,7.781099E-4,6.461231E-3,-1.17775565E-2,-4.642367E-3,-3.987445E-3,-2.467942E-3,-4.2454023E-3,-1.7567504E-3,-1.0562291E-3,-7.9750386E-4,-1.6051222E-3,1.3597772E-3,3.047874E-3,1.7370336E-4,1.434286E-3,3.1783136E-3,1.8065565E-3,8.8386545E-3,5.4246155E-3,2.5810846E-3,-1.3972935E-3,1.0677773E-3,7.086223E-3,-3.2174268E-3,-2.2951027E-3,-6.7644278E-3,1.7127532E-3,-5.3748456E-3,-4.288687E-3,-2.5664906E-3,-3.0876023E-3,8.096746E-5,8.766392E-4,-9.895937E-4,-2.355106E-3,5.8487867E-4,-1.0558979E-4,1.1346518E-3,2.2003427E-3,8.737466E-4,1.6023003E-3,1.6172588E-3,3.222382E-3,-2.3750443E-4,6.055435E-4,1.3613086E-3,2.939044E-4,-1.3172489E-3,-2.3039298E-3,-1.4054183E-3,-6.705221E-4,2.6255238E-4,-1.0074927E-3,7.5112106E-3,9.008153E-3,9.6947355E-3,1.1061843E-2],"split_indices":[2,3,3,4,4,4,4,5,5,5,5,12,5,5,5,2,2,2,2,2,2,2,2,5,2,12,12,2,12,12,12,2,2,2,2,2,2,2,2,2,2,2,2,2,2,2,2,2,2,2,5,2,12,2,12,12,12,2,12,2,12,2,12,2,2,2,2,2,2,2,2,2,2,12,2,2,2,12,2,2,2,12,12,2,2,2,2,2,2,9,2,7,7,7,12,2,2,12,2,12,2,2,12,12,2,2,2,12,2,2,12,2,12,2,2,12,2,12,2,12,2,12,0,12,2,3,2,0,0,0,0,0,0,2,0,0,2,0,0,12,5,2,12,0,2,12,12,0,0,12,0,12,12,12,12,2,0,2,12,0,2,12,12,2,0,2,2,12,12,12,12,12,12,2,12,3,12,9,12,2,6,2,0,2,0,9,9,0,9,0,0,2,2,2,2,2,2,0,5,9,0,0,0,2,0,2,12,2,2,0,2,1,12,2,0,2,0,2,9,2,0,0,0,2,2,2,0,2,2,0,0,2,0,2,2,2,2,2,12,2,0,0,0,0,0,2,2,0,2,12,0,0,0,0,0,2,0,2,0,0,12,2,0,2,12,0,12,2,0,2,0,2,0,2,0,0,0,2,0,3,0,2,2,0,2,2,0,0,12,2,0,2,0,2,0,2,2,0,0,2,0,2,0,2,0,5,0,5,0,5,0,5,3,2,0,2,6,7,0,0,0,6,7,0,0,7,2,2,0,0,0,12,1,1,0,2,0,12,12,0,0,9,2,2,2,2,2,2,2,9,2,2,0,3,2,0,0,0,0,2,2,0,0,0,0,0,0,2,0,0,3,9,2,0,0,0,5,0,0,2,2,2,0,2,0,2,2,2,3,2,2,0,0,0,2,0,0,2,0,0,0,0,0,0,2,2,2,0,0,0,0,0,0,0,0,0,0,0,0,12,0,2,12,0,0,0,0,2,2,12,2,0,2,12,3,12,3,0,0,5,2,0,0,0,0,2,0,0,0,12,12,0,0,0,0,0,0,10,0,0,5,3,2,12,5,0,3,2,3,0,0,0,0,0,12,2,0,0,1,0,0,1,10,0,9,0,6,0,0,2,8,0,1,1,0,2,0,3,12,2,0,0,0,0,0,0,0,0,3,0,0,0,0,2,3,2,2,2,0,0,0,0,0,7,2,7,9,0,0,0,0,0,0,3,0,2,2,0,0,0,0,7,0,9,5,0,0,0,0,0,2,0,0,0,3,0,0,2,2,0,0,1,0,2,0,0,0,0,0,0,12,0,0,0,0,0,0,0,0,2,0,0,0,0,2,0,0,0,0,0,0,0,0,2,0,0,0,0,0,0,0,0,0,2,12,0,9,3,0,0,0,0,0,12,2,0,0,0,1,5,1,12,3,0,0,0,0,2,2,2,0,0,0,0,0,0,0,0,0,8,0,1,3,2,9,0,0,0,12,0,0,0,0,0,0,0,0,0,0,0,0,7,0,2,0,0,1,0,0,0,2,9,2,2,12,0,2,9,2,7,7,0,0,0,0,0,0,0,5,0,0,7,9,0,0,0,0,0,3,0,0,0,0,0,0,0,0,0,0,0,3,0,7,0,0,12,0,7,0,0,0,0,2,0,0,0,9,0,3,0,0,2,0,0,0,1,12,0,0,0,2,0,0,0,0,1,0,0,0,0,0,0,1,0,0,9,0,10,0,0,9,0,0,2,0,2,2,1,3,7,7,0,12,0,3,0,1,4,1,0,12,9,0,0,0,0,0,0,0,0,0,0,0,0,0,0,0,0,0,0,0,0,0,0,0,0,0,0,0,0,0,0,0,0,0,0,0,0,0,0,0,0,0,0,0,0,0,0,0,0,0,0,0,0,0,0,0,0,0,0,0,0,0,0,0,0,0,0,0],"split_type":[0,0,0,0,0,0,0,0,0,0,0,0,0,0,0,0,0,0,0,0,0,0,0,0,0,0,0,0,0,0,0,0,0,0,0,0,0,0,0,0,0,0,0,0,0,0,0,0,0,0,0,0,0,0,0,0,0,0,0,0,0,0,0,0,0,0,0,0,0,0,0,0,0,0,0,0,0,0,0,0,0,0,0,0,0,0,0,0,0,0,0,0,0,0,0,0,0,0,0,0,0,0,0,0,0,0,0,0,0,0,0,0,0,0,0,0,0,0,0,0,0,0,0,0,0,0,0,0,0,0,0,0,0,0,0,0,0,0,0,0,0,0,0,0,0,0,0,0,0,0,0,0,0,0,0,0,0,0,0,0,0,0,0,0,0,0,0,0,0,0,0,0,0,0,0,0,0,0,0,0,0,0,0,0,0,0,0,0,0,0,0,0,0,0,0,0,0,0,0,0,0,0,0,0,0,0,0,0,0,0,0,0,0,0,0,0,0,0,0,0,0,0,0,0,0,0,0,0,0,0,0,0,0,0,0,0,0,0,0,0,0,0,0,0,0,0,0,0,0,0,0,0,0,0,0,0,0,0,0,0,0,0,0,0,0,0,0,0,0,0,0,0,0,0,0,0,0,0,0,0,0,0,0,0,0,0,0,0,0,0,0,0,0,0,0,0,0,0,0,0,0,0,0,0,0,0,0,0,0,0,0,0,0,0,0,0,0,0,0,0,0,0,0,0,0,0,0,0,0,0,0,0,0,0,0,0,0,0,0,0,0,0,0,0,0,0,0,0,0,0,0,0,0,0,0,0,0,0,0,0,0,0,0,0,0,0,0,0,0,0,0,0,0,0,0,0,0,0,0,0,0,0,0,0,0,0,0,0,0,0,0,0,0,0,0,0,0,0,0,0,0,0,0,0,0,0,0,0,0,0,0,0,0,0,0,0,0,0,0,0,0,0,0,0,0,0,0,0,0,0,0,0,0,0,0,0,0,0,0,0,0,0,0,0,0,0,0,0,0,0,0,0,0,0,0,0,0,0,0,0,0,0,0,0,0,0,0,0,0,0,0,0,0,0,0,0,0,0,0,0,0,0,0,0,0,0,0,0,0,0,0,0,0,0,0,0,0,0,0,0,0,0,0,0,0,0,0,0,0,0,0,0,0,0,0,0,0,0,0,0,0,0,0,0,0,0,0,0,0,0,0,0,0,0,0,0,0,0,0,0,0,0,0,0,0,0,0,0,0,0,0,0,0,0,0,0,0,0,0,0,0,0,0,0,0,0,0,0,0,0,0,0,0,0,0,0,0,0,0,0,0,0,0,0,0,0,0,0,0,0,0,0,0,0,0,0,0,0,0,0,0,0,0,0,0,0,0,0,0,0,0,0,0,0,0,0,0,0,0,0,0,0,0,0,0,0,0,0,0,0,0,0,0,0,0,0,0,0,0,0,0,0,0,0,0,0,0,0,0,0,0,0,0,0,0,0,0,0,0,0,0,0,0,0,0,0,0,0,0,0,0,0,0,0,0,0,0,0,0,0,0,0,0,0,0,0,0,0,0,0,0,0,0,0,0,0,0,0,0,0,0,0,0,0,0,0,0,0,0,0,0,0,0,0,0,0,0,0,0,0,0,0,0,0,0,0,0,0,0,0,0,0,0,0,0,0,0,0,0,0,0,0,0,0,0,0,0,0,0,0,0,0,0,0,0,0,0,0,0,0,0,0,0,0,0,0,0,0,0,0,0,0,0,0,0,0,0,0,0,0,0,0,0,0,0,0,0,0,0,0,0,0,0,0,0,0,0,0,0,0,0,0,0,0,0,0,0,0,0,0,0,0,0,0,0,0,0,0,0,0,0,0,0,0,0,0,0,0,0,0,0,0,0,0,0,0,0,0,0,0,0,0,0,0,0,0,0,0,0],"sum_hessian":[3.69363E5,1.86564E5,1.82799E5,1.21773E5,6.4791E4,1.12749E5,7.005E4,7.935E4,4.2423E4,5.4168E4,1.0623E4,7.7237E4,3.5512E4,4.7243E4,2.2807E4,2.478E4,5.457E4,1.4265E4,2.8158E4,1.8868E4,3.53E4,6.521E3,4.102E3,7.1203E4,6.034E3,1.4034E4,2.1478E4,1.8884E4,2.8359E4,9.304E3,1.3503E4,9.839E3,1.4941E4,2.2399E4,3.2171E4,9.192E3,5.073E3,1.4342E4,1.3816E4,1.1129E4,7.739E3,1.8866E4,1.6434E4,3.313E3,3.208E3,1.565E3,2.537E3,2.0367E4,5.0836E4,1.665E3,4.369E3,1.2513E4,1.521E3,1.7944E4,3.534E3,9.376E3,9.508E3,2.3552E4,4.807E3,8.08E3,1.224E3,1.0266E4,3.237E3,6.16E3,3.679E3,8.283E3,6.658E3,1.2488E4,9.911E3,1.6091E4,1.608E4,2.803E3,6.389E3,1.415E3,3.658E3,6.602E3,7.74E3,6.608E3,7.208E3,3.992E3,7.137E3,2.568E3,5.171E3,8.228E3,1.0638E4,7.381E3,9.053E3,1.131E3,2.182E3,1.251E3,1.957E3,5.82E2,9.83E2,2.63E2,2.274E3,1.0654E4,9.713E3,2.857E4,2.2266E4,2.3E1,1.642E3,7.34E2,3.635E3,7.262E3,5.251E3,6.45E2,8.76E2,1.1181E4,6.763E3,1.943E3,1.591E3,8.539E3,8.37E2,8.246E3,1.262E3,1.3695E4,9.857E3,2.626E3,2.181E3,4.615E3,3.465E3,6.32E2,5.92E2,5.273E3,4.993E3,1.446E3,1.791E3,2.364E3,3.796E3,2.412E3,1.267E3,4.06E3,4.223E3,5.762E3,8.96E2,1.326E3,1.1162E4,4.85E3,5.061E3,1.1199E4,4.892E3,7.922E3,8.158E3,4.97E2,2.306E3,2.771E3,3.618E3,1.404E3,1.1E1,2.782E3,8.76E2,4.751E3,1.851E3,5.053E3,2.687E3,6.595E3,1.3E1,5.426E3,1.782E3,1.79E2,3.813E3,4.501E3,2.636E3,2.548E3,2E1,5.139E3,3.2E1,6.747E3,1.481E3,7.629E3,3.009E3,5.499E3,1.882E3,6.239E3,2.814E3,4.61E2,6.7E2,5.56E2,1.626E3,6.9E2,5.61E2,1.812E3,1.45E2,3.27E2,2.55E2,6.74E2,3.09E2,2.1E2,5.3E1,2.241E3,3.3E1,6.629E3,4.025E3,3.703E3,6.01E3,2.6416E4,2.154E3,2.858E3,1.9408E4,2E1,3E0,9.27E2,7.15E2,7.31E2,3E0,2.45E3,1.185E3,6.724E3,5.38E2,1.515E3,3.736E3,1.6E1,6.29E2,4.07E2,4.69E2,1.0456E4,7.25E2,3.371E3,3.392E3,1.484E3,4.59E2,1.064E3,5.27E2,4.902E3,3.637E3,8.34E2,3E0,5.975E3,2.271E3,5.98E2,6.64E2,1.2782E4,9.13E2,4.952E3,4.905E3,1.173E3,1.453E3,6.74E2,1.507E3,4.334E3,2.81E2,1.493E3,1.972E3,2.29E2,4.03E2,4.631E3,6.42E2,2.312E3,2.681E3,1.117E3,3.29E2,9.95E2,7.96E2,2.182E3,3.58E3,3.994E3,7.168E3,1.1179E4,2E1,2.372E3,2.52E3,6.243E3,1.679E3,8.013E3,1.45E2,1.403E3,9.03E2,2.726E3,4.5E1,3.586E3,3.2E1,2.763E3,1.9E1,4.729E3,2.2E1,1.835E3,1.6E1,5.031E3,2.2E1,2.672E3,1.5E1,4.243E3,2.352E3,3.532E3,1.894E3,1.716E3,6.6E1,2.635E3,1.178E3,4.46E3,4.1E1,2.605E3,3.1E1,2.013E3,5.35E2,3.82E3,1.319E3,2.5E1,7E0,6.727E3,2E1,1.474E3,7E0,7.616E3,1.3E1,3.001E3,8E0,5.493E3,6E0,1.878E3,4E0,2.775E3,3.464E3,2.786E3,2.8E1,2.43E2,2.18E2,6.33E2,3.7E1,3.04E2,2.52E2,5.06E2,1.12E3,2.39E2,4.51E2,3.21E2,2.4E2,1.522E3,2.9E2,2.78E2,4.9E1,4.88E2,1.86E2,1.91E2,1.18E2,3.5E1,1.8E1,4.037E3,2.592E3,3.134E3,8.91E2,1.86E3,1.843E3,3.256E3,2.754E3,1.6241E4,1.0175E4,1.289E3,8.65E2,1.107E4,8.338E3,1.7E1,3E0,6E0,7.25E2,8.52E2,1.598E3,6.32E2,5.53E2,2.661E3,4.063E3,3.11E2,2.27E2,3.166E3,5.7E2,5E0,1.1E1,3.1E2,3.19E2,5E0,4.02E2,4.943E3,5.513E3,1.67E3,1.701E3,1.015E3,2.377E3,6.88E2,7.96E2,2.16E3,2.742E3,3.328E3,3.09E2,3.84E2,4.5E2,1.77E3,4.205E3,2.213E3,5.8E1,7.795E3,4.987E3,2.26E3,2.692E3,3.464E3,1.441E3,4.86E2,6.87E2,1.432E3,2.1E1,5.1E1,6.23E2,1.008E3,4.99E2,1.435E3,2.899E3,2.844E3,1.787E3,2.54E2,3.88E2,1.972E3,7.09E2,6.59E2,4.58E2,1.734E3,2.26E3,9.796E3,1.383E3,2.513E3,7E0,4.909E3,1.334E3,4.319E3,3.694E3,1.38E2,7E0,8.81E2,2.2E1,1.257E3,1.469E3,2.206E3,1.38E3,1.542E3,1.221E3,1.356E3,3.373E3,1.826E3,3.205E3,7.8E2,1.892E3,1.457E3,2.786E3,6.39E2,1.713E3,1.21E3,6.84E2,1.187E3,5.29E2,1.155E3,2.3E1,1.252E3,3.208E3,1.689E3,9.16E2,7.7E2,1.243E3,2.331E3,1.489E3,7.74E2,5.45E2,1.43E2,6.584E3,4.36E2,1.038E3,3.152E3,4.464E3,1.484E3,1.517E3,2.653E3,2.84E3,9.04E2,9.74E2,1.308E3,1.467E3,1.642E3,1.822E3,2.165E3,6.21E2,1.1E1,2.32E2,1.2E2,9.8E1,3.32E2,3.01E2,2.84E2,2.22E2,6.06E2,5.14E2,8.7E1,1.52E2,1.89E2,1.32E2,3.7E1,2.03E2,6.31E2,8.91E2,6.4E1,4.24E2,1.1E2,7.6E1,1.26E2,6.5E1,3.1E1,4E0,4.033E3,4E0,2.589E3,3E0,1.209E3,6.51E2,3.52E2,1.491E3,1.362E3,1.894E3,2.717E3,3.7E1,7.923E3,8.318E3,8.012E3,2.163E3,2.78E2,1.011E3,5.21E2,3.44E2,4.946E3,6.124E3,4.702E3,3.636E3,7E0,1E1,3E0,3E0,4.43E2,2.82E2,1.881E3,7.8E2,1.182E3,2.881E3,2.69E2,4.1E1,2.64E2,1.38E2,2.146E3,2.797E3,1.576E3,3.937E3,1.462E3,9.15E2,3.42E2,1.818E3,9.77E2,1.765E3,1.663E3,1.665E3,7.3E1,3.11E2,1.158E3,6.12E2,1.908E3,2.297E3,1.644E3,5.69E2,1.8E1,4E1,5.522E3,2.273E3,4.073E3,9.14E2,9.08E2,5.33E2,3.5E1,1.397E3,1.946E3,9.53E2,1.417E3,1.427E3,9.23E2,8.64E2,4.9E3,9E0,3.962E3,3.57E2,3.69E3,4E0,2.58E2,9.99E2,1.082E3,3.87E2,2.202E3,4E0,6.43E2,7.37E2,5.59E2,6.62E2,1.346E3,1E1,9.42E2,2.431E3,1.823E3,3E0,1.984E3,1.221E3,6.89E2,7.68E2,1.761E3,1.025E3,1.168E3,1.9E1,1.232E3,2E1,1.561E3,1.647E3,3.77E2,3.97E2,3.333E3,3.251E3,2.26E2,2.1E2,6.52E2,3.86E2,3.135E3,1.7E1,2.171E3,2.293E3,5.14E2,9.7E2,7.15E2,8.02E2,1.206E3,1.447E3,1.361E3,1.479E3,1.711E3,1.11E2,2.102E3,6.3E1,1.07E2,1.25E2,8E1,2.52E2,1.51E2,1.5E2,1.18E2,1.04E2,2.88E2,2.26E2,9.8E1,9.1E1,9.3E1,3.9E1,4.1E1,1.62E2,4.51E2,1.8E2,1.8E1,4.6E1,5.4E1,5.6E1,1.3E1,6.3E1,5E1,7.6E1,3.82E2,2.69E2,1.299E3,1.418E3,1.1E1,2.6E1,3.582E3,4.341E3,4.472E3,3.846E3,1.946E3,6.066E3,1.966E3,2.98E3,1.714E3,4.41E3,2.28E3,2.422E3,1.373E3,2.263E3,1.187E3,6.94E2,1.84E2,9.98E2,1.557E3,1.324E3,8.94E2,1.252E3,7.03E2,8.73E2,2.285E3,1.652E3,4.22E2,1.343E3,9.5E1,2.16E2,3.03E2,1.605E3,2.71E2,2.026E3,1E1,8E0,1.541E3,3.981E3,1.001E3,3.96E2,7.89E2,3.173E3,1.68E2,8.31E2,1.62E2,1.184E3,6.43E2,1.118E3,8.8E2,1.45E2,1E1,9E0,6.67E2,5.65E2,8.65E2,2.468E3,1.395E3,1.856E3,1.96E2,1.9E2,1.605E3,1.53E3,4E0,1.3E1,1.047E3,1.124E3,1.118E3,1.175E3,5.27E2,6.79E2,7.18E2,7.29E2,6.36E2,7.25E2,1.02E2,4.9E1,4E1,7.8E1,5E1,5.4E1,3E0,2.85E2,1.23E2,1.03E2,1.3E1,2.6E1,2.55E2,1.27E2,7.7E2,5.29E2,7E0,1.9E1,3.265E3,5.81E2,1.007E3,9.39E2,2.851E3,3.215E3,1.273E3,6.93E2,2.455E3,5.25E2,3.706E3,7.04E2,1.002E3,1.278E3,1.783E3,6.39E2,5.41E2,8.32E2,1.051E3,1.212E3,7.15E2,5.37E2,1.126E3,1.159E3,4.62E2,1.19E3,7.58E2,8.47E2,2.38E2,5.93E2,6.39E2,5.45E2,2.78E2,6.02E2,7E0,3E0,5.66E2,1.902E3,1E2,9E1,7.25E2,8.05E2,3.07E2,7.4E2,3.9E2,1.37E2,2.46E2,4.33E2,3.63E2,3.62E2,2.6E1,5.2E1,3.4E1,1.6E1,6E0,2E1,3.9E2,3.8E2,3E0,4E0,2.76E2,3.05E2,9.08E2,1.943E3,9.66E2,3.07E2,2.03E2,4.9E2,1.932E3,5.23E2,3.39E2,1.86E2,1.71E3,1.996E3,3.06E2,3.98E2,1.022E3,2.56E2,4.22E2,2.17E2,6.43E2,1.89E2,4.93E2,5.58E2,9.96E2,2.16E2,3.72E2,1.65E2,4.77E2,6.49E2],"tree_param":{"num_deleted":"0","num_feature":"13","num_nodes":"849","size_leaf_vector":"1"}},{"base_weights":[-7.774985E-6,-7.935413E-2,8.083946E-2,-1.2482347E-1,6.040441E-3,1.5524057E-2,1.8562552E-1,-1.8269011E-1,-1.6821878E-2,-1.892388E-2,1.3349685E-1,-3.6050893E-2,1.2774047E-1,1.281372E-1,3.0439672E-1,-2.4048907E-1,-1.5642212E-1,-7.133749E-2,1.0606271E-2,-7.4665375E-2,1.0822164E-2,8.763971E-2,2.0735186E-1,-4.9928863E-2,8.106298E-2,7.461366E-2,1.6230647E-1,7.318818E-2,1.6500951E-1,2.476663E-1,3.437023E-1,-2.752091E-1,-2.1760446E-1,-1.9519106E-1,-1.2954418E-1,-9.003849E-2,-3.7323553E-2,-2.4021296E-2,4.6850476E-2,-9.7616084E-2,-3.9291125E-2,-2.4678843E-2,5.1542237E-2,4.5437217E-2,1.1650057E-1,1.3226908E-1,2.53826E-1,-9.915459E-2,-2.9249026E-2,3.9012592E-2,1.0695095E-1,6.185446E-2,1.815716E-1,1.431444E-1,2.5214085E-1,4.0083688E-2,1.0590797E-1,1.4852701E-1,2.4562372E-1,2.3050767E-1,3.382699E-1,3.202417E-1,4.175902E-1,-2.8378704E-1,-2.604441E-1,-2.3261613E-1,-1.9886698E-1,-2.1027398E-1,-1.7613839E-1,-1.4910486E-1,-1.1010989E-1,-1.0810243E-1,-7.55491E-2,-5.505705E-2,-3.0472128E-2,-4.2584807E-2,-8.184144E-3,2.5878718E-2,6.589712E-2,-1.1927356E-1,-8.629904E-2,-5.757632E-2,-3.1410813E-2,-4.3219935E-2,-5.746276E-3,3.1443436E-2,6.801675E-2,1.9733135E-2,6.466435E-2,9.711549E-2,1.3504612E-1,9.328415E-2,1.5437916E-1,2.1728706E-1,2.5720504E-1,-1.4090583E-1,-5.3659335E-2,-5.619873E-2,-2.5922426E-3,1.7097991E-2,5.5396028E-2,5.7343934E-2,1.1543291E-1,4.1631073E-2,8.9668594E-2,1.4657508E-1,2.0155738E-1,1.2105753E-1,1.7245209E-1,2.2410889E-1,2.906871E-1,3.2209054E-2,1.1860084E-1,9.3340866E-2,1.8564028E-1,1.2696555E-1,1.7847654E-1,2.1597958E-1,2.7503082E-1,2.0993268E-1,2.5534156E-1,3.0303982E-1,3.6612236E-1,2.9760808E-1,3.4987634E-1,3.9450064E-1,4.4781062E-1,-2.0995514E-2,-1.9984553E-2,-1.8923298E-2,-1.812415E-2,-1.7263092E-2,-1.6076922E-2,-2.0162089E-1,-1.2983781E-2,-1.6384678E-2,-1.48983225E-2,-1.3106101E-2,-1.2151009E-2,-1.5440401E-1,-1.3691196E-1,-1.2073826E-1,-9.9628605E-2,-1.2431503E-1,-9.951596E-2,-7.470886E-2,-1.2696253E-2,-3.8856335E-3,-1.1553146E-2,-3.805558E-2,-2.3836048E-2,-4.1533828E-2,-1.3808508E-1,-1.5629107E-2,5.7919044E-3,2.628718E-2,-1.1063304E-2,5.836433E-2,8.905705E-2,-1.3919127E-1,-1.166794E-1,-8.5304156E-2,-1.1742632E-2,-5.6421354E-2,-1.3557792E-2,-3.0750625E-2,-1.4030834E-1,-4.2163488E-2,-1.20060295E-2,-1.24806585E-2,8.247698E-3,3.176736E-2,-1.2256874E-2,6.0560692E-2,8.4369205E-2,2.108155E-2,-1.0900694E-2,5.0685868E-2,7.269472E-2,8.8009246E-2,1.09812886E-1,1.3104491E-1,1.2883095E-2,1.02827236E-1,5.7485527E-3,1.7112157E-1,1.1901106E-1,1.6467595E-2,1.6469257E-1,1.8345159E-2,2.3291234E-2,-1.55172E-1,-1.1768904E-1,-6.867705E-2,-4.0835753E-2,-6.538669E-2,-3.770488E-2,-2.3343962E-2,2.7676485E-3,-1.2197608E-1,1.8343685E-2,4.3793764E-2,4.5796796E-3,5.848308E-2,-1.1992077E-2,9.084391E-2,1.2919375E-1,3.6008917E-2,1.14443876E-1,5.5282223E-3,9.480304E-2,2.647791E-2,1.492243E-1,1.6462916E-3,2.024808E-1,1.1057093E-1,1.3111421E-1,1.6140154E-1,1.830373E-1,2.1038531E-1,1.7707253E-2,2.8503716E-1,2.4766687E-2,1.953578E-2,4.94153E-2,1.1951938E-1,-7.756486E-3,8.5154645E-2,1.1540373E-1,1.2343013E-2,1.4139399E-2,1.2208093E-1,1.4026179E-2,1.7257436E-1,2.027417E-1,2.2503252E-1,1.4422981E-2,2.5732738E-1,2.104916E-2,2.0699966E-1,1.9902088E-2,1.748186E-2,2.6541582E-1,2.2670863E-2,2.0298593E-2,2.4826672E-2,2.73444E-2,2.9190347E-1,3.307865E-1,3.3994377E-1,3.7829903E-1,4.0306196E-1,2.6112331E-2,3.082195E-2,3.2986943E-2,-1.4950251E-2,-1.4126389E-2,-1.5424927E-1,-1.6174184E-2,-1.0079896E-2,-9.538731E-3,-1.23030975E-1,-8.010879E-3,-1.0090852E-1,-2.7866082E-2,-1.0373565E-2,-8.447149E-3,-9.8086536E-2,-1.1324729E-2,-7.962074E-2,-4.959911E-3,-2.6609567E-3,-1.1556959E-2,-2.3514137E-2,-1.0315225E-2,-4.69802E-2,-1.9557446E-3,-1.1645508E-2,-9.6113086E-2,-1.5013949E-2,-1.0778105E-2,6.6435537E-3,-9.892063E-3,2.1596208E-2,2.474694E-3,5.8519293E-2,-1.2013432E-2,8.5655026E-2,1.2897498E-2,-1.0073487E-2,-6.0964353E-2,-1.189367E-1,-7.5680884E-3,-9.145024E-2,-5.3168214E-3,-4.2352425E-3,-3.4023875E-3,-3.453137E-2,-1.4035782E-3,-1.3433686E-2,-2.8041247E-4,-4.826257E-2,-2.7484195E-2,-1.2075876E-2,-1.157397E-2,8.75824E-3,-1.0539692E-2,2.6985E-2,4.5835238E-2,5.5322073E-2,6.47806E-2,8.351464E-2,1.1749226E-2,9.998639E-3,2.831534E-2,4.102693E-3,3.016135E-3,5.6839143E-3,6.497888E-2,6.7633684E-3,8.052382E-2,8.414085E-3,9.9579066E-2,1.3572244E-1,7.640516E-3,9.728616E-2,9.492445E-3,1.817107E-1,1.4253318E-1,1.0566196E-1,1.4484653E-1,7.7524316E-3,1.3692074E-2,-1.1650047E-2,-1.028832E-2,-8.6698625E-3,-7.5622313E-3,-7.9744965E-2,-6.0799338E-2,-4.014962E-2,-9.289699E-3,-7.452386E-2,-5.6721568E-2,-3.1129748E-3,-2.5688324E-3,-1.9155511E-3,-1.4855217E-3,9.119077E-3,-5.5840523E-3,-1.0766989E-2,-1.980636E-3,6.2782253E-4,2.1087455E-2,-4.949223E-3,3.1856017E-3,3.698978E-3,5.005303E-3,5.830386E-3,7.064449E-3,1.1925258E-1,1.4227079E-1,2.2238491E-2,5.36735E-2,7.418792E-3,9.194423E-3,6.6261357E-3,1.0703994E-1,-2.3909418E-3,4.8746048E-3,1.53046E-1,7.3898E-3,1.9196227E-1,1.5453125E-2,1.06396206E-1,8.1479E-3,1.2800881E-1,9.8508075E-3,1.6566864E-1,1.5478963E-1,1.8030155E-1,1.4239181E-2,1.3856216E-2,1.5548518E-2,1.9457946E-2,2.0949056E-2,9.248051E-3,2.769038E-2,3.2697986E-3,3.8909162E-3,7.5763045E-3,9.399836E-3,5.0240145E-3,9.149449E-2,1.166412E-1,6.1210427E-2,1.1220021E-1,1.3740027E-1,1.1541726E-2,1.785498E-1,1.4155004E-2,1.5396503E-2,1.5609255E-2,1.7164066E-2,1.3626067E-2,1.8633727E-2,1.358539E-2,1.547305E-2,1.8796619E-2,2.0323813E-2,2.7881864E-1,3.0942804E-1,2.543007E-2,2.2869507E-2,2.3656841E-2,2.5091808E-2,2.5920024E-2,2.7737455E-2,2.7458034E-2,3.0091872E-2,-1.1161444E-2,-1.0704744E-2,-1.19729966E-1,-9.678065E-3,-1.0489857E-1,-6.8860934E-3,-1.477761E-3,-1.192059E-2,-7.6301647E-3,-6.7737936E-3,-7.9776466E-2,1.3445732E-3,-2.3962153E-2,3.5608623E-2,-5.616033E-2,-4.336583E-2,-4.3503814E-3,-8.584054E-3,-1.5928643E-3,-1.0841238E-2,6.2996034E-5,8.514414E-3,1.4793598E-2,2.5125433E-2,4.010696E-3,6.314125E-2,8.112567E-2,6.8506636E-3,-1.0023826E-2,6.6266186E-3,-8.472559E-3,-1.046743E-2,-9.78822E-2,-8.793653E-2,-3.7362173E-2,-2.1576912E-3,-5.521432E-2,-4.5991343E-2,-3.1228507E-2,-2.3876105E-2,-1.9673921E-2,-8.939846E-3,1.885335E-4,1.4620881E-2,2.0979362E-2,3.2521855E-2,2.9593804E-3,3.5657438E-3,3.5928402E-3,4.289644E-3,6.0269482E-2,6.8743944E-2,8.047951E-2,6.7339004E-3,-1.1528599E-3,2.203314E-2,1.8572322E-3,3.6827167E-3,7.626539E-2,4.157902E-3,4.651964E-3,8.753664E-2,7.907304E-3,8.265173E-2,9.002762E-3,9.955894E-3,5.993576E-3,1.0899213E-1,1.4396563E-1,1.3413649E-2,1.20357454E-1,1.7597312E-1,5.827841E-3,8.153954E-3,1.1673235E-2,7.5986045E-3,-8.3810054E-2,-7.230477E-2,-3.9360956E-3,-4.58097E-3,-4.4857036E-2,-1.9606526E-3,-5.8038784E-3,-4.9443785E-3,-4.241601E-3,-3.9324253E-3,2.3287365E-3,1.464958E-2,-1.182757E-3,-1.5847454E-2,1.8285693E-3,9.743017E-4,8.278425E-3,9.082217E-3,9.579692E-3,1.08897E-2,1.6684799E-2,2.5171808E-3,3.599937E-3,5.777148E-2,6.526131E-3,7.991005E-3,1.0143581E-2,1.1591704E-2,1.4299767E-2,1.2549978E-2,7.2423113E-3,1.1005655E-1,1.2184378E-1,1.3241878E-1,1.5903595E-1,1.224014E-2,1.0088443E-2,1.1290455E-2,1.2307901E-2,1.3167574E-2,8.741438E-4,3.379943E-3,1.6080986E-3,3.0573873E-2,6.4322115E-3,7.014837E-3,7.992793E-3,9.327642E-3,4.5004673E-2,7.98371E-3,1.0861632E-1,8.660357E-3,9.647329E-3,1.0688729E-2,1.2461297E-2,1.3017735E-2,1.9475037E-2,2.0449575E-2,2.1453056E-2,2.2652546E-2,-8.562898E-3,-1.4813506E-2,-1.02833524E-1,-9.059824E-3,-5.5874093E-3,-8.79453E-2,-2.7925564E-2,-1.3608431E-3,-3.3592896E-3,5.004429E-3,-5.0919433E-3,-3.8758067E-3,-2.9453493E-3,-3.4117885E-3,-6.0113706E-3,5.466145E-3,-1.3952599E-2,-4.0635734E-4,4.1410077E-4,9.793948E-4,7.031177E-4,1.3740856E-3,3.020242E-2,1.6359994E-2,4.7917156E-3,4.0439093E-3,6.0183685E-3,-1.01930924E-1,-6.4699347E-3,-7.2875726E-3,-5.9818393E-3,-6.491927E-3,-2.506363E-3,-3.0337933E-3,-5.2150195E-3,-5.3549465E-2,-3.5296772E-3,-3.0554258E-3,-2.5918916E-2,-3.725818E-2,-2.062285E-3,-1.348607E-3,-1.8249727E-3,-9.762039E-4,-1.3260042E-2,-4.8311832E-3,9.0391E-3,1.4016295E-3,1.53677855E-2,2.3300113E-2,2.6885707E-2,2.6980771E-3,4.4762203E-3,3.5694547E-3,4.593002E-3,5.2025034E-3,5.8752806E-3,3.2970786E-2,-8.961707E-3,1.1352758E-3,4.0242817E-2,7.896151E-4,6.4230844E-2,6.9123516E-3,7.0068776E-3,5.598456E-3,4.026458E-3,6.617099E-3,8.85911E-3,6.3726637E-3,6.5907817E-3,1.1542093E-2,7.0467484E-3,1.4252625E-1,7.0782336E-3,1.3482657E-2,-8.8904746E-2,-5.596604E-3,-6.307142E-2,-6.136199E-3,-3.4033624E-3,-3.975705E-2,-6.371064E-3,8.093798E-3,9.976297E-3,2.6442017E-2,-6.045659E-3,3.2642074E-3,-2.755326E-2,-9.115125E-3,8.564747E-3,1.4370824E-3,4.6661864E-3,3.8276995E-3,1.1480403E-1,7.395998E-3,1.2674133E-1,1.1229133E-1,9.99527E-3,9.253096E-3,1.4601393E-1,1.1985457E-2,-3.7233025E-4,6.3336396E-4,2.7053661E-3,2.0276892E-3,1.0270837E-2,4.6298676E-3,7.460464E-3,7.900444E-3,-7.836408E-3,-7.243127E-3,-7.878486E-3,-5.804278E-3,-1.8070071E-3,-2.9619075E-3,-4.878091E-4,-1.1691543E-3,1.6078342E-3,2.4841412E-3,1.8085924E-3,1.32395355E-2,3.117427E-4,-1.389213E-2,-5.8049683E-2,-3.5006315E-3,-2.5671455E-3,-2.0672746E-2,-3.9803954E-3,-2.3827434E-3,-7.548196E-4,-1.3643139E-3,-7.938212E-4,8.560762E-5,9.247749E-4,-1.2792421E-4,9.361804E-3,1.556242E-3,2.65272E-2,1.0807975E-3,1.4501906E-3,3.287804E-2,3.3242898E-3,-8.934072E-4,3.0527165E-4,-1.8773604E-3,1.1352976E-3,4.1214763E-3,3.1371287E-3,5.879443E-3,7.4467314E-3,1.2104078E-2,-5.5087293E-3,-6.8792887E-3,-5.0690104E-3,-3.3084736E-3,-3.581378E-2,-3.2673213E-3,3.5633647E-3,-2.4660671E-2,5.615897E-3,2.0013483E-2,2.3213206E-4,1.4211795E-2,1.4212863E-2,3.5793167E-2,-1.26043195E-2,-8.766856E-5,-9.5484406E-4,5.0006824E-4,-2.0321612E-3,2.6531338E-3,-1.2627214E-2,4.777088E-3,-2.1163959E-4,9.276917E-4,7.0497384E-3,8.558143E-3,1.18585765E-1,9.590773E-3,1.1546492E-1,5.7487367E-3,8.852171E-3,1.092471E-2,3.1987925E-3,-2.8884294E-3,6.909852E-4,2.020003E-3,6.400442E-3,-1.114496E-2,-4.58594E-3,-3.6631532E-3,-2.0966441E-3,-9.006255E-4,1.2071178E-3,-3.688371E-4,1.5389179E-3,2.401975E-3,3.1677578E-3,1.5461391E-3,-3.0792332E-3,-2.0321484E-3,1.5870268E-4,1.4193519E-3,-9.077947E-4,-2.122609E-3,6.0934346E-4,4.1803432E-5,1.2195747E-3,3.0571234E-3,7.756576E-4,1.2354747E-3,1.2879844E-3,-1.5792866E-4,2.900584E-3,1.3744459E-3,-6.0085265E-4,-1.9239697E-3,1.4412106E-4,-9.611095E-4,-1.3458155E-3,-4.9973384E-4,-4.259303E-4,9.214918E-4,7.33882E-3,8.887412E-3,7.039317E-3,8.693483E-3],"categories":[],"categories_nodes":[],"categories_segments":[],"categories_sizes":[],"default_left":[0,0,0,0,0,0,0,0,0,0,0,0,0,0,0,0,0,0,0,0,0,0,0,0,0,0,0,0,0,0,0,0,0,0,0,0,0,0,0,0,0,0,0,0,0,0,0,0,0,0,0,0,0,0,0,0,0,0,0,0,0,0,0,0,0,0,0,0,0,0,0,0,0,0,0,0,0,0,0,0,0,0,0,0,0,0,0,0,0,0,0,0,0,0,0,0,0,0,0,0,0,0,0,0,0,0,0,0,0,0,0,0,0,0,0,0,0,0,0,0,0,0,0,0,0,0,0,0,0,0,0,0,0,0,0,0,0,0,0,0,0,0,0,0,0,0,0,0,0,0,0,0,0,0,0,0,0,0,0,0,0,0,0,0,0,0,0,0,0,0,0,0,0,0,0,0,0,0,0,0,0,0,0,0,0,0,0,0,0,0,0,0,0,0,0,0,0,0,0,0,0,0,0,0,0,0,0,0,0,0,0,0,0,0,0,0,0,0,0,0,0,0,0,0,0,0,0,0,0,0,0,0,0,0,0,0,0,0,0,0,0,0,0,0,0,0,0,0,0,0,0,0,0,0,0,0,0,0,0,0,0,0,0,0,0,0,0,0,0,0,0,0,0,0,0,0,0,0,0,0,0,0,0,0,0,0,0,0,0,0,0,0,0,0,0,0,0,0,0,0,0,0,0,0,0,0,0,0,0,0,0,0,0,0,0,0,0,0,0,0,0,0,0,0,0,0,0,0,0,0,0,0,0,0,0,0,0,0,0,0,0,0,0,0,0,0,0,0,0,0,0,0,0,0,0,0,0,0,0,0,0,0,0,0,0,0,0,0,0,0,0,0,0,0,0,0,0,0,0,0,0,0,0,0,0,0,0,0,0,0,0,0,0,0,0,0,0,0,0,0,0,0,0,0,0,0,0,0,0,0,0,0,0,0,0,0,0,0,0,0,0,0,0,0,0,0,0,0,0,0,0,0,0,0,0,0,0,0,0,0,0,0,0,0,0,0,0,0,0,0,0,0,0,0,0,0,0,0,0,0,0,0,0,0,0,0,0,0,0,0,0,0,0,0,0,0,0,0,0,0,0,0,0,0,0,0,0,0,0,0,0,0,0,0,0,0,0,0,0,0,0,0,0,0,0,0,0,0,0,0,0,0,0,0,0,0,0,0,0,0,0,0,0,0,0,0,0,0,0,0,0,0,0,0,0,0,0,0,0,0,0,0,0,0,0,0,0,0,0,0,0,0,0,0,0,0,0,0,0,0,0,0,0,0,0,0,0,0,0,0,0,0,0,0,0,0,0,0,0,0,0,0,0,0,0,0,0,0,0,0,0,0,0,0,0,0,0,0,0,0,0,0,0,0,0,0,0,0,0,0,0,0,0,0,0,0,0,0,0,0,0,0,0,0,0,0,0,0,0,0,0,0,0,0,0,0,0,0,0,0,0,0,0,0,0,0,0,0,0,0,0,0,0,0,0,0,0,0,0,0,0,0,0,0,0,0,0,0,0,0,0,0,0,0,0,0,0,0,0,0,0,0,0,0,0,0,0,0,0,0,0,0,0,0,0,0,0,0,0,0,0,0,0,0,0,0,0,0,0,0,0,0,0,0,0,0,0,0,0,0,0,0,0,0,0,0,0,0,0,0,0,0,0,0,0,0,0,0,0,0,0,0,0,0,0,0,0,0,0,0,0,0,0,0,0,0,0,0,0,0,0,0,0,0,0,0,0,0,0,0,0,0,0,0,0,0,0,0,0,0,0,0,0],"id":1,"left_children":[1,3,5,7,9,11,13,15,17,19,21,23,25,27,29,31,33,35,37,39,41,43,45,47,49,51,53,55,57,59,61,63,65,67,69,71,73,75,77,79,81,83,85,87,89,91,93,95,97,99,101,103,105,107,109,111,113,115,117,119,121,123,125,127,129,131,133,135,137,139,141,143,145,147,149,151,153,155,157,159,161,163,165,167,169,171,173,175,177,179,181,183,185,187,189,191,193,195,197,199,201,203,205,207,209,211,213,215,217,219,221,223,225,227,229,231,233,235,237,239,241,243,245,247,249,251,253,-1,-1,-1,-1,-1,-1,255,-1,-1,-1,-1,-1,257,259,261,263,265,267,269,-1,-1,-1,271,273,275,277,279,281,283,-1,285,287,289,291,293,-1,295,-1,297,299,301,-1,303,305,307,-1,309,311,313,-1,315,317,319,321,323,-1,325,-1,327,329,-1,331,-1,-1,333,335,337,339,341,343,345,347,349,351,353,-1,355,-1,357,359,361,363,-1,365,367,369,-1,371,373,375,377,379,381,-1,383,-1,385,387,389,-1,391,393,-1,-1,395,-1,397,399,401,-1,403,-1,405,-1,-1,407,-1,-1,-1,-1,409,411,413,415,417,-1,-1,-1,-1,-1,419,-1,-1,-1,421,-1,423,425,-1,-1,427,-1,429,-1,-1,-1,431,-1,433,-1,-1,435,437,-1,439,-1,441,-1,443,-1,445,-1,-1,447,449,-1,451,-1,-1,-1,453,-1,-1,-1,455,457,459,-1,461,-1,463,465,467,469,471,-1,473,475,-1,-1,-1,477,-1,479,-1,481,483,-1,485,-1,487,489,491,493,-1,-1,-1,-1,-1,-1,495,497,499,-1,501,503,-1,-1,-1,-1,505,507,-1,-1,-1,509,-1,-1,-1,-1,-1,-1,511,513,515,517,-1,-1,-1,519,-1,-1,521,-1,523,-1,525,-1,527,-1,529,531,533,-1,-1,-1,-1,-1,535,537,-1,-1,-1,-1,-1,539,541,543,545,547,-1,549,-1,-1,-1,-1,-1,-1,-1,-1,-1,-1,551,553,-1,-1,-1,-1,-1,-1,-1,-1,-1,-1,555,-1,557,-1,-1,-1,-1,-1,559,-1,561,563,565,567,569,-1,-1,571,-1,573,575,577,-1,579,581,-1,-1,-1,-1,-1,583,585,587,-1,589,591,593,595,597,599,-1,601,603,605,-1,-1,-1,-1,607,609,611,-1,613,615,-1,-1,617,-1,-1,619,-1,621,-1,-1,-1,623,625,-1,627,629,-1,-1,-1,-1,631,633,-1,-1,635,-1,-1,-1,-1,-1,637,639,641,643,-1,-1,-1,-1,-1,-1,645,-1,-1,647,-1,-1,-1,-1,-1,-1,-1,649,651,653,655,-1,-1,-1,-1,-1,-1,657,-1,659,-1,-1,-1,-1,661,-1,663,-1,-1,-1,-1,-1,-1,-1,-1,-1,-1,-1,665,-1,-1,667,669,-1,-1,-1,-1,-1,-1,-1,-1,-1,671,-1,-1,-1,-1,-1,673,675,-1,-1,-1,677,-1,-1,-1,-1,-1,-1,-1,679,-1,-1,681,683,-1,-1,-1,-1,685,687,689,-1,691,693,695,-1,-1,-1,-1,-1,-1,697,699,-1,701,-1,703,-1,-1,-1,-1,-1,-1,-1,-1,-1,-1,705,-1,-1,707,-1,709,-1,-1,711,713,715,717,719,721,723,725,727,729,-1,-1,-1,731,-1,733,735,-1,-1,737,-1,-1,-1,-1,-1,739,-1,-1,-1,-1,-1,-1,-1,-1,-1,-1,-1,-1,-1,-1,741,743,-1,745,-1,-1,747,-1,-1,-1,-1,-1,-1,-1,-1,749,-1,751,-1,-1,753,-1,-1,-1,-1,-1,-1,-1,-1,-1,-1,-1,-1,-1,-1,755,-1,757,759,761,763,-1,765,767,769,771,-1,773,-1,-1,-1,775,777,-1,-1,-1,-1,779,-1,781,-1,-1,-1,-1,-1,-1,-1,-1,-1,-1,-1,-1,-1,-1,-1,-1,-1,-1,-1,-1,-1,-1,-1,-1,-1,-1,-1,-1,-1,-1,-1,-1,-1,-1,-1,-1,-1,-1,-1,-1,-1,-1,-1,-1,-1,-1,-1],"loss_changes":[2.371755E3,7.245144E2,1.2533651E3,7.6096545E2,2.0629541E2,6.5291626E2,4.800891E2,1.2033325E2,6.3519497E1,8.989575E1,3.5946045E1,1.2562534E2,6.522162E1,9.599457E1,5.105371E1,1.9621826E1,5.6777832E1,9.041283E0,3.5471313E1,1.5311989E1,5.110625E1,7.976261E0,1.4157822E1,7.0342575E1,8.910366E0,1.9099998E1,3.7008667E1,2.060852E1,3.764081E1,1.452002E1,2.3345947E1,1.1720581E0,4.154663E0,6.3762207E0,1.2222839E1,2.39299E0,6.114092E-1,4.249028E0,5.514183E0,2.7938843E0,1.0680828E0,6.6296654E0,5.450054E0,1.3148208E0,1.3857346E0,1.327671E0,2.5416565E-1,3.8821686E1,3.495827E1,1.1199641E0,2.1258125E0,7.0347786E0,1.0140114E0,1.1461853E1,4.021393E0,5.8458576E0,9.571854E0,1.5181641E1,4.1354675E0,3.9819336E0,1.3540497E0,6.7944336E0,2.098755E0,1.9412231E-1,3.4362793E-2,5.1394653E-1,2.852173E-1,4.6954346E-1,4.0731812E-1,1.0154724E0,1.7875061E0,5.557442E-1,4.2219162E-1,1.107831E-1,1.8237448E-1,6.621189E-1,8.117937E-1,4.8836708E-1,1.2571869E0,1.8650436E-1,5.6692886E-1,3.2937336E-1,3.6888218E-1,1.2472057E0,8.8087714E-1,4.9230242E-1,1.0980644E0,2.677508E-1,1.6727543E-1,2.1071815E-1,3.3277893E-1,6.204605E-2,5.670452E-1,1.0789871E-1,7.972717E-2,3.5121613E0,1.8814068E0,4.109268E0,2.7212322E0,2.3386449E-1,1.7440271E-1,1.9979882E-1,1.4523735E0,2.9625454E0,3.3008194E-1,1.6976738E-1,1.515007E-1,1.0526581E0,8.618927E-1,6.4482117E-1,3.9645386E-1,1.8743467E0,1.9260597E-1,1.4836502E0,1.7003632E-1,4.5835876E0,1.3761597E0,2.7173615E-1,7.307892E-1,8.04657E-1,3.397827E-1,8.654022E-2,1.2085724E-1,1.0083618E0,1.1271362E0,3.2818604E-1,1.1520386E-1,0E0,0E0,0E0,0E0,0E0,0E0,1.377716E-1,0E0,0E0,0E0,0E0,0E0,8.868408E-2,5.0743103E-2,1.4942932E-1,7.44751E-1,1.6706467E-1,2.084465E-1,1.298294E-1,0E0,0E0,0E0,1.8240547E-1,7.187188E-2,5.0873566E-1,5.848539E-2,4.2003667E-1,3.3332136E-1,2.5367737E-1,0E0,2.01231E-1,5.3398895E-1,4.2764664E-2,7.382202E-2,4.9809265E-1,0E0,5.0872326E-2,0E0,2.1692514E-1,1.9913465E-1,8.4589577E-1,0E0,3.789543E-1,2.4226554E-1,4.9715662E-1,0E0,1.338749E-1,1.790905E-1,9.055114E-2,0E0,2.9214263E-2,4.4518948E-2,4.6060562E-2,5.051422E-2,1.9367981E-1,0E0,4.0295362E-2,0E0,1.7722893E-1,9.574652E-2,0E0,4.809344E-2,0E0,0E0,5.465393E-1,1.5280533E-1,3.8794136E-1,3.16782E-1,1.2756348E0,8.341408E-2,4.390478E-2,1.0314624E0,2.7948901E-2,3.4659177E-2,6.2173724E-2,0E0,5.3994417E-2,0E0,1.0643768E-1,3.4339523E-1,1.6356287E0,6.522417E-2,0E0,9.408188E-2,3.4637094E-2,7.8160286E-2,0E0,9.032059E-2,5.4172516E-2,8.551788E-2,7.978821E-2,1.3197327E-1,1.1532211E-1,0E0,6.493378E-2,0E0,4.1534662E-1,6.487942E-2,1.2449074E-1,0E0,5.6759644E-1,1.4274597E-1,0E0,0E0,1.9204102E0,0E0,5.121918E-1,7.7316284E-2,1.0028839E-1,0E0,1.9096375E-1,0E0,6.092682E-1,0E0,0E0,2.7114868E-2,0E0,0E0,0E0,0E0,1.0579529E0,1.2289429E-1,2.1554565E-1,2.8381348E-2,3.2148743E-1,0E0,0E0,0E0,0E0,0E0,6.2042236E-2,0E0,0E0,0E0,2.3804474E-1,0E0,1.4163971E-1,1.4088121E-1,0E0,0E0,6.7266464E-2,0E0,4.213333E-2,0E0,0E0,0E0,5.226624E-2,0E0,1.554699E-1,0E0,0E0,6.2677324E-2,1.5260637E-1,0E0,2.907557E-2,0E0,1.0017371E-1,0E0,5.9970856E-2,0E0,6.98061E-2,0E0,0E0,1.3421392E-1,3.21846E-2,0E0,9.91745E-2,0E0,0E0,0E0,4.689598E-2,0E0,0E0,0E0,1.0299492E-1,3.681183E-2,1.4979559E-1,0E0,1.087051E-1,0E0,1.832366E-1,3.145361E-2,6.258011E-2,5.732441E-2,8.187103E-2,0E0,6.028243E-2,3.6373436E-2,0E0,0E0,0E0,3.0956268E-2,0E0,5.1299572E-2,0E0,5.4323196E-2,3.2974243E-2,0E0,3.4804583E-2,0E0,7.555199E-2,1.16749525E-1,3.372097E-2,5.795288E-2,0E0,0E0,0E0,0E0,0E0,0E0,5.0498962E-2,4.5212746E-2,3.1388664E-1,0E0,2.755127E-1,3.4427643E-2,0E0,0E0,0E0,0E0,4.147498E-1,3.7942827E-1,0E0,0E0,0E0,3.3915907E-2,0E0,0E0,0E0,0E0,0E0,0E0,2.9094696E-2,7.8884125E-2,2.7064264E-1,3.8232803E-2,0E0,0E0,0E0,3.167343E-2,0E0,0E0,2.643776E-2,0E0,3.399086E-2,0E0,3.0685425E-2,0E0,7.888031E-2,0E0,5.133438E-2,3.6815643E-2,6.829071E-2,0E0,0E0,0E0,0E0,0E0,3.8006037E-2,4.1028738E-2,0E0,0E0,0E0,0E0,0E0,3.716278E-2,1.3506126E-1,3.7344396E-2,2.3020172E-1,1.3967896E-1,0E0,4.4509888E-2,0E0,0E0,0E0,0E0,0E0,0E0,0E0,0E0,0E0,0E0,5.505371E-2,4.9438477E-2,0E0,0E0,0E0,0E0,0E0,0E0,0E0,0E0,0E0,0E0,4.650879E-2,0E0,1.8050385E-1,0E0,0E0,0E0,0E0,0E0,3.115654E-2,0E0,3.7353277E-2,4.569477E-2,3.7045956E-2,3.075838E-2,5.1352803E-2,0E0,0E0,5.1607758E-2,0E0,2.86313E-2,3.1136274E-2,1.221534E-1,0E0,4.4424057E-2,6.399913E-1,0E0,0E0,0E0,0E0,0E0,3.9798737E-2,2.9438019E-2,2.6198149E-2,0E0,4.419756E-2,5.3194046E-2,4.260671E-2,3.4706473E-2,6.4169526E-2,7.904872E-2,0E0,4.2571098E-2,3.4231186E-2,8.250356E-2,0E0,0E0,0E0,0E0,3.4523487E-2,2.8121948E-2,1.5890789E-1,0E0,3.1214979E-2,4.2851895E-2,0E0,0E0,3.4993947E-2,0E0,0E0,2.6791334E-2,0E0,3.0604899E-2,0E0,0E0,0E0,3.1671405E-2,4.5021176E-2,0E0,4.196441E-2,4.9649E-2,0E0,0E0,0E0,0E0,2.7758598E-2,7.7103615E-2,0E0,0E0,5.014372E-2,0E0,0E0,0E0,0E0,0E0,2.4876961E-1,3.351872E-1,1.2717563E-1,1.9842213E-1,0E0,0E0,0E0,0E0,0E0,0E0,7.2512984E-2,0E0,0E0,3.9014816E-2,0E0,0E0,0E0,0E0,0E0,0E0,0E0,2.8981209E-2,5.4540634E-2,2.8526306E-2,8.511543E-2,0E0,0E0,0E0,0E0,0E0,0E0,3.454569E-2,0E0,2.7893782E-2,0E0,0E0,0E0,0E0,2.7310379E-2,0E0,3.025055E-2,0E0,0E0,0E0,0E0,0E0,0E0,0E0,0E0,0E0,0E0,0E0,3.321457E-2,0E0,0E0,6.1251163E-2,3.7636578E-2,0E0,0E0,0E0,0E0,0E0,0E0,0E0,0E0,0E0,3.3878088E-2,0E0,0E0,0E0,0E0,0E0,5.9846878E-2,2.7779758E-2,0E0,0E0,0E0,1.7887695E-1,0E0,0E0,0E0,0E0,0E0,0E0,0E0,2.874279E-2,0E0,0E0,3.7120193E-2,4.4537604E-2,0E0,0E0,0E0,0E0,3.401059E-2,8.616181E-2,3.0594192E-2,0E0,2.960296E-2,4.9321055E-2,5.4092526E-2,0E0,0E0,0E0,0E0,0E0,0E0,4.396905E-2,3.684432E-2,0E0,3.3279106E-2,0E0,3.6180913E-2,0E0,0E0,0E0,0E0,0E0,0E0,0E0,0E0,0E0,0E0,3.8577795E-2,0E0,0E0,4.6275616E-2,0E0,4.8632383E-2,0E0,0E0,2.8897524E-2,3.5930246E-1,8.799289E-2,1.24355376E-1,1.96985E-1,8.881264E-2,4.8200756E-2,4.9933493E-2,7.822302E-2,3.9475206E-2,0E0,0E0,0E0,4.488182E-2,0E0,4.0550232E-2,4.2251587E-2,0E0,0E0,3.9979935E-2,0E0,0E0,0E0,0E0,0E0,2.9649263E-2,0E0,0E0,0E0,0E0,0E0,0E0,0E0,0E0,0E0,0E0,0E0,0E0,0E0,0E0,4.0144607E-2,1.527813E-1,0E0,2.811122E-2,0E0,0E0,3.293018E-2,0E0,0E0,0E0,0E0,0E0,0E0,0E0,0E0,4.3911833E-2,0E0,4.6838522E-2,0E0,0E0,9.158933E-2,0E0,0E0,0E0,0E0,0E0,0E0,0E0,0E0,0E0,0E0,0E0,0E0,0E0,0E0,4.1199803E-2,0E0,2.8034203E-2,4.1148245E-2,3.5962775E-2,3.3984244E-2,0E0,2.73242E-2,4.6482682E-2,7.56731E-2,7.129422E-2,0E0,5.3289976E-2,0E0,0E0,0E0,4.4412494E-2,2.818719E-2,0E0,0E0,0E0,0E0,2.81353E-2,0E0,3.477192E-2,0E0,0E0,0E0,0E0,0E0,0E0,0E0,0E0,0E0,0E0,0E0,0E0,0E0,0E0,0E0,0E0,0E0,0E0,0E0,0E0,0E0,0E0,0E0,0E0,0E0,0E0,0E0,0E0,0E0,0E0,0E0,0E0,0E0,0E0,0E0,0E0,0E0,0E0,0E0,0E0,0E0,0E0,0E0,0E0,0E0,0E0,0E0],"parents":[2147483647,0,0,1,1,2,2,3,3,4,4,5,5,6,6,7,7,8,8,9,9,10,10,11,11,12,12,13,13,14,14,15,15,16,16,17,17,18,18,19,19,20,20,21,21,22,22,23,23,24,24,25,25,26,26,27,27,28,28,29,29,30,30,31,31,32,32,33,33,34,34,35,35,36,36,37,37,38,38,39,39,40,40,41,41,42,42,43,43,44,44,45,45,46,46,47,47,48,48,49,49,50,50,51,51,52,52,53,53,54,54,55,55,56,56,57,57,58,58,59,59,60,60,61,61,62,62,63,63,64,64,65,65,66,66,67,67,68,68,69,69,70,70,71,71,72,72,73,73,74,74,75,75,76,76,77,77,78,78,79,79,80,80,81,81,82,82,83,83,84,84,85,85,86,86,87,87,88,88,89,89,90,90,91,91,92,92,93,93,94,94,95,95,96,96,97,97,98,98,99,99,100,100,101,101,102,102,103,103,104,104,105,105,106,106,107,107,108,108,109,109,110,110,111,111,112,112,113,113,114,114,115,115,116,116,117,117,118,118,119,119,120,120,121,121,122,122,123,123,124,124,125,125,126,126,133,133,139,139,140,140,141,141,142,142,143,143,144,144,145,145,149,149,150,150,151,151,152,152,153,153,154,154,155,155,157,157,158,158,159,159,160,160,161,161,163,163,165,165,166,166,167,167,169,169,170,170,171,171,173,173,174,174,175,175,177,177,178,178,179,179,180,180,181,181,183,183,185,185,186,186,188,188,191,191,192,192,193,193,194,194,195,195,196,196,197,197,198,198,199,199,200,200,201,201,203,203,205,205,206,206,207,207,208,208,210,210,211,211,212,212,214,214,215,215,216,216,217,217,218,218,219,219,221,221,223,223,224,224,225,225,227,227,228,228,231,231,233,233,234,234,235,235,237,237,239,239,242,242,247,247,248,248,249,249,250,250,251,251,257,257,261,261,263,263,264,264,267,267,269,269,273,273,275,275,278,278,279,279,281,281,283,283,285,285,287,287,290,290,291,291,293,293,297,297,301,301,302,302,303,303,305,305,307,307,308,308,309,309,310,310,311,311,313,313,314,314,318,318,320,320,322,322,323,323,325,325,327,327,328,328,329,329,330,330,337,337,338,338,339,339,341,341,342,342,347,347,348,348,352,352,359,359,360,360,361,361,362,362,366,366,369,369,371,371,373,373,375,375,377,377,378,378,379,379,385,385,386,386,392,392,393,393,394,394,395,395,396,396,398,398,409,409,410,410,421,421,423,423,429,429,431,431,432,432,433,433,434,434,435,435,438,438,440,440,441,441,442,442,444,444,445,445,451,451,452,452,453,453,455,455,456,456,457,457,458,458,459,459,460,460,462,462,463,463,464,464,469,469,470,470,471,471,473,473,474,474,477,477,480,480,482,482,486,486,487,487,489,489,490,490,495,495,496,496,499,499,505,505,506,506,507,507,508,508,515,515,518,518,526,526,527,527,528,528,529,529,536,536,538,538,543,543,545,545,557,557,560,560,561,561,571,571,577,577,578,578,582,582,590,590,593,593,594,594,599,599,600,600,601,601,603,603,604,604,605,605,612,612,613,613,615,615,617,617,628,628,631,631,633,633,636,636,637,637,638,638,639,639,640,640,641,641,642,642,643,643,644,644,645,645,649,649,651,651,652,652,655,655,661,661,676,676,677,677,679,679,682,682,691,691,693,693,696,696,711,711,713,713,714,714,715,715,716,716,718,718,719,719,720,720,721,721,723,723,727,727,728,728,733,733,735,735],"right_children":[2,4,6,8,10,12,14,16,18,20,22,24,26,28,30,32,34,36,38,40,42,44,46,48,50,52,54,56,58,60,62,64,66,68,70,72,74,76,78,80,82,84,86,88,90,92,94,96,98,100,102,104,106,108,110,112,114,116,118,120,122,124,126,128,130,132,134,136,138,140,142,144,146,148,150,152,154,156,158,160,162,164,166,168,170,172,174,176,178,180,182,184,186,188,190,192,194,196,198,200,202,204,206,208,210,212,214,216,218,220,222,224,226,228,230,232,234,236,238,240,242,244,246,248,250,252,254,-1,-1,-1,-1,-1,-1,256,-1,-1,-1,-1,-1,258,260,262,264,266,268,270,-1,-1,-1,272,274,276,278,280,282,284,-1,286,288,290,292,294,-1,296,-1,298,300,302,-1,304,306,308,-1,310,312,314,-1,316,318,320,322,324,-1,326,-1,328,330,-1,332,-1,-1,334,336,338,340,342,344,346,348,350,352,354,-1,356,-1,358,360,362,364,-1,366,368,370,-1,372,374,376,378,380,382,-1,384,-1,386,388,390,-1,392,394,-1,-1,396,-1,398,400,402,-1,404,-1,406,-1,-1,408,-1,-1,-1,-1,410,412,414,416,418,-1,-1,-1,-1,-1,420,-1,-1,-1,422,-1,424,426,-1,-1,428,-1,430,-1,-1,-1,432,-1,434,-1,-1,436,438,-1,440,-1,442,-1,444,-1,446,-1,-1,448,450,-1,452,-1,-1,-1,454,-1,-1,-1,456,458,460,-1,462,-1,464,466,468,470,472,-1,474,476,-1,-1,-1,478,-1,480,-1,482,484,-1,486,-1,488,490,492,494,-1,-1,-1,-1,-1,-1,496,498,500,-1,502,504,-1,-1,-1,-1,506,508,-1,-1,-1,510,-1,-1,-1,-1,-1,-1,512,514,516,518,-1,-1,-1,520,-1,-1,522,-1,524,-1,526,-1,528,-1,530,532,534,-1,-1,-1,-1,-1,536,538,-1,-1,-1,-1,-1,540,542,544,546,548,-1,550,-1,-1,-1,-1,-1,-1,-1,-1,-1,-1,552,554,-1,-1,-1,-1,-1,-1,-1,-1,-1,-1,556,-1,558,-1,-1,-1,-1,-1,560,-1,562,564,566,568,570,-1,-1,572,-1,574,576,578,-1,580,582,-1,-1,-1,-1,-1,584,586,588,-1,590,592,594,596,598,600,-1,602,604,606,-1,-1,-1,-1,608,610,612,-1,614,616,-1,-1,618,-1,-1,620,-1,622,-1,-1,-1,624,626,-1,628,630,-1,-1,-1,-1,632,634,-1,-1,636,-1,-1,-1,-1,-1,638,640,642,644,-1,-1,-1,-1,-1,-1,646,-1,-1,648,-1,-1,-1,-1,-1,-1,-1,650,652,654,656,-1,-1,-1,-1,-1,-1,658,-1,660,-1,-1,-1,-1,662,-1,664,-1,-1,-1,-1,-1,-1,-1,-1,-1,-1,-1,666,-1,-1,668,670,-1,-1,-1,-1,-1,-1,-1,-1,-1,672,-1,-1,-1,-1,-1,674,676,-1,-1,-1,678,-1,-1,-1,-1,-1,-1,-1,680,-1,-1,682,684,-1,-1,-1,-1,686,688,690,-1,692,694,696,-1,-1,-1,-1,-1,-1,698,700,-1,702,-1,704,-1,-1,-1,-1,-1,-1,-1,-1,-1,-1,706,-1,-1,708,-1,710,-1,-1,712,714,716,718,720,722,724,726,728,730,-1,-1,-1,732,-1,734,736,-1,-1,738,-1,-1,-1,-1,-1,740,-1,-1,-1,-1,-1,-1,-1,-1,-1,-1,-1,-1,-1,-1,742,744,-1,746,-1,-1,748,-1,-1,-1,-1,-1,-1,-1,-1,750,-1,752,-1,-1,754,-1,-1,-1,-1,-1,-1,-1,-1,-1,-1,-1,-1,-1,-1,756,-1,758,760,762,764,-1,766,768,770,772,-1,774,-1,-1,-1,776,778,-1,-1,-1,-1,780,-1,782,-1,-1,-1,-1,-1,-1,-1,-1,-1,-1,-1,-1,-1,-1,-1,-1,-1,-1,-1,-1,-1,-1,-1,-1,-1,-1,-1,-1,-1,-1,-1,-1,-1,-1,-1,-1,-1,-1,-1,-1,-1,-1,-1,-1,-1,-1,-1],"split_conditions":[2.2222223E-2,6E1,6E1,2E0,2E0,2E0,2E0,1E0,1E0,1E0,1E0,3E0,1E0,1E0,1E0,-6.4444447E-1,-6E-1,-4E-1,-5.777778E-1,-4.4022223E-1,-5.1111114E-1,-7.537778E-1,-6.22E-1,1E0,4.888889E-1,1.8452381E0,3E0,4.888889E-1,1.5952381E0,1.5595238E0,1.5119047E0,-8.2222223E-1,-2.8866667E-1,-8.2222223E-1,-3.1111112E-1,-7.777778E-1,-3.1111112E-1,-8.802222E-1,-3.1111112E-1,-8.802222E-1,-3.1111112E-1,-8.2222223E-1,-2.8666666E-1,-9.3333334E-1,-3.9977777E-1,-9.111111E-1,-4.4444445E-1,5.3333336E-1,4.4444445E-1,1.9266666E-1,1E0,4.888889E-1,2.2738094E0,4.4444445E-1,2.2738094E0,3E0,3E0,4.888889E-1,2.1309524E0,4.4444445E-1,2.0595238E0,4.4444445E-1,2.452381E0,-1.0295556E0,-7.111111E-1,-4.4444445E-1,-2.2222223E-2,-1.0888889E0,-7.111111E-1,-4E-1,-1.7755556E-1,-1E0,2.857143E-1,3E0,-1.7777778E-1,3E0,-7.1088886E-1,3E0,-8.888889E-2,-1.0888889E0,3E0,3E0,3E0,3E0,-6.2222224E-1,3E0,-8.888889E-2,3E0,-8.4444445E-1,-5.3333336E-1,-2.2222223E-2,1E0,1E0,1E0,3E0,2.9533333E-1,8.666667E-1,2.9533333E-1,5.3333336E-1,1E0,3.3333334E-1,1.0888889E0,7.111111E-1,3E0,6E-1,1.4177778E-1,4.888889E-1,1.9266666E-1,6.4444447E-1,3.7777779E-1,4E0,2.7133334E-1,2.6666667E0,8.666667E-1,8.2222223E-1,3E0,8.2222223E-1,5.1111114E-1,8E-1,3E0,6.2222224E-1,4.6666667E-1,7.3333335E-1,1.0119047E0,7.3333335E-1,7E1,8E-1,-2.0995514E-2,-1.9984553E-2,-1.8923298E-2,-1.812415E-2,-1.7263092E-2,-1.6076922E-2,-1.7777778E-1,-1.2983781E-2,-1.6384678E-2,-1.48983225E-2,-1.3106101E-2,-1.2151009E-2,3E0,2E0,-1.7777778E-1,1.2976191E0,-1.0888889E0,3E0,-5.777778E-1,-1.2696253E-2,-3.8856335E-3,-1.1553146E-2,3E0,4E0,-9.5555556E-1,2E0,3E0,3E0,-4E-1,-1.1063304E-2,3E0,1.2976191E0,-4.7619048E-1,-9.111111E-1,-6.22E-1,-1.1742632E-2,-3.3333334E-1,-1.3557792E-2,-8.888889E-2,0E0,-9.3333334E-1,-1.20060295E-2,3E0,3E0,-3.1111112E-1,-1.2256874E-2,-1.7777778E-1,3E0,-1.0444444E0,-1.0900694E-2,1E0,1E0,1E0,1E0,-1.7755556E-1,1.2883095E-2,-9.5555556E-1,5.7485527E-3,1E0,4E0,1.6467595E-2,-2.0238096E-1,1.8345159E-2,2.3291234E-2,1.9266666E-1,4.888889E-1,7.5555557E-1,1.0888889E0,1.4177778E-1,3.3333334E-1,4.888889E-1,2E0,1E0,6.666667E-2,1E0,4.5796796E-3,9.777778E-1,-1.1992077E-2,5.777778E-1,2.8095238E0,2.7133334E-1,1.5822223E-1,5.5282223E-3,9.3333334E-1,3E0,6E-1,1.6462916E-3,2.7380953E0,1E0,3.7777779E-1,2E0,9.3333334E-1,1.1111111E-1,1.7707253E-2,7.777778E-1,2.4766687E-2,1.4177778E-1,4E-1,2.2222222E-1,-7.756486E-3,6E-1,1.0888889E0,1.2343013E-2,1.4139399E-2,2.7133334E-1,1.4026179E-2,6E-1,1E0,4E-1,1.4422981E-2,4E-1,2.104916E-2,1.4177778E-1,1.9902088E-2,1.748186E-2,8.888889E-1,2.2670863E-2,2.0298593E-2,2.4826672E-2,2.73444E-2,1.9266666E-1,1.3333334E-1,5.777778E-1,8E-1,1.8452381E0,2.6112331E-2,3.082195E-2,3.2986943E-2,-1.4950251E-2,-1.4126389E-2,-4.4444445E-1,-1.6174184E-2,-1.0079896E-2,-9.538731E-3,-2.2222222E-1,-8.010879E-3,-4.4444446E-2,4E0,-1.0373565E-2,-8.447149E-3,-9.3333334E-1,-1.1324729E-2,2.6190478E-1,-4.959911E-3,-2.6609567E-3,-1.1556959E-2,1.1309524E0,-1.0315225E-2,-1.0666667E0,-1.9557446E-3,-1.1645508E-2,-4.642857E-1,-8.0733335E-1,-1.0778105E-2,2E0,-9.892063E-3,-5.3333336E-1,2.474694E-3,-1.7777778E-1,-1.2013432E-2,0E0,1.2897498E-2,-1.0073487E-2,2E0,3E0,-7.5680884E-3,-7.777778E-1,-5.3168214E-3,-4.2352425E-3,-3.4023875E-3,-1.7777778E-1,-1.4035782E-3,-1.3433686E-2,-2.8041247E-4,-1.0666667E0,7E1,-7.777778E-1,-1.157397E-2,2E0,-1.0539692E-2,2E0,2E0,2E0,7E1,0E0,1.1749226E-2,7E1,-3.5714287E-1,4.102693E-3,3.016135E-3,5.6839143E-3,1E0,6.7633684E-3,-2.857143E-1,8.414085E-3,1E0,-3.1111112E-1,7.640516E-3,3E0,9.492445E-3,1E0,4E0,-8.4444445E-1,1E0,7.7524316E-3,1.3692074E-2,-1.1650047E-2,-1.028832E-2,-8.6698625E-3,-7.5622313E-3,1E0,5.119048E-1,1.0222223E0,-9.289699E-3,8.888889E-2,2.2222222E-1,-3.1129748E-3,-2.5688324E-3,-1.9155511E-3,-1.4855217E-3,1E0,8.4444445E-1,-1.0766989E-2,-1.980636E-3,6.2782253E-4,4.5E1,-4.949223E-3,3.1856017E-3,3.698978E-3,5.005303E-3,5.830386E-3,7.064449E-3,8.666667E-1,2.952381E0,1.9266666E-1,4E-1,7.418792E-3,9.194423E-3,6.6261357E-3,3.5E1,-2.3909418E-3,4.8746048E-3,4.4444445E-1,7.3898E-3,4.5E1,1.5453125E-2,1E0,8.1479E-3,1E0,9.8508075E-3,1E0,4.888889E-1,1E0,1.4239181E-2,1.3856216E-2,1.5548518E-2,1.9457946E-2,2.0949056E-2,2E0,1.9266666E-1,3.2697986E-3,3.8909162E-3,7.5763045E-3,9.399836E-3,5.0240145E-3,8E-1,1.0222223E0,2E0,1.9266666E-1,4.4444445E-1,1.1541726E-2,6.888889E-1,1.4155004E-2,1.5396503E-2,1.5609255E-2,1.7164066E-2,1.3626067E-2,1.8633727E-2,1.358539E-2,1.547305E-2,1.8796619E-2,2.0323813E-2,1.1111111E-1,2.7133334E-1,2.543007E-2,2.2869507E-2,2.3656841E-2,2.5091808E-2,2.5920024E-2,2.7737455E-2,2.7458034E-2,3.0091872E-2,-1.1161444E-2,-1.0704744E-2,3E0,-9.678065E-3,-6.666667E-2,-6.8860934E-3,-1.477761E-3,-1.192059E-2,-7.6301647E-3,-6.7737936E-3,-7.1428575E-2,1.3445732E-3,-8.888889E-2,1E0,-1.1111112E0,2E0,3E0,-8.584054E-3,-1.5928643E-3,4.5E1,6.2996034E-5,-6.2222224E-1,2E0,-4.882222E-1,4.010696E-3,-1.3333334E-1,-2.2222223E-2,6.8506636E-3,-1.0023826E-2,6.6266186E-3,-8.472559E-3,-1.046743E-2,-3.5714287E-1,-7.111111E-1,2E0,-2.1576912E-3,-1.1111112E0,2E0,1E0,2E0,2E0,2E0,1.885335E-4,7E1,-1.6666667E-1,7E1,2.9593804E-3,3.5657438E-3,3.5928402E-3,4.289644E-3,-1.1111111E-1,2E0,-2.2222223E-2,6.7339004E-3,4E0,-1.0888889E0,1.8572322E-3,3.6827167E-3,2E0,4.157902E-3,4.651964E-3,-6.4444447E-1,7.907304E-3,-1.7857143E-1,9.002762E-3,9.955894E-3,5.993576E-3,7E1,-8.0733335E-1,1.3413649E-2,7E1,-3.690476E-1,5.827841E-3,8.153954E-3,1.1673235E-2,7.5986045E-3,6.666667E-1,4.5E1,-3.9360956E-3,-4.58097E-3,9.777778E-1,-1.9606526E-3,-5.8038784E-3,-4.9443785E-3,-4.241601E-3,-3.9324253E-3,1E0,9.3333334E-1,1E0,1E0,1.8285693E-3,9.743017E-4,8.278425E-3,9.082217E-3,9.579692E-3,1.08897E-2,8.888889E-2,2.5171808E-3,3.599937E-3,3.2142857E-1,6.526131E-3,7.991005E-3,1.0143581E-2,1.1591704E-2,1.4299767E-2,1.2549978E-2,7.2423113E-3,2E0,2E0,2.1428572E-1,1E0,1.224014E-2,1.0088443E-2,1.1290455E-2,1.2307901E-2,1.3167574E-2,8.741438E-4,1.3095239E-1,1.6080986E-3,2.2222222E-1,6.4322115E-3,7.014837E-3,7.992793E-3,9.327642E-3,7E1,7.98371E-3,6.666667E-2,8.660357E-3,9.647329E-3,1.0688729E-2,1.2461297E-2,1.3017735E-2,1.9475037E-2,2.0449575E-2,2.1453056E-2,2.2652546E-2,-8.562898E-3,-1.4813506E-2,-1.3333334E-1,-9.059824E-3,-5.5874093E-3,-6.666667E-1,5.4761904E-1,-1.3608431E-3,-3.3592896E-3,5.004429E-3,-5.0919433E-3,-3.8758067E-3,-2.9453493E-3,-3.4117885E-3,-6.0113706E-3,5.466145E-3,1E0,-4.0635734E-4,4.1410077E-4,9.793948E-4,7.031177E-4,1.3740856E-3,-5.1111114E-1,1E0,4.7917156E-3,4.0439093E-3,6.0183685E-3,1E0,-6.4699347E-3,-7.2875726E-3,-5.9818393E-3,-6.491927E-3,-2.506363E-3,-3.0337933E-3,-5.2150195E-3,2E0,-3.5296772E-3,-3.0554258E-3,-3.9285713E-1,-9.111111E-1,-2.062285E-3,-1.348607E-3,-1.8249727E-3,-9.762039E-4,2E0,7E1,-5.555556E-1,1.4016295E-3,-4E-1,-3.62E-1,-4E-1,2.6980771E-3,4.4762203E-3,3.5694547E-3,4.593002E-3,5.2025034E-3,5.8752806E-3,1E0,1E0,1.1352758E-3,-5E-1,7.896151E-4,-3.2142857E-1,6.9123516E-3,7.0068776E-3,5.598456E-3,4.026458E-3,6.617099E-3,8.85911E-3,6.3726637E-3,6.5907817E-3,1.1542093E-2,7.0467484E-3,2E0,7.0782336E-3,1.3482657E-2,4.047619E-1,-5.596604E-3,1E0,-6.136199E-3,-3.4033624E-3,1E0,7.777778E-1,1.5595238E0,7.111111E-1,1E0,1E0,1E0,1.0888889E0,1.7023809E0,3.5E1,1.4370824E-3,4.6661864E-3,3.8276995E-3,2E0,7.395998E-3,1E0,4E0,9.99527E-3,9.253096E-3,3.5E1,1.1985457E-2,-3.7233025E-4,6.3336396E-4,2.7053661E-3,2.0276892E-3,1E0,4.6298676E-3,7.460464E-3,7.900444E-3,-7.836408E-3,-7.243127E-3,-7.878486E-3,-5.804278E-3,-1.8070071E-3,-2.9619075E-3,-4.878091E-4,-1.1691543E-3,1.6078342E-3,2.4841412E-3,1.8085924E-3,2.3809524E-1,1E0,-1.389213E-2,3E0,-3.5006315E-3,-2.5671455E-3,1E0,-3.9803954E-3,-2.3827434E-3,-7.548196E-4,-1.3643139E-3,-7.938212E-4,8.560762E-5,9.247749E-4,-1.2792421E-4,-4.4444445E-1,1.556242E-3,-4E-1,1.0807975E-3,1.4501906E-3,-3.7755555E-1,3.3242898E-3,-8.934072E-4,3.0527165E-4,-1.8773604E-3,1.1352976E-3,4.1214763E-3,3.1371287E-3,5.879443E-3,7.4467314E-3,1.2104078E-2,-5.5087293E-3,-6.8792887E-3,-5.0690104E-3,-3.3084736E-3,1E0,-3.2673213E-3,1.4642857E0,8.2222223E-1,5.4761904E-1,1.0444444E0,2.3213206E-4,1E0,4E0,4E0,7.5555557E-1,-8.766856E-5,7.777778E-1,5.0006824E-4,-2.0321612E-3,2.6531338E-3,1E0,1E0,-2.1163959E-4,9.276917E-4,7.0497384E-3,8.558143E-3,3.5E1,9.590773E-3,1E0,5.7487367E-3,8.852171E-3,1.092471E-2,3.1987925E-3,-2.8884294E-3,6.909852E-4,2.020003E-3,6.400442E-3,-1.114496E-2,-4.58594E-3,-3.6631532E-3,-2.0966441E-3,-9.006255E-4,1.2071178E-3,-3.688371E-4,1.5389179E-3,2.401975E-3,3.1677578E-3,1.5461391E-3,-3.0792332E-3,-2.0321484E-3,1.5870268E-4,1.4193519E-3,-9.077947E-4,-2.122609E-3,6.0934346E-4,4.1803432E-5,1.2195747E-3,3.0571234E-3,7.756576E-4,1.2354747E-3,1.2879844E-3,-1.5792866E-4,2.900584E-3,1.3744459E-3,-6.0085265E-4,-1.9239697E-3,1.4412106E-4,-9.611095E-4,-1.3458155E-3,-4.9973384E-4,-4.259303E-4,9.214918E-4,7.33882E-3,8.887412E-3,7.039317E-3,8.693483E-3],"split_indices":[2,3,3,4,4,4,4,5,5,5,5,11,5,5,5,2,2,2,2,2,2,2,2,5,2,12,11,2,12,12,12,2,2,2,2,2,2,2,2,2,2,2,2,2,2,2,2,2,2,2,5,2,12,2,12,11,11,2,12,2,12,2,12,2,2,2,2,2,2,2,2,2,12,11,2,11,2,11,2,2,11,11,11,11,2,11,2,11,2,2,2,7,7,7,11,2,2,2,2,5,2,2,2,11,2,2,2,2,2,2,11,2,12,2,2,11,2,2,2,11,2,2,2,12,2,3,2,0,0,0,0,0,0,2,0,0,0,0,0,11,5,2,12,2,11,2,0,0,0,11,11,2,0,11,11,2,0,11,12,12,2,2,0,2,0,2,2,2,0,11,11,2,0,2,11,2,0,9,7,9,9,2,0,2,0,9,1,0,12,0,0,2,2,2,2,2,2,2,5,7,2,5,0,2,0,2,12,2,2,0,2,1,2,0,12,9,2,5,2,2,0,2,0,2,2,2,0,2,2,0,0,2,0,2,2,2,0,2,0,2,0,0,2,0,0,0,0,2,2,2,2,12,0,0,0,0,0,2,0,0,0,2,0,2,11,0,0,2,0,12,0,0,0,12,0,2,0,0,12,2,0,1,0,2,0,2,0,2,0,0,8,11,0,2,0,0,0,2,0,0,0,2,3,2,0,5,0,5,5,5,3,2,0,3,12,0,0,0,0,0,12,0,7,2,0,1,0,11,1,2,9,0,0,0,0,0,0,9,12,2,0,2,2,0,0,0,0,9,2,0,0,0,3,0,0,0,0,0,0,2,12,2,2,0,0,0,3,0,0,2,0,3,0,7,0,9,0,9,2,9,0,0,0,0,0,8,2,0,0,0,0,0,2,2,8,2,2,0,2,0,0,0,0,0,0,0,0,0,0,2,2,0,0,0,0,0,0,0,0,0,0,11,0,2,0,0,0,0,0,12,0,2,0,2,0,1,0,0,3,0,2,5,2,0,2,2,0,0,0,0,0,12,2,0,0,2,5,9,5,5,5,0,3,12,3,0,0,0,0,2,5,2,0,1,2,0,0,8,0,0,2,0,12,0,0,0,3,2,0,3,12,0,0,0,0,2,3,0,0,2,0,0,0,0,0,7,2,7,9,0,0,0,0,0,0,2,0,0,12,0,0,0,0,0,0,0,5,5,12,7,0,0,0,0,0,0,12,0,2,0,0,0,0,3,0,2,0,0,0,0,0,0,0,0,0,0,0,2,0,0,2,12,0,0,0,0,0,0,0,0,0,11,0,0,0,0,0,2,11,0,0,0,9,0,0,0,0,0,0,0,5,0,0,12,2,0,0,0,0,8,3,2,0,2,2,2,0,0,0,0,0,0,9,9,0,12,0,12,0,0,0,0,0,0,0,0,0,0,5,0,0,12,0,7,0,0,2,2,12,2,7,9,9,2,12,3,0,0,0,1,0,7,1,0,0,3,0,0,0,0,0,0,0,0,0,0,0,0,0,0,0,0,0,0,0,0,12,7,0,1,0,0,10,0,0,0,0,0,0,0,0,2,0,2,0,0,2,0,0,0,0,0,0,0,0,0,0,0,0,0,0,9,0,12,2,12,2,0,7,1,1,2,0,2,0,0,0,7,7,0,0,0,0,3,0,7,0,0,0,0,0,0,0,0,0,0,0,0,0,0,0,0,0,0,0,0,0,0,0,0,0,0,0,0,0,0,0,0,0,0,0,0,0,0,0,0,0,0,0,0,0,0,0],"split_type":[0,0,0,0,0,0,0,0,0,0,0,0,0,0,0,0,0,0,0,0,0,0,0,0,0,0,0,0,0,0,0,0,0,0,0,0,0,0,0,0,0,0,0,0,0,0,0,0,0,0,0,0,0,0,0,0,0,0,0,0,0,0,0,0,0,0,0,0,0,0,0,0,0,0,0,0,0,0,0,0,0,0,0,0,0,0,0,0,0,0,0,0,0,0,0,0,0,0,0,0,0,0,0,0,0,0,0,0,0,0,0,0,0,0,0,0,0,0,0,0,0,0,0,0,0,0,0,0,0,0,0,0,0,0,0,0,0,0,0,0,0,0,0,0,0,0,0,0,0,0,0,0,0,0,0,0,0,0,0,0,0,0,0,0,0,0,0,0,0,0,0,0,0,0,0,0,0,0,0,0,0,0,0,0,0,0,0,0,0,0,0,0,0,0,0,0,0,0,0,0,0,0,0,0,0,0,0,0,0,0,0,0,0,0,0,0,0,0,0,0,0,0,0,0,0,0,0,0,0,0,0,0,0,0,0,0,0,0,0,0,0,0,0,0,0,0,0,0,0,0,0,0,0,0,0,0,0,0,0,0,0,0,0,0,0,0,0,0,0,0,0,0,0,0,0,0,0,0,0,0,0,0,0,0,0,0,0,0,0,0,0,0,0,0,0,0,0,0,0,0,0,0,0,0,0,0,0,0,0,0,0,0,0,0,0,0,0,0,0,0,0,0,0,0,0,0,0,0,0,0,0,0,0,0,0,0,0,0,0,0,0,0,0,0,0,0,0,0,0,0,0,0,0,0,0,0,0,0,0,0,0,0,0,0,0,0,0,0,0,0,0,0,0,0,0,0,0,0,0,0,0,0,0,0,0,0,0,0,0,0,0,0,0,0,0,0,0,0,0,0,0,0,0,0,0,0,0,0,0,0,0,0,0,0,0,0,0,0,0,0,0,0,0,0,0,0,0,0,0,0,0,0,0,0,0,0,0,0,0,0,0,0,0,0,0,0,0,0,0,0,0,0,0,0,0,0,0,0,0,0,0,0,0,0,0,0,0,0,0,0,0,0,0,0,0,0,0,0,0,0,0,0,0,0,0,0,0,0,0,0,0,0,0,0,0,0,0,0,0,0,0,0,0,0,0,0,0,0,0,0,0,0,0,0,0,0,0,0,0,0,0,0,0,0,0,0,0,0,0,0,0,0,0,0,0,0,0,0,0,0,0,0,0,0,0,0,0,0,0,0,0,0,0,0,0,0,0,0,0,0,0,0,0,0,0,0,0,0,0,0,0,0,0,0,0,0,0,0,0,0,0,0,0,0,0,0,0,0,0,0,0,0,0,0,0,0,0,0,0,0,0,0,0,0,0,0,0,0,0,0,0,0,0,0,0,0,0,0,0,0,0,0,0,0,0,0,0,0,0,0,0,0,0,0,0,0,0,0,0,0,0,0,0,0,0,0,0,0,0,0,0,0,0,0,0,0,0,0,0,0,0,0,0,0,0,0,0,0,0,0,0,0,0,0,0,0,0,0,0,0,0,0,0,0,0,0,0,0,0,0,0,0,0,0,0,0,0,0,0,0,0,0,0,0,0,0,0,0,0,0,0,0,0,0,0,0,0,0,0,0,0,0,0,0,0,0,0,0,0,0,0,0,0,0,0,0,0,0,0,0,0,0,0,0,0,0,0,0,0,0,0,0,0,0,0,0,0,0,0,0,0,0,0,0,0,0,0,0,0,0,0,0,0,0,0,0,0,0,0,0,0,0,0],"sum_hessian":[3.69722E5,1.86593E5,1.83129E5,1.2176E5,6.4833E4,1.12812E5,7.0317E4,7.9281E4,4.2479E4,5.4215E4,1.0618E4,7.729E4,3.5522E4,4.7384E4,2.2933E4,2.477E4,5.4511E4,1.4218E4,2.8261E4,1.8864E4,3.5351E4,6.552E3,4.066E3,6.9102E4,8.188E3,1.4003E4,2.1519E4,1.9029E4,2.8355E4,9.389E3,1.3544E4,9.836E3,1.4934E4,2.2316E4,3.2195E4,9.173E3,5.045E3,1.4453E4,1.3808E4,1.144E4,7.424E3,1.8886E4,1.6465E4,2.662E3,3.89E3,1.556E3,2.51E3,2.0441E4,4.8661E4,3.121E3,5.067E3,1.2512E4,1.491E3,1.7738E4,3.781E3,9.46E3,9.569E3,2.3544E4,4.811E3,7.897E3,1.492E3,1.0284E4,3.26E3,6.21E3,3.626E3,8.285E3,6.649E3,1.245E4,9.866E3,1.6042E4,1.6153E4,4.08E3,5.093E3,1.404E3,3.641E3,6.653E3,7.8E3,6.573E3,7.235E3,3.923E3,7.517E3,2.234E3,5.19E3,9.541E3,9.345E3,7.418E3,9.047E3,1.14E3,1.522E3,1.905E3,1.985E3,5.65E2,9.91E2,2.18E2,2.292E3,1.0658E4,9.783E3,2.4197E4,2.4464E4,1.336E3,1.785E3,7.41E2,4.326E3,7.246E3,5.266E3,5.45E2,9.46E2,1.0118E4,7.62E3,2.193E3,1.588E3,8.599E3,8.61E2,8.268E3,1.301E3,1.3692E4,9.852E3,2.4E3,2.411E3,4.324E3,3.573E3,6.64E2,8.28E2,5.837E3,4.447E3,1.856E3,1.404E3,2.063E3,4.147E3,2.372E3,1.254E3,4.052E3,4.233E3,5.739E3,9.1E2,1.335E3,1.1115E4,4.773E3,5.093E3,1.1174E4,4.868E3,8.015E3,8.138E3,1.408E3,2.672E3,5.053E3,4E1,1.395E3,9E0,1.697E3,1.944E3,6.582E3,7.1E1,5.089E3,2.711E3,6.559E3,1.4E1,5.462E3,1.773E3,4.46E2,3.477E3,7.424E3,9.3E1,2.216E3,1.8E1,5.16E3,3E1,9.462E3,7.9E1,6.309E3,3.036E3,7.407E3,1.1E1,6.217E3,2.83E3,1.132E3,8E0,5.58E2,9.64E2,1.114E3,7.91E2,1.826E3,1.59E2,3.22E2,2.43E2,6.7E2,3.21E2,1.73E2,4.5E1,2.262E3,3E1,6.598E3,4.06E3,4.504E3,5.279E3,1.6164E4,8.033E3,5.021E3,1.9443E4,1.1E1,1.325E3,7.6E2,1.025E3,7.38E2,3E0,1.555E3,2.771E3,6.728E3,5.18E2,1.54E3,3.726E3,1.2E1,5.33E2,5E0,9.41E2,4.959E3,5.159E3,3.736E3,3.884E3,1.383E3,8.1E2,1.446E3,1.42E2,4.953E3,3.646E3,8.58E2,3E0,6.034E3,2.234E3,6.19E2,6.82E2,1.2788E4,9.04E2,7.931E3,1.921E3,1.472E3,9.28E2,1.252E3,1.159E3,4.149E3,1.75E2,1.701E3,1.872E3,3.84E2,2.8E2,3.8E2,4.48E2,4.989E3,8.48E2,3.305E3,1.142E3,1.433E3,4.23E2,6.09E2,7.95E2,2.162E3,3.577E3,1.1153E4,2.1E1,2.378E3,2.49E3,6.36E3,1.655E3,7.995E3,1.43E2,3.28E2,1.08E3,2.611E3,6.1E1,2.651E3,2.402E3,1.686E3,1.1E1,1.94E3,4E0,4.758E3,1.824E3,4.3E1,2.8E1,5.067E3,2.2E1,2.696E3,1.5E1,4.187E3,2.372E3,5.459E3,3E0,1.711E3,6.2E1,4.37E2,9E0,2.877E3,6E2,4.768E3,2.656E3,1.694E3,5.22E2,3.852E3,1.308E3,2.2E1,8E0,6.683E3,2.779E3,6.293E3,1.6E1,3.027E3,9E0,5.53E3,1.877E3,2.78E3,3.437E3,2.802E3,2.8E1,4.48E2,6.84E2,3.12E2,2.46E2,5.12E2,4.52E2,5.93E2,5.21E2,4.46E2,3.45E2,1.528E3,2.98E2,2.75E2,4.7E1,4.85E2,1.85E2,2.15E2,1.06E2,1.6E1,2.9E1,3.987E3,2.611E3,3.168E3,8.92E2,1.869E3,2.635E3,5.24E3,3.9E1,7.864E3,8.3E3,1.935E3,6.098E3,2.171E3,2.85E3,1.1044E4,8.399E3,8E0,3E0,2.96E2,1.029E3,4E0,7.56E2,4.65E2,2.73E2,7.09E2,8.46E2,1.58E3,1.191E3,3.782E3,2.946E3,2.96E2,2.22E2,3.148E3,5.78E2,5E0,7E0,4.9E2,4.3E1,5.34E2,4.07E2,2.167E3,2.792E3,3.494E3,1.665E3,2.256E3,1.48E3,3.321E3,5.63E2,4.02E2,9.81E2,5.33E2,9.13E2,2.191E3,2.762E3,2.072E3,1.574E3,4E2,4.58E2,1.796E3,4.238E3,2.183E3,5.1E1,7.779E3,5.009E3,2.735E3,5.196E3,1.369E3,5.52E2,1.003E3,4.69E2,5.4E1,1.198E3,1.433E3,2.716E3,1.626E3,2.46E2,2.866E3,2.123E3,2.62E2,5.86E2,1.736E3,1.569E3,4.2E2,7.22E2,6.78E2,7.55E2,8.328E3,2.825E3,5.006E3,1.354E3,4.336E3,3.659E3,1.37E2,6E0,7.56E2,1.855E3,2.647E3,4E0,1.926E3,1.4E1,1.34E3,3.418E3,6E0,2.2E1,1.853E3,3.214E3,6.61E2,2.035E3,1.432E3,2.755E3,3.543E3,1.916E3,1.184E3,5.27E2,6E0,3E0,2.817E3,6E1,1.675E3,3.093E3,2.34E3,1.512E3,1.64E3,5.043E3,1.36E3,1.419E3,1.837E3,4.456E3,1.481E3,1.546E3,2.655E3,2.875E3,8.82E2,9.95E2,1.313E3,1.467E3,1.615E3,1.822E3,2.181E3,6.21E2,2.33E2,2.15E2,6.22E2,6.2E1,1.68E2,2.84E2,1.65E2,3.56E2,2.07E2,1.38E2,3.88E2,1.14E3,1.31E2,1.44E2,6.6E1,4.19E2,1.14E2,7.1E1,5.7E1,1.58E2,7E1,3.6E1,1.202E3,6.67E2,9.33E2,1.702E3,3.827E3,1.413E3,3.587E3,4.277E3,3.47E3,4.83E3,4.958E3,6.086E3,5.879E3,2.52E3,6.44E2,3.85E2,1.076E3,5.04E2,6.45E2,5.46E2,2.646E3,1.136E3,1.616E3,1.33E3,1.33E2,4.45E2,2.21E2,2.69E2,3.58E2,1.76E2,9E2,1.267E3,1.469E3,2.025E3,1.01E3,1.246E3,2.61E2,1.219E3,1E3,2.321E3,1.456E3,7.35E2,9.84E2,1.778E3,3.375E3,8.63E2,1.6E3,5.83E2,4E1,1.1E1,5.524E3,2.255E3,4.092E3,9.17E2,2.177E3,3.019E3,1.437E3,1.429E3,8.9E2,1.233E3,4.999E3,7E0,3.963E3,3.73E2,2.187E3,4.6E2,1.068E3,8.58E2,4E0,1E1,1.57E2,1.183E3,2.25E3,1.168E3,3E0,3E0,2.005E3,1.209E3,1.332E3,7.03E2,6.73E2,7.59E2,1.743E3,1.012E3,1.219E3,6.97E2,1.166E3,1.8E1,5.77E2,1.098E3,1.19E3,1.903E3,1.594E3,7.46E2,1.38E2,1.502E3,2.527E3,2.516E3,7.26E2,6.34E2,7.16E2,7.03E2,9.35E2,9.02E2,2.171E3,2.285E3,7.28E2,8.18E2,7.79E2,1.876E3,1.376E3,1.499E3,1.326E3,2.89E2,8.43E2,9.79E2,2.111E3,7E1,1.6E2,7.3E1,8E1,1.35E2,1.08E2,6E1,1.65E2,1.91E2,3.9E1,9.9E1,8E1,6.4E1,1.8E1,4.8E1,6E1,5.4E1,1.1E1,6E1,6.25E2,5.77E2,3.98E2,2.69E2,2.508E3,1.319E3,1.976E3,2.982E3,4.36E3,1.726E3,2.808E3,3.071E3,9.19E2,1.601E3,7.79E2,1.867E3,4.86E2,8.44E2,7.36E2,5.31E2,9.63E2,5.06E2,6.15E2,1.41E3,4.01E2,6.09E2,2.86E2,4.49E2,4.21E2,1.357E3,1.5E1,2.5E1,1.546E3,3.978E3,7.98E2,3.165E3,1.06E2,3.54E2,8.92E2,1.76E2,5.01E2,1.504E3,6.41E2,1.102E3,2.61E2,7.51E2,9E0,9E0,7.59E2,7.43E2,2.49E2,4.77E2,1.11E2,5.23E2,1.479E3,6.92E2,1.121E3,1.164E3,5.36E2,1.92E2,4.02E2,3.77E2,1.345E3,5.31E2,6.55E2,7.21E2,5.4E1,1.6E1,9.1E1,6.9E1,3.4E1,4.6E1,5.2E1,5.6E1,2.4E1,3E1,2.38E2,3.87E2,2.71E2,1.27E2,7.93E2,5.26E2,1.281E3,6.95E2,2.47E3,5.12E2,1.684E3,2.676E3,7.49E2,9.77E2,1.189E3,1.619E3,1.439E3,1.632E3,9.08E2,1.1E1,1.278E3,3.23E2,2.15E2,5.64E2,1.69E2,5.67E2,4.59E2,5.04E2,4.58E2,4.8E1,9.5E1,3.06E2,9E0,6E0,6.07E2,1.44E2,6E0,3E0,4.02E2,3.57E2,2.3E2,2.47E2,2.65E2,1.37E2,7.85E2,5.6E2,3.58E2,3.63E2,4.01E2,3.92E2,1.184E3,9.7E1,2.05E2,4.9E2,1.568E3,9.02E2,4.54E2,5.8E1,1.269E3,1.407E3,6.09E2,1.4E2,7.6E2,2.17E2,9.19E2,2.7E2,1.163E3,2.76E2,6.1E2,6.68E2,1.39E2,1.84E2,1.22E2,3.37E2,1.22E2,3.36E2],"tree_param":{"num_deleted":"0","num_feature":"13","num_nodes":"783","size_leaf_vector":"1"}},{"base_weights":[1.6258378E-5,-7.348418E-2,7.494073E-2,-1.1569291E-1,5.908041E-3,1.45682525E-2,1.7201704E-1,-1.695096E-1,-1.5554092E-2,-1.7382657E-2,1.2475325E-1,-3.368096E-2,1.18936054E-1,1.1895276E-1,2.8234527E-1,-2.2300667E-1,-1.4513773E-1,-6.603588E-2,9.965786E-3,-6.9128916E-2,1.0319029E-2,8.137309E-2,1.9298048E-1,-4.652469E-2,7.481328E-2,6.956917E-2,1.5108849E-1,6.810299E-2,1.5291405E-1,2.3022039E-1,3.185682E-1,-2.4925137E-1,-1.9731991E-1,-1.8110414E-1,-1.2024148E-1,-8.327726E-2,-3.4647707E-2,-2.2266394E-2,4.3525424E-2,-9.052738E-2,-3.625462E-2,-2.612515E-2,4.4482503E-2,4.1631352E-2,1.08171344E-1,1.23134755E-1,2.3640016E-1,-9.242941E-2,-2.7260695E-2,3.61806E-2,9.87409E-2,5.7979073E-2,1.70738E-1,1.331231E-1,2.3482458E-1,3.7524886E-2,9.796378E-2,1.3885644E-1,2.3364885E-1,2.1582283E-1,3.241879E-1,2.973781E-1,3.9043975E-1,-2.6066774E-1,-2.3219326E-1,-2.1188974E-1,-1.8450329E-1,-1.9487074E-1,-1.6365044E-1,-1.3838796E-1,-1.02182046E-1,-9.988545E-2,-7.005463E-2,-5.1015906E-2,-2.8434567E-2,-4.3066334E-2,-9.977963E-3,2.4411183E-2,6.102692E-2,-1.1064942E-1,-7.99362E-2,-5.3163353E-2,-2.8889772E-2,-4.53626E-2,-1.2282643E-2,2.1733765E-2,5.9628993E-2,1.6493607E-2,5.7439845E-2,9.0478934E-2,1.2523407E-1,9.069098E-2,1.4605579E-1,2.0470956E-1,2.3946424E-1,-1.3098098E-1,-4.9767893E-2,-5.2492753E-2,-2.2795713E-3,1.4655752E-2,5.1720228E-2,5.354864E-2,1.0638801E-1,3.9849967E-2,8.291573E-2,1.4061739E-1,1.8967253E-1,1.1248528E-1,1.6041349E-1,2.0816281E-1,2.7144617E-1,3.0001627E-2,1.1134319E-1,8.662838E-2,1.7125447E-1,1.1893353E-1,1.6593386E-1,2.1371002E-1,2.67168E-1,1.9695008E-1,2.3851715E-1,3.0169693E-1,2.4972092E-2,2.766765E-1,3.2451582E-1,3.700705E-1,4.169434E-1,-1.9415785E-2,-1.8310865E-2,-1.7050857E-2,-1.6205102E-2,-2.2043262E-1,-1.4938641E-2,-1.869865E-1,-1.6825187E-1,-1.5105179E-2,-1.9292611E-1,-1.2150865E-2,-1.5796885E-1,-1.4325805E-1,-1.27237E-1,-1.11092746E-1,-9.161774E-2,-1.14887394E-1,-9.19181E-2,-6.92884E-2,-1.1721836E-2,-5.008444E-2,-1.2527281E-2,-3.1935584E-2,-1.7132062E-2,-4.1768257E-2,-1.0380914E-2,-1.6203241E-2,4.732897E-3,2.4727972E-2,-9.927049E-3,5.3973418E-2,8.244493E-2,-9.83388E-3,-1.0929206E-1,-7.895362E-2,-1.087268E-2,-5.212634E-2,-1.2842074E-2,-2.8289188E-2,-1.3477671E-1,-4.4432893E-2,-1.1053409E-2,-2.1881118E-2,-5.218003E-3,2.2074686E-2,-1.1224602E-2,5.282058E-2,7.899078E-2,1.806386E-2,-1.0204937E-2,4.489565E-2,6.640372E-2,8.183206E-2,1.0238232E-1,1.2152911E-1,1.1856856E-2,6.026015E-3,1.09138794E-1,1.5993027E-1,1.1523025E-1,1.541471E-2,1.6228166E-1,1.7065393E-2,2.199288E-2,-1.4418627E-1,-1.09584354E-1,-6.5938905E-2,-3.971865E-2,-6.778918E-2,-4.2940907E-2,-2.1744099E-2,2.773113E-3,-1.12734534E-1,1.6017422E-2,4.190311E-2,4.2309477E-3,3.3042422E-3,4.2235046E-3,8.4126554E-2,1.1904812E-1,3.4141287E-2,1.074614E-1,5.0931205E-3,8.767507E-2,1.4416601E-1,5.506191E-2,1.2815852E-2,1.4422239E-2,1.0250721E-1,1.2205915E-1,1.5060906E-1,1.6982722E-1,1.949998E-1,1.6503427E-2,2.659733E-1,2.298111E-2,1.8339433E-2,4.5954973E-2,1.1275515E-1,-5.43603E-2,7.8855135E-2,1.0726306E-1,1.1433159E-2,1.3013046E-2,1.13268405E-1,1.30854165E-2,1.5576057E-1,1.7817965E-1,2.021049E-1,2.31895E-1,2.5881997E-1,2.0311894E-2,1.9199835E-1,1.9237144E-2,1.6282197E-2,2.4648234E-1,2.0043215E-2,2.2407027E-2,2.7210912E-1,3.219612E-1,3.1643835E-1,2.5144363E-2,3.787165E-1,2.4307711E-2,2.8681928E-2,3.0635094E-2,-1.516608E-2,-1.6610064E-2,-1.3826741E-2,-1.3119401E-2,-1.1303466E-2,-1.2525884E-2,-1.964608E-1,-1.3672764E-2,-1.1503781E-2,-1.103914E-2,-1.4309892E-1,-1.5119772E-2,-1.2702438E-1,-1.5033621E-2,-1.1410233E-1,-7.4046273E-3,-9.292917E-2,-2.5957728E-2,-9.519701E-3,-7.8147035E-3,-9.07394E-2,-1.034594E-2,-7.428307E-2,-4.573255E-3,-3.1444565E-3,-3.8247856E-3,-3.1012185E-2,-1.1391293E-2,-1.2816843E-3,1.9867E-3,-5.0991777E-2,-3.8665377E-2,-1.5584374E-2,-1.019304E-2,5.4988395E-3,-9.498823E-3,9.539134E-4,2.7963346E-2,5.4119874E-2,-1.1368165E-2,7.892261E-2,1.1932187E-2,-8.110794E-3,-7.452217E-3,-8.429865E-2,-6.939213E-2,-3.9311703E-3,-3.0845953E-3,-3.2288156E-2,-1.6604569E-2,-1.2139797E-2,-9.972169E-5,-3.719089E-3,-4.2113245E-2,-2.1148471E-2,-1.3049972E-1,-4.912378E-3,-9.953638E-3,1.1860188E-2,